{"input_nodes":784,"hidden_nodes":16,"output_nodes":10,"multilayer":false,"weights_ih":{"rows":16,"cols":784,"data":[[-0.7865449844016341,-0.09153507764072044,-0.10511468796393197,-0.7834904101619986,0.7592417486512981,-0.2968667912096743,0.7635041272440812,0.34657832762212104,-0.03349281415073824,0.3570015764917547,0.9816739169548394,-0.4478309056698122,-0.9326692728005263,0.44479738823098647,-0.6204681687530625,-0.2814486001441792,-0.1766924558195062,-0.6221856711844196,-0.18195750943445166,-0.6734962576426495,0.23762765084271908,-0.06155284593648158,-0.8198042614573233,0.7686572625411237,-0.6243184582327457,-0.3453791110380555,0.511195094245942,0.7248612793675298,-0.2925019760155796,0.6280675769118229,0.8305681713564534,-0.8372953152166853,0.3334480546226782,-0.881117302142462,-0.44702512378405374,0.5153223212826488,0.6773779549195289,0.8277364634789152,-0.5249213178986385,-0.9353046204602345,-0.21552298206994053,-0.4444716623764673,-0.42965082871639826,-0.8427441902853399,-0.8122246784076466,-0.7847701158720224,0.8842532855461736,-0.8061620616310681,0.34035107366178247,0.5362336803641424,0.27635778720842885,0.2208496218424204,-0.7389061102170018,-0.5476921054197414,0.7139469942178955,0.7703285777859783,-0.5010487401611585,0.4472134455728205,-0.7194639580962319,0.5468278493571358,-0.682901721474637,0.07077783460158127,-0.34391655230196494,0.10447717961944174,0.10391744478038692,-0.28538335867824716,1.1467828652561896,0.23945119553710567,1.2448338469048286,0.07598448892450733,0.41197715292766285,1.420497546063372,0.29801282040339433,-0.06999479550607515,-0.30421187558616813,-0.46543333187062746,0.16534646597155733,-0.5221883718936762,0.4184238309531378,-0.4363770210637248,-0.8475932001710382,0.08169137344380296,0.4964875382449243,-0.9452169702783397,0.6545657023422309,-0.058303009365209046,-0.6016264147203554,0.8297965071799239,0.986746774774248,-0.23668955883368825,0.9038354020457837,0.030975036239708095,1.2738173408612217,-0.061160621503305757,0.957702904922677,0.4897055304147688,1.7625901798812316,1.9375820097526582,1.9496421726858593,1.2059759568819641,0.24395282484802072,0.3972306119219245,1.1224019788215422,1.0275967346975199,0.2176694786614496,0.10101154037316033,0.04226654237931786,0.5524198984694603,-0.8612428932437979,-0.6075954686535668,-0.5940284994624992,-0.2373369658836877,-0.10002499693234013,-0.3950056603354248,0.3495117592840992,0.3033245063211301,0.9877739111939718,-0.38895949725919715,0.6022897492106197,1.335724700686908,0.7807824946828718,1.431420977692175,0.9210017119623697,-0.4152004037362623,1.1310145736332944,-0.2187485854485633,-0.03393983374705876,0.4971446303236197,0.5745550368743245,0.7545403111890883,0.8569278379463104,-0.12814016067322725,-0.15204667556891283,0.7789696713881231,0.007558844894936697,1.0919249892552318,-0.17409753265844105,0.20606302349982666,0.6657724545188379,-0.2264355540636339,-0.8113711261310543,0.1384206577910465,-0.045452971149409334,-0.04737628067357899,-0.3575828662017291,-0.8434370629313033,0.16791495503656112,0.23891943783841488,1.518779461657723,1.1274711610053003,-0.49765928826157096,0.9219043886808057,-0.4906292944262882,-0.15094765193192627,0.38004200090244816,-0.6406970355524704,0.763994076255305,0.08262997701564732,0.08272574768287885,0.3072973038376896,0.828283478501609,0.9799740016572472,-0.2119934937050955,1.2501491345609068,-0.1461157301248956,-0.11227412260053589,-0.6038969256857517,0.7472328249884179,-0.3520990341720984,0.7713321698289712,0.19337983117167398,0.4232236866708717,-0.8235381292264878,0.2981521236657182,1.050686456244273,0.3677804202923665,0.15206066440253205,1.2009315545007977,0.3606728093345697,0.11529582349502202,-0.3346281652525137,-1.0021273093529866,-0.5483908871486617,0.057018859395761005,-0.514578146773878,-0.6469847761472993,0.07815361832830861,-0.08635273761271327,0.8857233066466459,0.34986095573894843,0.01109065640299505,0.11795811372513233,1.167037487403453,-0.3616469710592213,-0.8639409935938228,0.9130217348677632,0.2738268372336833,0.3209781646085659,0.25906315140819247,-0.30666877867685943,-0.12208552182635904,0.063107946907476,0.06739850082895499,0.0036893979928436147,-0.0422390524795589,0.5366483381213689,-0.1963459586800185,0.4060444328175025,-0.12409655538094155,0.10437568823531455,0.39060761728514953,-1.1310170757432845,0.6652171795194901,0.12001464691314036,0.30493135679534605,-0.2302923408882203,-0.5438387353487548,-0.8084710811385674,-1.2754130695777912,0.13217949528773748,0.4047039500463359,0.6692841988966635,0.17407314195676207,-0.6336153721303467,-0.19598592570468437,-0.43942033198094493,0.08410256185616498,0.3770905399641782,0.752804066926181,0.2830549527082216,0.1339699085078933,0.6811060853490868,0.1909657351092647,-0.8669136415591581,0.8854803293127264,0.7139611640704122,1.2340837308809867,0.06290398006957165,0.29430118482757855,0.8867665625196072,-0.5667816808245455,-0.8664855337778232,-1.1841414322237975,-1.955317440859588,-0.7790577830062407,-2.0560601166142125,-1.1025971790697056,-1.1650225022464422,-0.9688455498997592,0.6472885002269437,-0.8375819524463154,0.824247951198884,-0.6715225484523357,0.10391910276614177,-0.36206656209560806,0.7482821169613111,0.060978511844551254,-0.7895279207564294,0.6495533766481768,-0.7735629818057314,-0.43673037471863124,0.298136642062965,-0.44368825787575394,-0.24546445103054687,0.2810257477309441,0.2047537383920736,-0.22361334021027296,-1.1022900729472032,-1.6025786972648373,-1.9741096710865313,-2.348785576986772,-1.0582110547369157,-2.5593716523913113,-1.9852312419981653,-1.8237141236649466,-0.7510145134515062,-0.4790967888747413,0.5969839081962052,0.5889524106147049,-0.86158237565724,0.6276184326473135,-0.4679113692945075,-0.1190526441559268,-0.5564279193340903,0.8121245377487518,-0.33736927348101775,-0.9002267405755273,-0.034221896415319114,0.3365606840973023,-1.638132400996806,-0.20557014215005626,-0.9613964383012827,-0.9920524070052171,-0.6899011870285848,-1.0867247839700014,-2.729514947078789,-2.4770595030480247,-2.688872110863377,-0.8158415128957649,-2.153977317710865,-1.0955949074165463,-0.928384087610051,-1.7784682434098384,-0.42544549772040047,-0.3890318837106006,-0.33378326365180155,0.5687938587201175,-0.30789401452145543,-0.5723924698192692,0.8454006900117644,-0.2818184540229789,-0.03553134526264501,0.5209187299050666,-0.8664941522939154,-0.823828385930771,-1.7114605486409935,-1.831445410323651,-1.301617338136744,-1.136240640736766,-1.4434318520240033,-2.4091064468272467,-0.5022657120264158,0.4108682613741135,-0.8407842812814637,-1.1886214470644072,-0.30203134571626017,-0.8963890266636694,-0.6898654424592848,-0.32599544847836553,-0.7415732038314958,-1.0935430788634797,-0.45048498462921355,-0.7964180319872779,0.368874865632544,-0.1045995536489082,0.8333383437420898,-0.5365893295777306,-0.132374856450227,0.26819667203391107,0.8654770692877941,-0.4935104904573117,-0.31386905738672705,-2.2500462047416385,-2.1541992967944643,-1.364340918300943,-1.0323089010867423,-2.2878383503603716,-1.85013500693748,-1.7888061643263584,0.7501393859710669,1.6220356698407898,0.6524903142231261,-0.5413331117405982,-0.7537458689054352,-0.12161200590696447,-0.7783482816162666,-1.0117123216922355,0.2984948443727206,-0.9317337617723175,-0.8766259722748603,-0.03046885999008279,0.24398493972984464,-0.8117029255716516,0.5022070431324546,-0.5019255528747542,-0.508355609717956,0.8704393410329646,-0.4713911629286853,-0.8397402194913753,-2.4467502066254636,-1.5899200357429528,-2.485416526767572,-1.8706141045398268,-1.9486152947176132,-0.14109490400464247,-1.4398250449389354,-0.17923914175937022,2.141710836968025,1.3923300803012213,0.27194202357944164,0.1942199438717467,-0.22498721039406674,-0.5698610401175577,0.122469751742448,-1.5795444158965979,-0.10249441259948405,-1.1925387278992376,-0.4319340763288386,0.9470409624061827,-0.016715009312253372,0.13557683439075743,0.6833198425697719,0.19030623246126926,0.018515752673599187,-0.857549979659432,0.34104882585759405,-0.10653460463561137,-1.6892447508854638,-1.6251746471524444,-0.7904182071971084,-0.07063750607896367,-0.1718019118828664,-0.6379836372731579,-0.5862098768076458,1.0202421985804568,2.097624890396737,1.4522583696565448,0.6300863848039381,-1.1312888385027995,-0.4131168514259832,0.4189293592128217,-0.7471421702203618,0.441043902077706,-0.5428156589299953,-1.0536804619252245,0.30465550168758065,-0.13716255629007304,1.022495684959589,-0.7542140395845177,-0.321350389544094,-0.6061999800932958,-0.5926262643384869,-0.9434944199999635,0.09622556732048555,-0.8559217750424468,-0.8501477626028047,-0.032258443103963974,-0.7868409038940045,-0.573533547530117,0.3533636116316988,-1.0484771765969123,-0.4030098681287693,0.19111296569608455,2.0952167837935645,2.4313364943577636,0.06895866084812197,0.31808525196645104,-0.1862380744671499,-0.2507894839667506,-0.5821071387733211,0.3176189036006964,0.027466306260084464,0.2512600832060412,-0.45735930650601947,0.4898647063985737,0.818609566039128,0.11220119128158086,-0.7386275050425597,0.34998679430815655,0.8789094047883543,-0.487021548836068,-0.03174568238900474,0.45184898366802395,-0.08234618711054886,-0.45179921435523357,0.03175790319735568,0.3777100065563223,-0.18821748478432324,0.32582304698304826,0.44582924799550255,0.7221300917149062,2.6079235607104136,1.3010830279129637,0.9045707840355972,0.5405676760923926,-0.30783670384259415,0.8386483920743615,0.6545975077538744,-0.07929491324413664,0.6544564457464053,0.44595350124414396,-0.10690300552925583,0.6605491818742598,1.5307794290991898,0.27749885241361266,0.35227539975929245,0.36013352714946567,-0.7724088707142193,-0.8391476236517165,-0.7640219953922102,-0.5737626835996557,0.6730237509315101,-0.18338589519094628,-0.9718354884846323,-0.17916213705415984,0.5759211972722309,0.8564573525602467,0.7973113416495893,1.1237810182863213,0.9125688591680844,1.8733056262662582,0.2947948358208943,0.13469775804965028,-0.2709151634867344,0.09345470019515843,1.1716990068691615,0.6351924843391568,0.37678204389822734,0.490763586297387,0.7398425446264668,0.6752265521374005,1.2576197387600172,-0.04887170588164808,0.425239606226421,-0.740772838894145,0.8931865479419014,-0.3684206994769959,0.8012227836421233,1.0330844883271089,0.00799026214944601,0.26864935646119936,0.5574637716266457,-0.4564263255830692,-0.74207105595031,0.30906926465524925,0.9958121834183749,0.2527298290216646,0.5275922261672661,1.0994553581211444,0.08703326503970085,0.8608577751231246,0.4088523251104889,0.8106220227704842,0.4196297964488169,0.1596357143178736,-1.1361564971987703,0.12070622683018431,0.8054846485339414,0.6677093780929282,0.662053714530854,-0.32071807042885697,0.07229823476627677,-0.010517885063174722,-0.3916117445295541,-0.030639024155231093,-0.6868163800652514,0.12700449444288728,1.4601035231212034,0.28954573409404083,0.07410481046500395,0.07198337098032115,1.1926310864588283,0.6659363724381698,0.5385683738282955,1.4963337363226397,0.4287729998091227,0.8355056669893927,1.1891667171326807,1.5081961747437138,1.2035401873860245,1.1209026619038516,0.8308444886708798,-0.2775647990808228,0.8237250356917497,0.3427885546664596,1.6331098330721279,0.24152833004747062,0.43417511018119864,-0.271178647318411,-0.005223016415602772,0.6218927669809369,0.42697406725914583,0.6451620293333791,0.8628290247270421,1.5586812158977257,1.8619566839871324,1.146934054360664,1.3535672098309681,0.2810976609163639,1.9882265313645038,0.7741479344782859,1.3009126958631991,1.375626780733839,0.6018044139371674,-0.06879026471895479,-0.9233823216812468,1.5404808040418658,0.8104564354815129,-0.0008684229942749752,0.8010384208395873,-0.3349077768431826,0.28807924278956204,0.9991541219405091,1.6604355120425738,0.799817723349656,0.4314713569500871,0.02496595132943553,0.3454009323956719,-0.9411391975735117,0.33484713446682624,0.9729750673740031,-0.5422467818215003,-0.5302750773951528,1.0567279368420843,-0.056798070936431286,1.0235424620825315,0.10630414522466403,1.0941701689178185,0.8327918455432446,0.1463985823489392,0.13925639010640428,0.6431278013567593,0.9654351949484823,-0.5108892450546431,-0.054153862120715934,1.0004354091842849,1.0128403983895002,0.08308376822618202,0.9607261826565695,1.2629799461041957,0.81428656776476,0.13703665127413742,1.0479261216506974,0.7492837616384396,0.33421613784880955,-0.510067132628411,-0.45012276196959233,-0.47069796271037534,0.32629089843698916,0.5095319157034368,-0.16021046681455817,-0.07450686818591097,0.37922558185601557,0.8566180165345758,0.3465721050211389,-0.12133125612220977,-0.26973057728537037,0.6013514436277606,-0.603144331073936,-0.6273523557380638,0.32244366784512996,-0.527517594975222,-0.01453844059418871,-0.39033041530008583,1.0437728046668735,0.08182602751304587,1.1448013197254479,0.9654515959035213,-0.31420310509771415,-0.02977923777930787,0.0165623210865488,-0.4527641814999365,0.7554351584597271,0.5685728067750069,0.5253310423794093,-0.9785425720408809,-0.5055035007786371,-0.7953689285080405,-0.2755787750923508,1.0261953580053271,0.6535522999320819,-0.7673700525356011,0.7117401670968608,1.130843315443678,0.11379898950129923,-0.09413045569837993,1.2069789576176986,-0.2964683825666732,0.98265139019033,0.6430982568982264,0.5050974315307294,-0.33206882967485984,-0.20118530782814772,0.6191221942328999,0.8312420087083101,-0.4814458697691338,0.7190154977309396,0.2845712963839033,0.6126069289355117,-0.7055650156962658,-0.5184695587859403,0.8872046830704199,-0.9985249446113884,0.14545881229033553,0.16423907528850498,0.9256633041389054,-0.5301519814419445,0.7389845363805883,-0.22950977720181898,0.39160791919692733,0.6433517155722498,1.1668697075994363,0.8286486015608183,0.9828594069447657,0.9808587673490746,0.07388711505409748,1.1080086616386282,0.8236387369650255,-0.7223461884329748,-0.3492882764162026,-0.1895270023548952,0.351361402347797,0.3623104623566542,0.5367433545228866,-0.4067363050524201,0.01699321715270057,-0.6000625246590543,-0.5425929876706732,0.2210950046968054,0.19658756853501336,0.7366401852923024,0.0032309982182674446,-0.7411881988701636,0.2462579106069622,-0.8316566689127806,-1.0707599554840266,-1.323566007300042,-0.2666025219881119,-1.483710268261167,-1.183975073285614,-0.9605084686573031,-0.5728575247564247,-0.22407419083035182,0.49800099579783463,-0.46178326337096665,0.2602398745115632,-0.2588151453630459,-1.0462938901043821,-0.7648573896508974,-0.5640304762134997,-0.6123213441694012,-1.2597922285389371,-0.33012625138911195,-0.8776666573122424,0.40007620492849666,0.3460974877493924,-0.8387990421756273,0.5363859212156061,0.7293004741500297,-0.1277343291847206,0.6031915509506032,0.43849768035298176,-0.8705382667101039,0.9351325963709496,0.06633970327121062,-0.23523959359378083,0.6156868262602009,-0.9418833209212764,0.15015474684806948,-0.8153617098787793,-1.0837486572423398,0.6783449631004714,-0.8812107337363663,0.4294350073770734,0.47033654540456793,0.020384358396802596,-0.014210380505254323,-0.6636580928884983,-0.22637690006245698,-0.7920356604398171,-0.5179829956507134,0.11992290455712126,0.3030788003606536,-0.9579430020351195,-0.3644242130079185,0.19870830850552723,-0.9718689319401244,0.38690728101725735,0.27990628060043354,0.24763450869143844,-0.9466464684930709,-0.24854663519522832,-0.8093814220767407,0.02820827571160049,-0.8168438304654019,0.6751406921578144,-0.40686355083976017,0.04043063986437701,-0.1770188006996227,-0.602032685261312,-0.5942913067128038,-0.5701557792790553,-0.1367027937110429,-0.08453177531057764,-0.08788035932232995,0.3959855031447283,-0.09112764328775272,-0.9805889374293234,0.17675588673235387,0.8321743823639164,-0.7700522075464153,0.044406278399976795,0.8569976129435903,-0.49333212154212047],[-0.24990859386254627,-0.7908594647807865,-0.9501967030022906,0.2442331708776222,-0.8674076725972295,-0.805310552684241,-0.7678384279200201,-0.9312474755860944,-0.25363839465633564,0.1643471093142006,0.9500696008026703,0.2133678662084595,0.7161088815763574,0.5311828762408957,0.9019577855039657,0.09910847029974129,-0.9308377264534724,-0.006221054103281887,-0.4524182554636309,-0.3273454980456023,0.8103817790128676,-0.07367137040628258,-0.18346277776241315,-0.49178625842780344,-0.9915353413820127,-0.4905818667991322,-0.6328096238016063,0.07047816624233372,0.7373951614709799,0.17039196429029468,-0.14770765448418421,0.5819098740421258,-0.7852054089462721,-0.4338222914722366,0.4700746586194529,-0.20679595039443996,0.4869963013885792,0.264859302150794,-0.2191998650237625,0.1445628043083375,0.8113417400474568,0.4903374362056716,0.7386275781438275,0.054876025559846664,-0.9583028545336266,0.5971876060053901,-0.08286948885209217,-0.7313618885352161,0.5013062344043855,-0.7286132793040556,0.7381686011367069,0.29975568750095655,-0.28899655535481417,-0.2944440685434495,-0.4678581458205251,0.6175086542983039,-0.9592188604394192,-0.6773076151489836,-0.9785197722630807,-0.8306813699025667,0.47448932903280927,0.8427469951053642,0.48435890816840604,-0.5775446916126192,-1.0362084047012927,-0.8350174608953159,-0.06584481776313307,-0.24837270882518922,-0.9486160258113567,-1.7328683388896906,-0.5409811378245325,-0.031400341115899295,0.13311007223689125,-1.2642618846814202,-1.341813276609662,-1.4367719642690073,-0.116593685988024,0.31619171185058087,-0.9750134712752897,0.41006228948985424,0.42958425994828736,-0.7288022837597097,0.5163596631265386,-0.8798006600616923,0.2515317948487472,0.24393610666757137,-0.23352708671596653,-0.3623013847360458,0.5427621379074947,0.44705701593186686,0.015395836288956834,0.9714109045173724,-0.33649270730281455,-0.5353509718760869,-0.9157515096986443,-0.7620961048307777,-0.2923417930708626,-0.623787446349793,-0.5873413996180616,-0.3720621335060081,-0.8053711029195557,-0.08381196520114993,-1.1074653075044112,-1.7459632883851324,-0.1742677411514882,-1.6102817332563055,-0.3211253965671628,0.12489981057321929,0.41340535258509076,-0.12487180029688143,0.6658351341291303,0.2815793199508154,-0.7302413291450884,0.5506755813799983,-0.004965357870481291,0.28681214390271675,0.6959751894132135,0.7864317709338993,0.9469804023384178,0.5628759681854808,0.1300124918820153,-0.06869229690983557,0.09493035278724973,0.12887708395988073,0.8536116141814304,0.18358632237033548,0.02367136609725372,-0.5496559756522688,-1.2837511030435094,-0.4337644151117069,-0.7304025889389902,-0.6321829425055432,-0.7077670909244489,-0.5002675738961885,-0.20777537729882087,-0.27840729430209993,-0.05731444017972809,0.021006089690005024,0.3025631622260064,0.41639761313347534,0.09668219731731487,-0.35124123207793057,-0.23555641323911594,-0.00996628109066202,0.3422171243736579,0.11881414111604652,1.1798964403310448,1.2348957971783687,-0.21470298640957097,0.7800264069681555,-0.27682463503677474,0.055902324958215455,0.6281155432744885,0.4510720454136011,-0.03349075478278939,1.0032027724786894,-0.058174387765700414,0.15956180593078204,0.968375782290784,-0.011435213085382402,0.5222507012697554,-1.0339874196276675,-0.1677525432664111,-0.8878049928187073,-0.9545103395089519,-0.5298049845731443,0.6850475279519541,0.886815679667042,0.6638999608742862,0.4299421172864288,0.7992457666282232,-0.7134253446395913,0.4577001272121434,-0.09964876743832826,0.90281313721646,0.9498086011129635,0.7212150293876911,-0.3291193008015664,0.5141149830525611,-0.13126131363058782,-0.6808079294359916,0.7397334851431322,-0.8460580183270971,-0.8386499047971475,-0.25805131736336806,-1.3213843638193083,-0.989178339732798,-0.2512345227193051,-0.14447904100737827,-0.6543113222206998,-0.20634793723850783,-0.8299370409991059,-0.3235363814447966,0.4924377868863543,-0.9006650473628272,-0.6323163115485816,-0.6714567027392929,0.03732497735984697,-0.8609100835081591,-0.1728518569676196,1.1874341863007574,0.8594041145461597,0.6974468289932018,-0.297512325278222,0.6724964256541179,0.6512880418495468,-0.1191212669940854,0.6713847834573183,-0.012119804711248244,0.5144032544342724,-1.285195907228857,-1.0208369064304383,-1.1986987131177518,-0.7298445312653665,-0.7462536903487997,-0.7803726127745593,-1.0409833705083902,-0.28133734520521114,-0.31663560410894787,-0.9214378881687311,-1.2990407795668761,-0.15772842502899523,-0.547397928038634,0.8592123293470514,0.2427162855066609,-0.3581814493773931,-0.05732191580611806,-0.32449683231099674,0.2553866204049676,1.4426499652094251,0.2960942395567852,0.23490302508386787,-0.0393134933309407,0.037517726489452834,-0.3352802819641858,-0.08839115866992786,0.10323646244143128,-0.05880665768527527,-0.4604350788486831,-0.9565996273409052,-0.7932975166920696,-0.41510388327609055,0.309175081875749,0.835387602527733,-0.34768509276596693,0.4085256399396858,1.047328810018391,0.7881263650134644,0.8477987616171019,-0.06276863540932148,-0.47671890970176806,0.5347953592339383,-0.0789015128605992,-0.39602353718908173,0.033747443063896834,-0.6001740427609288,0.07470162273908337,0.5788874307491108,0.8341921961505706,-0.3954095819910545,-0.9129221297424428,-0.208560458982256,-0.45913629030173797,-1.3114455351563283,-0.5845133497572661,-0.08212578154838321,-0.06546866197809605,1.6043778843735033,2.3260354626517805,1.534542102054715,1.463284458654302,2.6304460798376055,1.386933548253022,2.945912824533953,1.8471344401786765,1.14888041106084,0.6201124128121672,1.0926845731827657,-0.623004842226601,-0.6319782991760635,-0.8394264995049279,0.21629866001571257,0.030582296934961548,-0.1607398596947015,0.22385129615019328,-0.30907727099020127,-0.40410814387320254,-0.28816542468679585,-0.5128058738650532,-1.0148886005235953,-0.670024850355762,-1.6249020703636448,-1.7318567183159308,-0.6337478316446143,0.8911402121359655,1.8938242883322887,2.2962206772010227,1.8965776719429432,2.9426634704426093,2.8358792796039145,2.2330534237476023,1.7966618420396558,2.4672138557997427,0.9987171712781558,1.0501000179718165,-0.34935108853460933,0.7038335098597553,-0.7415639299501913,-0.86926612962709,0.13347024437060043,-0.2732780252849161,-0.3614611525228874,0.8289636258417551,-0.6415662994581136,-0.5477864420235617,-0.4223304938168169,-0.26152546756748896,-0.7758997996113515,-0.2727934338769558,-0.4729439125933761,-0.9326127131956548,0.2038333505470645,1.2757171535855911,1.5964877506993167,1.041780906147063,1.137960877111815,0.1500264433631898,0.3085226336509077,0.9900110454088846,1.8205436924381737,1.91143893974379,-0.08208015145597865,1.3587001430482317,0.06267862255484373,-0.8186420739726982,-0.5161709079968672,0.256139904014878,-0.644333358964093,0.982885140126407,0.19088511244861175,0.375480707660537,-0.1337289873385624,-0.7773246314607133,-1.3114988174904387,-0.851486204575114,-0.2832899502920385,-1.0242999579468424,-1.068406702782866,0.26116673359692816,-0.31473113716197676,2.2855885715919175,1.5993938818332567,0.3566296832718829,-0.06210399546888272,0.07120519792894026,0.7562216582136557,0.19969649474878656,0.41572381554413246,-1.1637286719162272,-1.0644935745817767,-0.12406562054318183,0.7808047828901868,0.1847613815665318,-0.9715427233024532,0.6454401989415782,-0.9256777806596129,-0.031699946699630395,0.3430300571372897,0.15700685798366845,0.5297808246685327,-1.305119438766649,-0.8389803432081921,-0.3241333769824641,0.19016363300585096,-0.46378133569428664,-0.05150358083249102,-0.21658736857566396,1.5741754827708758,1.0360637866936633,-0.006768837923241901,0.3660065997381704,1.4349154125880728,0.3960991716879694,-0.3557977199276836,-0.04023792116920392,-0.6297549395158373,-0.5653324266288839,-1.4192435055326205,-0.6532682284241133,-0.6330167879450763,0.6841173413852698,0.80495544024253,0.8698196612621302,-0.7322899910319987,-0.6790419843504067,-0.353479660339847,-0.7236195571968156,-0.7033455269399327,-0.9804748822585583,0.2338951628376013,-0.22129909995245983,-0.5596490361657042,-0.19398708378528257,-0.24477905972730338,1.1131906281765733,1.668656208742668,-0.06260687160511356,0.5361797911698378,-0.05066433447538222,1.947659679853319,0.4035773013597565,-0.1913631075423597,0.3436878320410897,-0.9143721742393865,-1.3207100868526147,-1.384375069999646,-0.9619751709863827,0.7068438798046452,-0.2231572394846576,-0.28172248878861494,-0.42419995359625845,0.16125278083752095,0.2526535576281375,0.6388043782133268,-0.38133429443372435,0.6576891988421768,0.7387872932375169,-0.2978502444279409,-0.20278300175471742,-1.2102207916476144,-1.2769147635632927,-0.6243656256242321,1.0765875675205396,2.1088734687279307,0.7408450799892715,-0.3528111376976647,0.41839319272678044,1.1895021770537548,-0.31465217352878405,0.19494620299908808,0.0603284068267877,-0.8424555032168332,-1.1383901607412963,-1.0353868682912668,-0.5448764031581903,0.31828003170129016,0.5794767987670303,0.8424839245035912,-0.4803834636284919,-0.6240148112644877,1.0134215635526422,1.09542274511335,0.8937444142490027,-0.14213311335484222,-0.21767894308767385,0.5895870744415204,0.17454339221135318,0.7208647606078383,-1.1292500983562967,0.6152330267100293,0.9009874629297514,1.0117245472821157,0.5291606325123301,1.090488093038813,1.8259361176210172,0.6803950150022139,-0.39762167611626487,0.6309816129506738,-1.243048521428265,-0.5550644302384556,0.31294093043869703,-1.0844017285244323,0.47103174160028843,-0.048648804959061036,-0.1736238429823351,-0.7405388635332203,-0.5985806282995134,-0.25232421930707344,-0.30842888595869694,0.9653500500704537,0.8789606228527603,-0.5884257547070394,0.7571213877005977,1.115041430636653,0.46014226019540533,-0.37633440771877913,0.3040651049392832,-0.45507415981123484,1.066510201548157,2.242035350883587,1.4432135584251065,0.8462127770052789,0.9141695032939082,-0.4693865566374062,-0.3008505185451092,-1.0409133331867477,-0.2272968285797534,-0.014815661850201937,-0.45750235650532295,0.030008321483451672,-0.7090215432133471,0.7811541273109837,-0.7685370273726848,0.5380634678397923,-0.7912955921845304,0.16218437880601308,-0.9318773645501949,0.8175455754026552,0.7196130327373813,0.8390609044576284,-0.8333909909753979,-0.05605667550384218,0.6561626457974454,-0.45630481589800914,0.21724405795721888,-0.2989968522030547,0.6855214696609007,1.784697306815272,0.5214548388097237,0.31569690170227105,-0.4352857746240209,-1.6512254464653087,-0.5096558245102449,-0.2648503686815168,-0.5297640707225424,-0.0807671688383749,0.6545564231049203,-0.053734972238272095,0.9637395958232075,0.28843221504822786,-0.18062868867664786,-0.6766466383557329,0.6012520845673237,-0.8990164194413256,0.09501891584891974,0.8721053009268391,0.5893891811511416,-0.5753815626066385,-0.9878008230325542,0.06188923394648837,-0.48614583598136507,0.2575116394217481,-0.6618873931827359,-0.5949253112884739,-0.18541146166638767,-0.14181389375796893,-0.3337223104837123,-1.4129598964758896,-1.487648134700075,0.2371125884770746,-0.5953175802342134,0.04387925384986611,0.09821232652413273,-0.3317942866080862,0.49510278123801615,-0.22186004468293025,1.1477052101434888,0.8883111634221958,-0.6786931536100481,0.1706380315246548,0.5829672367363639,0.993441515970822,0.46589750789292383,-0.5876747999467846,0.3793202972353637,0.08320240145909535,-0.9872716186059147,0.6537546750510035,0.7648449654545194,0.1080675939604992,0.7382509636268701,-0.1728516097058276,-0.8010388928834526,-1.1225065782088188,-1.7298267270341883,-1.3673622128708516,-0.5751916433528417,-0.4124480857658164,-0.09528671319226115,-0.492224037342047,-0.430045812592975,1.1274280302056572,-0.3965078464679547,0.6845707765415804,-0.683053111973085,-0.5749092156226083,0.5155345438018605,-0.5051509036424865,0.003026011998788705,-0.4343784271042714,0.17615786315449647,0.4457788595561537,0.3736347369852799,0.9715904396455949,0.5154572554491356,-0.22266916953960145,-0.13699101728741672,-0.19582495919341444,-0.5039947396884873,-0.46177012702495773,-1.573639750029446,-0.6408423782570507,-1.1755446751137553,0.7075112513644939,-1.0917670732684643,-0.15041924240752602,-0.7729635378255768,0.7207211290844946,-0.2365682397179568,0.16365081467245204,-0.33011678719032944,-0.3277385893554971,0.19261784073642446,-0.9425024959185413,0.8033481008407112,-0.9851088088278511,-0.410330344939435,-0.7390209506073087,-0.8992989675688985,1.0767588194655013,0.019755428801268158,0.5265750508085115,0.9945837466264394,0.7307060155857726,-0.4745753317353483,0.1999143783436366,-0.20311812966507772,0.034877315630623774,-1.2520796958311826,-0.9048763377941469,-0.008424640874914676,0.08471877916013304,-0.6439662424767593,0.16775506371787646,-0.296910143633875,-0.10770658639917767,0.08208188812323429,-0.7916080452093566,-0.9645637092942538,0.4657424414337057,-0.6831648709156258,-0.6924186562126552,-0.8433442414624391,0.2763948439902175,0.5604527513566695,0.3669284720065007,0.815851726751272,0.6526489407110277,0.05247118777506478,1.1180136236348426,0.01993799699450922,1.0290630571159076,-0.39120418428857684,0.18547149203107285,0.510761218318816,-0.3677105161289048,0.32533931815584194,-0.19812161943741957,-0.3030264692631783,-0.03691597870656969,-0.5960502324894593,0.37243159489775157,0.15275584430519684,0.15754946817751178,0.23545391422252507,0.4788932469344179,0.5097456519891953,0.6476225555085809,-0.45917251586177743,-0.17949654371043636,-0.030266065109936183,-0.6923480286359904,-0.2840474972006213,-0.7017545526614062,-0.15285078840333408,0.09647294339859461,0.04729928681926873,0.3312196850345784,0.6108184549772258,0.3399634623825477,0.4043614510226695,0.30413136282968845,0.05689067755795908,0.1477766908476258,-0.5136175159077683,-1.0423759079630548,-0.6107414601715118,0.2875520395581172,0.4474999050955703,-0.22521471136616714,-0.33515444650251514,-0.6817054100616761,0.4615213322575057,-0.8353605255291593,0.2757958642679893,0.2050387701034626,-0.2067357127987544,-0.913854030966294,0.5864145339398936,-0.7554205345086409,-0.6786394882464455,0.9669480166180828,0.17926121492655256,-0.604580334886366,0.19324921335800718,0.8833472501227858,0.812350575647628,0.11217684106935678,-0.4565240125796177,0.21968267533014654,-0.8558918274171627,-0.29197516360715764,0.27826309800199606,-0.4589384472376482,0.16110925503582943,-0.2075694841710044,0.08769308648491891,-0.024655691843316053,0.6338225314887775,0.33934292866835364,-1.1129867089760244,0.6848770057702458,0.46208712227038495,-0.8638771191973159,0.136095983915446,-0.7423047319711463,-0.525931694827837,-0.83356379969148,0.7817497292351137,0.8454197914689776,-0.14393820975913663,-0.38683212192812716,0.8555439130009435,-0.14152397241155776,0.0006360415285383374,0.5335115358232673,0.7761427145383033,0.8263833367884812,-0.3054121647098003,0.4290450762201342,-0.413470289073791,0.8975705936389774,1.0415895836977511,0.4876662493170943,-0.5377727971624416,-0.0020065355093821144,0.4206812331922007,0.32647828420890873,-0.2541848116143805,-0.07614912440202924,-0.6511933863665782,-0.3726391442164811,-0.30232073884953736,0.2304590566954796,0.2365264016717088,0.6824531876252924,-0.9336303354826185,0.34927832991344543,-0.3153505487479302,-0.3769238827784842,0.04285402298122422,0.6372269956037072,0.197905081415913,0.26018593095189657,-0.5575548864422186,-0.8632125378475233,-0.4170114451059061,0.49954793352386395,0.6264698397906477,-0.47227410410538584,-0.35841465278632784,-0.14978363972508013,0.99068582958256,-0.18651891875271734,0.8031199131166564,0.33560056360085944,0.08816768734625885,0.6652092981141555,0.14172875677677707,-0.9281283946154247,0.5649537582949993,0.6457841872338523,0.6224079539018654,-0.43798975637112614],[0.5141164522476056,-0.9731250923633916,-0.07814077355786608,-0.01340507304232652,-0.2764345046215486,-0.8032360700582024,0.2483768124399761,0.2697332221772326,-0.535240584935579,-0.38062624476618323,-0.8153797788003607,0.15524474792458065,-0.7843235996597071,0.9297241134679933,0.5100929848917102,0.6691390408015581,-0.8488943545985173,0.906917979310403,-0.1896180141193149,-0.026339993063031475,0.4189825900513684,-0.4748123861297082,0.4391159530674029,0.9506837119694889,-0.79249403411918,-0.6103766088863622,0.9646157941561775,-0.2967589949597187,-0.28101224970015926,-0.8378128867393397,0.7942945573113436,0.5568179601479719,0.2095777466946678,0.8754147125313885,-0.4803758806847087,0.3758063029783374,0.6259576138784838,0.027039452356116163,-0.220142423203125,-0.3885065128791327,-0.28649645698619614,0.6215768780181197,-0.5454775553192918,-0.2572050286699978,-0.6039458274195598,0.42633052947522115,0.3604401908563748,0.40825723929151164,-0.970519776107363,-0.4807722166299787,0.42470251972184797,0.6930614497417577,-0.799339009879104,0.7496076520912163,0.24790029052147977,0.7631450033648726,0.8366769211643947,-0.30819754097390106,-0.47801975122486057,-0.4497322317587724,-0.5963495299730185,-0.28508576301746874,0.0593779556911754,0.8661579490986038,-0.5944559157049262,0.7910872605317072,-0.8644185436163195,-0.2882241897263559,-0.1636985688698163,-0.24371244076305465,0.08756854414657649,-0.5922947627842386,0.11929660444027383,-0.5301805790228042,-0.8635992453847646,-0.6259564714969528,-0.3796991722003453,-0.23465337973677292,0.48179087420204736,0.3878309630672096,0.5636010433747035,-0.11723241200915131,0.23284004099663758,-0.7309439655093155,0.050932633595772714,-0.7260555649024165,-0.7092198072199597,0.0323611556027325,0.6230127241055393,-0.8622454291004727,-0.5835323327632255,0.11900208162333445,0.20411233205398113,0.3908821904220975,0.08532903356818948,0.8908679368182287,0.8400014759752875,-0.04371495116821935,-0.5512924349737505,0.47781009518371104,-0.1941737363281527,-0.4904058253827432,-0.9426865602773705,0.6052848691140543,-0.47883441773442253,0.0970270157251095,-0.7476204066535053,0.7986292560185039,0.16097501590769966,0.5739231774374154,0.18805941956375605,-0.21201975908495907,0.21524022529584874,0.6179348463135655,-0.41328786335694745,-0.7884321231548184,0.9069103448036163,-0.22645891159128873,0.6732420708276756,0.9387519703009677,0.16746530230224901,-0.8430740254985611,0.8560224399833635,-0.4124049556584801,-0.2151574756406721,0.42652852147393616,-0.06729212059915782,-0.09768093420169327,1.0128450241137292,0.5046618210284165,0.932131528605265,-0.5258191177531528,0.7142126677258264,-0.5286367956751823,0.30849021417902656,-0.9914141179193464,0.12582921462776914,-0.06404277071325666,-0.6776409992418589,-0.28153288066789084,-0.05333884725066396,-0.3150010726913153,0.12778667874712046,0.03394349342464123,0.5785816692566497,0.45731102995086936,-0.6879951486696422,-0.8539166801847398,0.3193832230279629,0.8913571843028291,-0.2545405780934554,0.8176042919422852,0.818268156734968,0.9236031009986178,-0.17194502819141536,-0.37844123189378553,-0.7284410322983168,1.013311326903288,-0.4767900862490191,0.20956009086933725,-0.7482062193379257,-0.6910030067625978,-0.08834719811993516,-0.8671346118879707,-0.32910795538568194,-0.692354859889367,-0.6818398783956886,-0.37372666368684837,0.1355069807847764,-0.05161398030491831,0.3349589115738976,-0.5550890015329789,0.19442586115558272,-0.31893465703493745,-0.8771465571271141,-0.8884485978868492,0.4777232797142559,-0.5328599647015857,-0.5592527652240148,1.0107918292095923,-0.027076313910780542,0.871482485243512,0.33878656039876726,-0.3599746568613781,0.5486232694250204,-0.5980344596672448,-0.49503598395351966,0.52060949355932,0.5084530235669124,-0.2719102532109463,-0.14548853244934404,-0.42481868119167493,0.5171375595713094,0.3916810756186367,-0.4397945820367499,-0.34014297612592775,-0.7456468398066912,-0.6239369122637921,0.15411269875719166,-0.669754853165097,-0.4863754147182087,-0.6686756208109229,0.9514137042158544,0.7020895731802297,-0.5865373701905465,0.16038110392370525,0.8486419001179006,0.2892102361947656,-0.09340272941159487,-0.5609829867573114,0.05399091580186396,0.5626690578347366,0.726233977520124,0.5483299540815374,0.7075629345482825,-0.053388674138321594,0.8676199025542946,-0.44422694363785054,-0.9094474536525239,-0.8954398623765074,0.5995391772123686,0.17795119170700532,0.07322774822385136,0.3572815380970926,0.7477864698351779,-0.2560348603212119,-0.909518860824202,0.05223393093653686,-0.5757064693139125,-0.913355268569198,-0.26936208436939296,-0.4814674598844326,0.056532805550232365,0.7319985084010817,0.46259505851041677,0.47561435320739914,0.6279652773591766,-0.07443615958411884,-0.30126132212283196,0.8317685867261546,-0.5650987713843273,-0.04187759137850793,-0.4045578991926705,0.06950077859564013,0.9710888721602806,0.2663632099819253,0.5210998030192855,0.5708331053973074,0.5562169633023073,0.7573748933890915,0.9345748177769929,-0.06046251168414093,0.21492345332989082,-0.8942840284684174,-0.6690570295858015,-0.5736526295660246,0.9596568596793719,0.8624027719349715,0.587567927713542,-0.3901102987418375,-0.08815078115735253,-0.022509800588588435,-0.7031299396674745,-0.21280017131674744,1.0982076999218493,1.1481097999202836,0.9357333554372876,0.14943219130610336,1.1366568155666097,-0.1630375872895266,0.9689449875006294,0.5522868340439218,0.5003913931921311,0.5787022733334397,0.46719936477532625,0.2948286234466679,-0.7035492207224664,-0.6359457253083366,0.9291448828177601,-0.7615645599662566,-0.9628244871055016,-0.23226802526590454,0.04277877865820615,-0.7603932228291962,0.8824490323212164,0.7305757495962639,0.4635739998729383,-0.5871735408790131,0.596160059468846,0.04517166012276593,-0.23017416649929048,-0.19262632068633817,0.43280783615914237,0.016564662660219047,0.6177179393448212,-0.22183666389448287,-0.5879560505568173,0.8020746786063945,0.03207105031309699,0.9588732805675972,0.4634372352542601,0.5581029046467376,0.2894916579115814,0.07342727367798102,-0.6180543037491316,-0.09166203410395242,0.44777388848678684,-0.7492528552303094,-0.06812221205844975,-0.6963500085976828,-0.9631829025182254,-0.4252282968503603,-0.002834111440964501,-0.7877009795739689,0.12139079791236955,1.016079990529122,-0.5658156912215898,1.0713223692811602,0.5061395577837867,-0.3267081401602053,1.1663520555253284,0.43242602997020707,-0.6629917620602115,-0.1328580565760313,-0.43172911710921036,0.757943140433475,1.022337787613117,-0.8022022450046524,0.551146289815978,-0.017004394613091015,-0.3785973434493644,-0.05953706743678111,-0.3398518575355301,-0.28042974807981735,0.031003669857718585,-0.7110708684898971,0.22009798620824744,-0.5257167013078982,-0.9094593439478109,0.19612200367564503,-0.46848773207080396,-0.8854561902356477,-0.6709187504467847,0.5514972079217114,-0.5071247653067059,0.9107403751457414,-0.35192543481880356,-0.641426940373442,0.5537221953181097,0.28044196101212526,0.7798973026349113,0.7873048099675817,0.3187249778163748,0.07358822014448063,-0.5089217577328465,-0.7523657350900116,0.9850900193589791,0.45072130732843135,0.8668176340597059,-0.42060315074518945,-0.22133793848442768,-0.13165879759846755,-0.03247353402518338,0.6755218384149098,-0.1899898524762929,0.694476717465902,0.9845860821769458,-0.6071332557812655,0.2969205775698838,-0.03638637095247807,-0.3722403992315317,0.42513153466560516,-0.500194781344771,-0.23403339600065873,-0.06541078954183209,0.590459374297234,0.8836160256342401,1.0642428455055761,0.10333187330301077,0.9252956907679325,0.07019022715554993,-0.1988272874404877,-0.6689067149649678,1.0727711012555246,-0.8893080263364097,0.7045237179099682,-0.719598650941719,0.4490603395289874,0.42244694268889865,0.10025267547702302,0.37593809377929516,0.667551155129093,0.15988143667215476,0.6734088571114302,0.692174455899329,0.2442400113285715,-0.392384009946717,0.09532617791597664,0.5457756515869786,-0.3969035571420874,-0.29216220289142636,0.05335808877415011,0.31970699177826056,-0.7318615526370165,1.048637507593095,0.252187663311696,1.1173056558958891,-0.6205738632237818,0.8058731631472359,-0.4569219267985585,-0.39141297079015347,-0.1927204689410672,0.5410584590144063,0.37703847033365456,0.5994641198462952,0.041655839370574696,-0.0661866413012402,0.7811287066387351,-0.23143359796768484,-0.4517490759666214,0.7479076379503857,0.18481186071857705,-0.6988257147733973,-0.8244892696882435,0.5271132101816502,-0.001404468228859181,0.8899537235458768,-0.8876555023991857,0.08398854176977467,-0.4679387132561596,0.44252010590704643,-0.24379484834697585,0.2232104027631401,-0.32314729351447863,0.4984574036617538,1.1367927671143399,0.8831974793429882,0.8897866974281927,0.17569788005596443,-0.1392282558657987,0.9329021290085211,0.8770162936520339,0.9123123406443931,0.476715478472601,-0.27807538962981954,-0.7843307239246947,-0.28423192440704076,0.9901320194242864,-0.6516321735232724,0.34535158651964176,-0.9738860932408561,0.988061840264961,0.5294367741455901,-0.028182776347697842,-0.388161622391606,0.5593350493967805,0.005287946744705977,0.053869892795413425,0.8445801478410339,0.17987532388179225,-0.5204337588668886,-0.19376917937471497,0.5397511196351664,0.04892166135744334,0.5562567782050336,-0.2475992745280429,1.2387105415867008,1.1468249531660963,-0.42947596373657676,-0.36950364135780794,0.048637765109998475,-0.852268785751387,-0.8040720217532142,0.42021298391693856,-0.28666522812133893,-0.12450979217332968,0.45538621248347555,-0.7606906363119553,-0.0441880962023281,0.23451497295802495,-0.8309641852558085,-0.49635968322368157,0.2921443048289911,0.5461881185223947,1.028026637787949,0.27126223418037515,0.9162514227240972,-0.773638382288617,-0.0756936203599693,0.37627426632248867,0.28092408314583006,-0.3021320785820073,0.9128446844082243,0.8543475535801073,-0.5473190190802432,0.3710691387257034,-0.2961195234110748,0.9196993433025207,-0.9005117435759112,0.003805579077034802,0.4577686154835207,0.011189611007299908,-0.4005795759779311,0.4066237153327807,-0.2595036478921577,0.37186838746924095,0.1273838156019554,-0.7617511065838419,0.9205797873426425,-0.18151463338200474,0.12275104211134652,-0.3783160833145174,0.3678563436268635,-0.8149542672530022,0.43811067654357916,0.2659849202235812,0.7378172971115848,-0.24789615953390254,0.14897626651124005,-0.2797642496789232,0.08661746675170537,-0.7679967262311301,1.065300027347345,0.08267757587112248,-0.08702749477912607,0.09077085295075399,-0.0682649597046706,-0.07425386670244433,-0.8971377524191434,-0.3831701383392378,-0.32398690613239406,0.8887215064273035,0.2618675264386824,0.11570096381768029,-0.06857744551366915,0.3098766124828106,0.9144000593248967,-0.6794440962493767,-0.8607624553334376,0.6064956128625916,0.9433136622726176,0.9476235952979857,0.6662166776601037,0.08510049006095528,-0.4560652977223569,0.4568760264384497,-0.11459240488825068,1.0507163709623986,-0.5369987041636238,0.716353420224648,0.6041927591390737,-0.29569081091519395,0.569232778542343,-0.3058497859145645,0.04420688037809485,0.06810907472862501,0.7755019512565442,0.6846185969176214,0.2768899357591775,-0.6154253306346935,0.3608453512881109,0.9599982602554946,0.14070952405678377,0.5853720364098529,-0.10592294225652477,-0.5692807920976145,0.381685391485085,-0.3122352797354648,-0.6638232857542158,0.4416198520209011,0.9194716013192112,1.134458024250112,-0.259321193106773,0.9097014433125059,0.4340718000741523,0.8908100802634593,0.1428306313937789,0.8827008299596825,0.40609462628197557,-0.6972977536738086,0.4832973891423298,-0.3002503695537828,-0.6030419515611242,0.14518310860773456,0.7875648895267986,0.8543787572975181,0.17099161177969835,0.9048846611258337,-0.3825943132417661,0.11444695411419115,-0.18877185361776744,0.24878069753458967,-0.305864838961477,0.46349539096578246,0.0642949699784362,0.4890372011505838,1.0105233446044861,1.0437905754655603,-0.6679550955182628,0.36485670781740176,-0.09566342919154808,0.3221986100073082,-0.7822408679214963,-0.2446706223161073,0.0076260172353777664,-0.12175064131569639,0.11393191613185558,-0.7836988835765645,0.44886084387099023,0.7909732357383333,0.29059516736930335,-0.2636951712035513,0.8382842457690289,0.8616664592528595,-0.6347029631284152,0.5377646682106296,-0.6050197036504229,0.9902022550264289,-0.843309429604271,-0.2826250484406099,-0.12907965855225714,0.04609194755066345,0.5026093072388162,0.2589107713312304,-0.38510959229930347,0.05064447574985699,0.4506211034068966,0.3238935492303265,0.5755023784805555,-0.38375342928611184,0.2288256373283673,0.44510608172916083,0.9577022323025945,0.40852829916670597,1.030298413350237,-0.6232072640632373,0.5119646949636094,0.9328395624878434,-0.5985286784641982,-0.08598355740027079,-0.554458978743214,-0.22851428666254517,0.6771412611994797,0.7968934660417002,-0.45915815890011613,-0.23615241265687992,0.8866798196621185,0.8358789895380915,0.42821118526711255,0.3423411695440471,-0.6916357329807971,0.7525657571826826,-0.4858133168218421,-0.5344024215820045,-0.4395909358150908,0.21788460666196588,0.253241005554497,-0.16286747521118275,0.5272227942569858,0.22533256393563889,-0.11222158466183942,0.6239793706612687,-0.5632749882362363,0.04062719189170555,-0.5101122399634904,-0.7629796009672152,0.9935085471503203,0.8147968205971368,-0.6219813036505827,-0.22666307180457462,-0.884650924993358,-0.7604724370735374,0.1418007608130889,0.4482890570650313,-0.7305176254983172,0.14017484404266348,0.11212898629248749,0.06840372691453431,-0.7242777248686814,0.5664184705283803,-0.4062620396342581,0.3969991736791593,-0.6395878630008042,0.999099093477827,0.011033049191625932,0.4790448487992887,-0.2537899294171243,-0.6624471463649496,0.8641604761258026,0.9389561820270936,-0.24071446323705586,0.7275371126344378,-0.838902920660915,-0.05732603105902226,-0.21605035404007703,0.9595288241570354,-0.3190992863454294,-0.702437005817811,0.2641412528628526,0.5807989204334678,-0.6070243299390148,0.5009554116906458,-0.4649677747204382,-0.9478284094303912,0.4105549146634507,0.6587741374143281,0.3557812788862779,0.7435128287824064,-0.6404701270053853,-0.34448277201139815,-0.41325656714583864,0.60586611382886,0.06976095642220186,0.5669752734976544,0.6865654014750239,0.18583834220830783,0.12746422076353603,-0.5671486591224998,0.763095544499875,-0.32966853092540266,0.33282083264243684,-0.391565904752986,0.5237204777783169,-0.24966991122561444,0.6704232384812476,0.8859337625321083,-0.6374316050010995,-0.943021489306636,0.7096464358167536,0.13282877119382652,0.7571926858499807,0.5641181759610553,0.5855127428987317,-0.0982291656441743,0.3977737625070963,-0.9645832276609777,-0.9767136184315591,-0.8564359593101321,0.8003611567229428,0.2887525603825578,-0.23215499786828775,-0.45737655090693813,0.8656846411829402,-0.781210566161105,0.06687520254143324,-0.34495982229540706,0.21882734166326168,0.9309264651187286,0.8591867491604027,-0.6673266847005244,0.21083187573870368,0.5936402860260288,0.9388060793048773,0.508731716112323,0.6770315032029708,-0.9562168265962492,-0.5085845122627326,0.6197761104085244,-0.7869016013839776,0.7189926079409727,-0.886295478274232,-0.034006353503356096,-0.2817282810988797,0.967188390023234,-0.796486850199207,0.6900913672466071,-0.9768744379548164,0.8120391195798365,0.41342612424124026,-0.34893923823704875,-0.7410465704872501,-0.37847101590001136,0.18192667175526264,-0.4201887834101434,0.6817435567148624,-0.6621331684615153,0.0794059103571182,0.9019066397523161,0.7104143524519654,0.14702862215869125,0.07278595670325094,-0.2312586485358561,0.2502887162670575,-0.25383994168466106],[0.3183695906153492,0.017888720698866933,-0.9552100166349877,-0.4210621681905784,-0.6939882967531945,0.7700755399342043,0.8391326880444248,0.9420809612003791,0.996543423587589,0.7736344714519223,0.036872464591327425,-0.5698963300688442,-0.14489327635700938,0.35829706041971543,0.035168351929589996,0.8501834655337294,-0.6441442389545693,0.9765002344116493,0.500368872370307,0.4499094936167207,0.07336405905902232,0.8809165665250225,0.2030026199054613,-0.518597726518859,0.6559670713286834,0.6168880993014612,-0.9103357573953557,0.9265423963641379,-0.6647539751807892,-0.5740430360302979,-0.638818887387965,0.38316647403988435,0.686448820810842,0.948250243995941,-0.05696091979200662,0.7977830655268578,0.9977811202302185,-0.1699531529860955,-0.357041128174334,0.6352079302838318,-0.6971260796343457,-0.3393609266041639,0.4583719414681972,-0.6455017316748799,-0.19926334652856453,-0.34560768355571053,-0.22474146744106813,-0.34096888225426547,0.5729103753661329,0.6019015739242168,0.1836168560530415,-0.3353837205592153,-0.25434479270455057,-0.950106136260112,0.5020849305014536,0.41191053027491886,-0.5133413656762502,-0.7326997796644981,0.5606777840176854,0.7401698096023229,-0.04457405876480946,0.43851666276166285,0.09739706459159923,0.5828958433485654,0.9311305133106323,0.793787864016053,0.21130078982864198,-0.40891313273407737,0.8448274005164713,0.5411191485479798,0.010387681015416874,0.46212697477941517,0.13248710036903927,0.9738525397259682,-0.3866789241496428,0.7767299156748103,0.7692295751000898,-0.13956693347934196,0.18231034650627326,-0.6994297757440203,0.1020207290042797,0.796877885291066,0.37602101622704565,-0.8714898234094157,-0.05347966165954121,-0.25471140030482786,-0.6309575031736964,-0.24375093052977184,0.21741960101965718,0.7925143100834707,0.2228288868663579,-0.5743405874553136,0.2855841042093987,0.27047556277307083,-0.8478388753782854,0.45576426834997913,-0.08190903183285156,0.8648332924942205,-0.41342893294962013,-0.07507523646825522,0.6195588130975284,-0.018582916253603803,0.5062839749767466,-0.26721390779356785,0.694400937084046,-0.16254921687683183,-0.22571345326906767,-0.9682928232111174,0.5729295805467807,-0.522961770097263,-0.13246089526728105,-0.03894097293327192,-0.11977467346170068,0.7936478080674845,0.331422146721453,-0.949929830016915,0.5408147768888558,-0.5282482293686164,0.14591291352574495,0.4491124781182982,-0.8840985087371075,0.42356595703559097,-0.17013334474626768,-1.0137198803648753,0.12034203133750265,0.08828322711654235,0.2511317290593085,0.23972937454161453,0.1984965463330647,0.18097894521361346,0.40632391564027764,0.5574810194071715,0.5738891524639962,1.4356070210783394,0.45318011549731296,0.03333514808850599,-0.44473251715942896,-0.15424491762290685,-0.5018850920017119,0.022638217789133254,0.724231814864273,-0.05942771176966266,-0.7585800171185412,0.03623937885568541,-0.3892681256946123,-0.4544515368424238,0.4396019216631317,0.5735025969171506,-0.04962935877551931,0.3059956243721117,0.19709153356921688,-0.09097137963081695,-0.31544834983498654,-0.1831454293605097,-0.1697869822857138,-0.6918309579178867,0.30353774039489745,-0.8960801580246398,0.5731348096669916,0.5958474756325061,-0.00598829884059823,0.9243571524588,1.1666324434538868,-0.12680502251542333,0.025492538791821808,-0.9498710862248386,-0.9751176878429876,-0.5909678741289804,0.7733061150643685,0.2064597744715688,0.8766156667651084,0.18304244687515397,0.15236777423784922,-0.8518037111759696,-0.1582918268869221,0.541266863081115,-0.8374200911566572,-1.3664972866830067,0.5173236458408178,-1.171364258538027,0.10635593188397299,-0.7648468530594459,0.9519434261735875,-0.9786675007025438,0.7131915540702705,-0.8613763528489211,0.10841483170559767,-0.3509395535614488,-0.379154784768965,0.18125684675954215,0.8094698586877258,0.008099530279843541,0.12921124754818855,0.77849585938332,0.29584950595320797,0.9028731117690846,-0.5871479448986373,-0.6838856510745668,0.1374526739117605,-0.6056199469249024,-0.31545177374004335,0.33701138143845116,0.08974752328542396,-0.17341750703072753,0.019499899313140046,0.002963105929546591,-0.7066282508416786,0.42453517747834546,0.47832336695519895,0.34597935451005246,0.47471082185748453,0.5784078390120987,0.22551872363243122,1.2749889968926928,-0.21685820241190254,0.24771134401072994,0.30101476335551647,-0.4860136218444339,-0.6136167521905879,-1.024124059622201,-1.0003413159936487,0.18605951010702243,0.32318256138830886,-0.7898612605040881,0.3645391173234365,-0.21511729704526122,-0.3747515205431278,-0.5710195240871504,-0.6068208258339723,-0.602061078458886,-0.41042855262987604,-1.074629075480686,-0.8851706476442441,0.27783617635659896,-0.4765896047678453,-0.2778131849303565,-0.21854981953178734,0.38277134444487065,0.7675892119917882,0.4029049152069803,-0.19730574302060094,0.0046973432707506525,-0.0028947941874402023,-0.25761558779431093,-0.8620342176802813,-0.05483548770158751,-0.07195573812935444,0.2596457131040363,0.4200643949128569,-0.021339626993853784,0.17978301906443309,-0.18960076298712245,-0.12472305179806249,-0.6356036197442225,-0.15073116773619516,0.5269373162526745,-0.08615715778058819,0.36647452847761286,-0.24601604005689884,-0.6156024621400511,-0.8129598202401324,-0.8481456698322039,-0.4593756251404938,-0.33850416660161303,-0.6856725055973963,-0.7402071557725763,0.5385633128425465,0.7058735606116799,0.8122136160636816,-0.011892047398960078,-0.0341955653011321,-0.1375703328159505,-0.03325424749415414,-1.0580574314246673,-0.8006941571515875,-0.8086091383262474,0.8836979562890405,-0.5213254906872403,-0.8282953672313428,0.48504904815110933,-0.7221832482186122,-0.29002156163994197,-0.2994549827863983,0.058917582814794374,-1.2074959352758219,-1.5833172166905827,-1.099943127789659,-1.5472966623882167,-1.5022689272685272,-0.27325303186009314,-2.287704407015821,-1.2092573767501398,-1.1504835713442931,-0.21968028898671754,0.3568460748672282,1.1657459106956136,0.46801525855536724,-0.39653152846776973,-0.04345727462435812,-0.24753167715186195,-0.17539961240681257,-0.9117890352463098,0.016308161799156444,0.1861530969642247,-0.41153047771570916,0.14992813701714747,0.3729643021610341,0.9597873890370701,0.4220525821967632,0.8314648209699215,-0.33192642488637786,0.3371909880799433,-0.19704875081516174,0.10453325849477765,-0.4117309287143304,-1.6951067711032985,-1.7727755896425814,-0.3819059528853088,-0.8139878609508745,-1.3331999587266636,-0.4740167130985351,0.5858048801543406,0.4412628754239657,0.3705787862737501,0.37996803000236057,0.20688010466216558,-0.1413326385751766,0.4338002271891078,-0.46472086460413853,-0.3888458335233689,-0.09391715150166899,0.0420721826256689,0.19545449348107372,-0.8045919040535963,0.33099482903166194,0.6803445006485231,-0.8793132372985325,-0.10015220822012985,-0.5240870530401355,-0.10181858886666678,-0.08668989117703901,0.24039133721189646,-0.15641181329758008,-0.7481933973607695,-0.8927546964554137,-0.8319675649988932,0.6400636475188395,1.1824244822812358,0.7643497581784063,0.8791446164563562,1.4564249339084727,0.9757631638162179,0.14974903691720237,0.3464137917252404,0.6778643904334202,0.13564054899144312,0.13721417905122232,0.026593307642522233,-0.5370943056869449,0.6685937598117969,-0.659433732462976,-0.09258713523295994,-0.13280129134819846,0.9374439382796813,0.6930598906256148,-0.6447866212724314,0.1788206654581435,-0.5665785167277783,-0.5287534349997393,-0.27913018115181154,0.2444393317505711,1.0937332290850816,0.8325416203379946,0.6099547907335369,0.7775026183717308,1.5955367799106919,0.10515333663396664,0.08775948276724743,1.9156710839958806,-0.1023223316638549,0.2661312347219143,0.726720145822205,-0.16183198024343798,0.09063311633949064,0.36234329273910204,0.10508005035641249,0.48197015593385156,-0.5099908793595141,0.017239860357190273,0.5248940116945912,0.40559937535867924,0.9683924284322276,0.6810042081707816,0.022602918919062524,0.3279266299597332,0.6413573410149278,0.6466582245383727,0.20381348167991445,1.0011324692892705,0.2146954581045292,1.875324896958387,1.3367722287630395,2.313158060598527,0.19774407285739912,1.0230141571426787,0.8030054890346644,0.1298294069677884,0.4108543365526059,0.3526709264439863,0.011513286959034637,1.118403513977652,0.3421699556285535,0.3209531507440479,0.9055064993298151,-0.1540744875949493,-0.0811719121430704,0.19225480885915142,0.7910198959433666,0.02123600410321684,0.1319126490334876,0.9481891151035544,-0.15682584336295102,0.9053585168625673,-0.09060736248584941,0.7775538104718561,0.30381567137152343,1.940204981866587,1.2006879896971914,2.2938508048766586,1.8101326812114804,0.738256755451704,1.3032657471449964,-0.12245253214043711,-0.13634631170140954,0.18053373880089202,0.2875622262472134,-0.6386569112069174,-0.34195661462375765,-0.20788280853348773,0.844130675340761,0.505088430959493,1.7908832119751883,1.0756041344886218,0.05454344006408889,0.34265040652703005,0.8979634090649083,0.2472882464918259,0.07367201778682765,0.024180779145387982,-0.28005573706588394,0.12101673807993647,0.9113298347632881,-0.42055976031343373,1.4207200391685308,0.955459725439548,3.121022659588344,2.8561138952358274,1.8206088356191268,0.5930072447865684,-0.7441734250351392,-1.8314471837931692,-0.3098648033449779,-0.5317929627979766,-0.43002465044127863,0.1385085771403414,-0.02876060539397273,1.3805655854798582,0.40517282107750147,1.1738951546011522,0.3918700841538239,1.439379101257056,1.169290917845171,0.9931583268087764,-0.588541954341245,-0.17439502934153828,-0.6412658006792359,-0.32450585655235153,0.1554555510407327,0.3937118021615613,-0.888622463046579,0.8853909820445143,1.281571846154659,1.1187566240716014,1.704631021720535,1.4586506718638144,0.21461145508406507,-1.39703402228643,-0.7628274513062636,-1.6158387166041226,-0.3110766995148802,0.7221746338908706,-0.6244823408767425,0.20839609079632654,0.4370943283881396,0.8397815475768448,0.20273103268230994,0.04824842277277304,0.7512051705453864,-0.23865048147806456,0.91170169357359,0.6499077865090568,0.21438353139471128,-0.9756434943998892,-0.6421887953385546,0.35388989874176013,0.8499617463686167,-0.5599165249221293,-0.8011470330548556,0.9403292305986961,1.0456355101346673,1.430473011660246,2.271745486874054,-0.17910884603092725,-0.11829361787327838,-0.6981488906826386,-1.0302404143906982,-0.5839181822848079,-0.7041794173633887,-0.4087642235083057,-0.039489777933467446,0.1859130127307059,-0.45063310547334423,-0.03529139299318186,0.48651519362962575,1.1593802665095236,0.825821957393985,0.7589188279765674,-0.3378380840866239,0.4397361227656155,0.8837298150421014,0.31779956198265147,-0.24549178500355767,-0.6651538637534845,0.08865765599210013,0.22548150287622665,0.6202128562692799,-0.22115450287112717,0.7755690323842808,0.1689201065737012,0.2175463400592554,-0.7536062558787778,-1.09326864101218,-1.2254187464217443,0.25359418541308154,-0.5737807623877603,0.29983967482906543,-0.38635854090982585,-0.4425915670911498,0.6466356481431869,-0.416587509802186,-0.41832719245545674,-0.24893591999270662,-0.04463003672181606,-0.9926552071543145,-0.44137023561427025,-0.2638571056064559,0.6832979155653705,0.2421929639691488,-0.15175159036704883,-0.5654249445253967,0.18189102854000527,0.8736073165093476,0.28768548975933395,0.8644598054859142,0.9455580488153046,-0.6421499497623396,0.8497697661531692,0.4766097933858895,-0.4475699286164306,0.3824953922268381,-0.4457660145843924,-0.4651725236194655,-1.3398279767942367,-0.276919221619823,0.10342265755900602,-1.0003403278701342,0.08277914522987766,0.2896159709548208,-0.007507145486267578,0.2342939053581582,0.9186236559007098,0.8168111376286157,-0.860192687038103,0.20667552452556567,0.43612519000543176,-0.19075170735788288,0.05496596516195147,0.06742712032917568,-0.6018517498853001,-0.6623627498789498,0.8094895610666993,-0.0594542488617866,0.432593123147776,1.2223128112045771,-0.6541413117481101,0.6230921706719801,0.1997879935583089,0.8564831858369568,0.20617557412662715,0.5567385746325444,-0.541242771283178,-0.19382241152126023,0.44284379347298347,-0.09768981298616279,-0.021406170033744093,0.22761579224158524,-0.5632002591955773,-0.5158751760873678,-0.42072236251826295,0.037021729759975565,-0.3260093401308311,0.4408797357501109,-0.759737344319137,0.2874620006422837,0.2838407730254456,0.5545219995106385,-0.6363652658597179,0.01095434937999011,0.8839035324839574,-0.39198877781458247,1.0590819286322595,0.057409673257495394,0.035779515294778824,0.47612400369302854,0.6848920277759806,-0.23188719554749027,-0.19478524811126055,0.1906353790808833,-0.07855807586255677,-1.7033380325711591,-0.2556575262482643,-0.043144670895016904,-0.545165548656584,0.3191563936536786,0.4792979013430764,-0.27206986508083336,0.23942317697350632,0.027541762736500858,-1.1450436577724143,0.5077600272480236,0.8435535435941204,0.39387076641779256,0.3472731761365152,0.16785542694230984,-0.8138460983999747,-0.00002002706841519597,-0.2214041779334433,-0.8236259847385727,-0.27945246198004553,-0.5092060392840794,0.7401435545679664,0.4885618718412979,-0.6785650930720617,0.3536665931909601,-0.5943151379694781,-0.9904196227864307,-0.8483221934731746,-0.5548821440013849,-0.44059329351596715,-0.13915689745370396,-1.198533991494498,-0.5406641429346433,-0.75140477338767,-1.0380735587759942,-1.0806606377046704,0.16822099175198366,-0.6680192000923382,-0.884676825278444,-0.675880465622554,0.01365083923458762,-0.1605742031529622,-0.030409436318116434,0.49814207872916727,-0.7004989084722797,0.2990075500513579,-0.6119192125384901,0.8584368243496044,0.40880198410424073,0.08117280669805718,0.7128681796349524,-0.36384523190203905,-0.54187930195004,-0.16880229615793274,-0.020025736139332742,-0.027911406748534047,-0.9702838775240973,-0.9379433069516284,-0.6276487890043109,-0.07687318070100484,-0.15269712631710755,0.5610132250050295,-0.641413277164189,-0.37827975023711724,-0.5684597703706467,-0.33197097220772465,-1.0106762283563449,-0.6352729001812967,-0.20303897356890757,0.006425061913192839,-0.45765284756104174,-0.7538650985800945,0.6820992310961591,-0.5393924825287758,0.21049290126657816,-0.5379291108243756,0.30128904225237413,-0.8287264618037354,0.4151276753543492,-0.5513392042348075,-0.3456250326730077,-0.6871235088678903,0.8700829884537218,-0.2390343521314665,0.8519871866481485,0.383497367962999,0.8107109731202529,-0.4407165764940814,-0.16751955222009765,-0.6209866657573961,-0.8928271318910547,0.5078114940179462,0.6509866023739527,0.5801075856853223,0.709458915866812,-0.49558854487213827,0.6258262457188654,0.7791527855153897,0.4144352975634251,-0.32663784450253974,-0.6363724394046093,-0.04158010780494825,0.4985342065950436,-0.2814460514136395,-0.2642490615095423,-0.16248084344721356,-0.7512647228363621,0.9437054581216897,0.13392485577275737,0.17728648818261145,-0.28276424372148173,-0.27265280441147494,-0.22802229896197254,0.2846269551762571,-0.31172431381402776,0.7559455583926626,-0.7960866161571312,0.9296419911214246,-0.0013097213952443464,-0.7236292675882204,0.11236107806014946,0.6152968137601185,0.19026807146951677,0.7968920863358956,-0.3908280245291111,0.6077219774056251,0.8739821192617017,0.4487229678555673,-0.8679847014520763,-0.432397792163699,-0.3015843919520358,-0.5444458758593876,-0.6050708179035079,0.054359419250532,0.9154175432175089,0.3246169522599924,0.19326315515666379,-0.6192079327425032,-0.9454764976286633,0.913252441747872,0.27386657858722013,-0.9384357435312786,-0.7783623138395963,-0.6787725254498227,0.850893128951568,-0.5376962493680327,0.8083291154003853,0.9483268788291724,0.18396984464014945,0.20510583648609546,-0.17243682343273997,0.7729610640765423,-0.06936287080317838,-0.10308525378690137,0.6934097139711959],[-0.18222546598340283,-0.7202346045268788,-0.5964616602700596,0.8158800832188793,-0.21566189659075974,-0.7109736611102124,0.2250113264601281,-0.24731018101324764,-0.05692402943065433,-0.49925710863096784,-0.08332947842380989,0.14130991279841387,0.3340376779549777,-0.658685405337048,-0.1518310630036651,0.9104560751464209,0.7039633545409978,0.9135536938359721,-0.5409694037001578,0.8932280117163427,0.5688033224388449,-0.1703406665613909,-0.5036409759569027,0.2813228917991806,0.11025883910569734,-0.48042069048375735,0.7380491109255347,-0.9442136686412463,0.5122078236617789,-0.6038962543612754,0.4123740799026341,-0.338982387828731,-0.8802128601282811,0.09435427598854673,0.31717293367636534,-0.2297891214744901,0.87585121242363,0.08276747716681736,-0.5563149103161977,-0.280440991595135,0.4716172045306263,0.27843608530199215,-0.16156376833887756,0.5546709572845191,0.05174975171939171,0.7429292989002932,-0.7229549836957471,0.7098839018685873,0.838438126536191,-0.08055521922898011,0.62632989032389,0.5388918689895027,0.4470466921911944,-0.34528631643858576,-0.3756044447377147,0.08314956899401249,0.023757153901317718,-0.5737009662627623,0.42005085507262674,0.08904758917679763,0.3727746219400603,0.8327430555162091,-0.47417820271006805,0.5309069843589304,-0.9918423265698617,0.43662298555002677,0.37099493963452945,-0.17893721667656026,0.3893736474290327,0.23871094507501445,-0.8496433765120717,-0.4187961773329984,-0.741793732814558,-0.9174503073529706,0.11873512455879626,0.9640754215582609,-0.879849988742711,-0.07772199241131635,0.2684469785794825,0.9482236589687112,-0.296534368942883,0.45177813715667126,-0.7867332175155037,0.7129145751470438,0.2564510981738928,-0.9171314816897165,-0.12757637350829865,-0.6788720920522686,0.03741466026344242,-0.7175657198467671,-0.934063236784844,0.6914874469230667,0.7536125797721975,-0.5862622452477357,-0.13776494262176844,-0.7046523716739782,-0.35012524443396453,-0.7197592610824783,-0.15102297291305847,-0.04696444229884624,-0.3945228212607642,0.08570332835443248,0.7355833487114594,-0.5395119244034555,-0.6623350258732716,0.9025514677732387,-0.1754556576221055,-0.9520557430591609,-0.10575773221281118,0.9668697215825913,-0.6320612111736448,-0.3402404554219176,0.4581574118376839,-0.7327042214098489,0.9168038791479747,0.2587806474669628,-0.710333084711315,0.28146022565599427,-0.8065717104036004,0.0888832155480067,0.780717701192248,-0.07458203844539514,-0.0838141277896101,0.21384935613988132,-0.21793464574080698,-1.2300567715239448,0.033969377053764065,-0.34477383184151217,-0.8698442467981661,-0.8653780916443121,-1.3718260980197166,0.25523300972091806,-0.16937043618582323,0.2304974090566173,0.3179041967608451,-0.3499077885701303,-0.8409108341308869,0.6463172734148012,-0.21058076489284366,-0.37487609899997515,0.4456102412846814,0.96634208907812,-0.8368440253848524,-0.08879128013278506,-0.8165904685407954,-0.4834543169472933,-0.9848529703443301,-0.6457744747467629,-0.34123320758599496,-0.059609586735705655,-1.269803268589566,-1.180302754818734,-1.3213972116233772,-1.638943684981404,-0.3862073648006932,-1.857902625342738,-0.8354072831119863,-1.1774398660115108,-1.0507546442740967,-1.3599136380450645,-0.3099951475006086,-0.9598758587751298,-1.0047873009798063,-0.9891950512654263,-0.24589546137797236,0.37990028055035463,-0.41569528820360374,-0.40362290561560527,0.7766751326141703,0.18144729167933527,-0.10076511545389191,0.6410304974562218,0.3752350937625872,0.10446832709249969,0.6284861308275442,-0.3651432449312858,0.17795409503782025,-0.5493074601272813,0.39375807982925304,0.4421395414404452,-0.009540897754449452,-0.18718734548415825,-0.5348452026028757,0.19996463403768783,0.3241977850791941,-0.23655328847192267,-0.5206781042154751,-0.17897478734553351,-0.8153520260301936,-0.34088123324472797,-0.1824557282119818,-0.5323462459403904,0.8922092570854004,-0.3011250438184408,0.49166905578619524,-0.5382157354892492,-0.3868109719442984,-0.6116458154970834,0.9342119685287841,0.9878032046757752,1.2262685551506358,-0.2051489341262353,1.3321460396416585,-0.15560496063983878,0.9846947634482758,-0.3531096333934467,0.9968387664222448,0.15906958339452978,1.0374647736435243,-0.9303493230821995,-1.2587792340630934,-0.5049931515416274,-0.17838284937702478,-0.31764491378940246,0.3186058793366372,0.5041037379310422,0.7031292472926156,0.48271359263444835,-0.2019470370726956,0.13544542571433488,-0.9214480430678224,-0.395995866850963,-0.3084539051413743,0.523259621014139,0.7459813185361557,-0.9147596138281425,-0.5828365772332934,0.2091947756012693,-0.16112045272585235,-0.007637936106892558,1.296012093617884,1.974584518811588,1.5739649468940726,0.30393344225114766,1.0261183398823628,0.4048547917849471,0.21042863147173135,-0.11276865850324941,-0.5064070798446915,-0.8854323409450451,0.4020249208380924,-0.011494835085814835,0.8633035439563805,0.66967869639195,0.7678527533219736,0.4667836928850553,0.7550380241177997,-0.4003816896147213,0.5734023808043281,0.29426397531209514,-0.1075258572789541,-0.6128918834660217,0.4832344291439439,-0.8481236308313377,0.5350219742019837,0.18665523506818738,1.5857237373262323,0.7237447990585889,0.9069882520248714,1.3166512904191665,-0.10167653687509953,0.4256547905631618,-0.2540352410294739,0.7126878710127663,0.34877407065985844,-0.30616878393364294,1.2333835164446356,0.4976855009462302,0.9666110683879798,0.2784815305565005,0.923764923934387,0.7881837578798513,0.16428658753566494,1.1157259678166331,0.27667277645702154,0.20210093346733826,0.12277514550995311,-0.5169858776189458,-0.30041427856238173,0.570484633598944,-0.8247699268834687,-0.45652257435559424,0.2910306446801428,1.3761986741274477,1.594854613989658,1.1676151626377111,0.30503824798954154,0.021021431005915147,-1.3193298511858134,-0.1956873413702224,0.1248955960282553,0.2391905996857788,-0.33184487970018756,1.14930003442709,0.16055986729319266,1.5976282993859277,2.0164593311057106,1.3817147667067202,-0.011440529274423347,0.5970614832678953,0.28560901477431916,1.004862992474396,0.842985888263592,-0.7295029985531347,-1.2494025569250031,-0.014749870608886342,0.2804857383120182,-0.9303460515993982,0.8289014079215007,-0.5751694666051743,0.5874384098492436,0.23553755063369733,1.3138662501652953,-1.0153993539290183,-1.3215984978964845,0.07032210086743386,-1.2198112655652569,-0.15306585997246616,-1.0152084707116238,-0.9038686422154721,-0.10718931717758197,-0.32197624900999056,0.6926033592047641,1.2065157827682715,1.017756805412838,0.13057623048872122,1.4161262674893371,0.7118962279231137,0.6733530088538265,0.16142451867915222,0.3812674449021008,-1.1397372892907962,0.49918657358318136,0.30192524194509335,0.02027183672052741,-0.8012648727200096,0.91828635591678,0.9862951526115266,1.3354924917131148,-0.25686727170303547,-0.6592379972497849,-0.242893100029856,-1.0893983868902268,-0.07873554486212601,-0.2757077260948573,-0.16423164808233287,-0.4846546663937018,-0.06554825231384212,-2.3843421564322913,-2.7889833099268184,-1.4609907331519987,0.2741830705733167,0.02044677977989578,0.2997205814221353,-0.4992869557981638,-0.13312817725035705,-0.4217815434424625,-0.3953945569413147,-0.5391510538765909,0.26497929169327245,-0.7409911188124235,0.49952963501082853,0.32626055021213995,0.9185002026116711,0.7094848133781946,-0.6717418787341527,0.2954241845048192,1.0647136577273415,0.5663229696049261,-1.1086857710231162,0.2277033302974619,-0.2990194207426901,0.2578343408122548,-0.6801044598119814,-0.19080029827491055,-1.4887647384376494,-3.1871316690688407,-3.428336155255739,-1.7277705512631778,-0.7981065207371412,0.8003743627821392,0.4712146592659903,-0.45952737400633403,0.05378315988026835,0.3580577728005073,-0.7626168837370462,0.44115891793437745,-0.26920131285842974,-0.2788386358466458,0.06520658879524857,0.3323406929294377,-0.6755805660723148,0.1717608180272011,0.7660882612283548,1.123872242274968,-0.2838809003620812,-0.1377973172066442,-0.8162656240944317,-1.5908421043982222,0.5685242493445852,-1.1736640671244303,-1.9228921037191933,-0.7087855116223778,-1.6571086457776238,-2.5476167463141177,-1.904688177967171,-0.3981635180238295,0.5768634876500074,-0.8649762335543724,0.9319631144091657,0.48467681480059394,1.4782908952806024,1.6372967567644146,0.9982355103703944,0.4723043598365259,1.1185917460517294,-0.25884558631199756,0.359135497758858,-0.5599536935774182,0.8519598438399636,-0.3691799249023431,-0.6416723446170398,0.30178766685859537,-0.4505782982714013,-0.2716454015227514,-0.23700155381189622,-1.0317063563497142,-1.6675349485079938,-1.0543487984766398,-1.2299933365840496,-2.6581250275220962,-2.205455859525502,-2.093207669909742,-1.1609417471589396,-0.5718615862613724,0.26034228126892145,-0.4936997697108081,1.465055720376819,2.0490664461221466,1.5277232208795206,1.6441124011266868,1.1131797660924512,1.7063975160189848,0.13123764372660834,0.28308194342546084,0.08413120432900784,-0.3770621471226003,0.8535680970354117,0.1838551368377513,0.3379525775266041,0.9738438681480809,-0.8441363044405962,-0.4874781443413891,-0.6105127911218252,-0.7206999059158322,-0.9061040424216099,-1.486050988399428,-1.375830762759264,-1.46795110430588,-1.7271113654306753,-1.12928487479726,-0.17364122279527539,-0.4034792158767369,0.7624528493058685,-0.05140407261123486,0.2529530817815189,1.2362916246379714,0.8420808209728741,0.9080936600768418,1.6517638814029165,0.010770384828733711,-0.02334546292948194,-0.12753929537199357,-0.039801577802573304,-0.49766581689565603,0.017041498048803953,-0.28471861193100834,0.6194515787203351,-0.029204769139212588,-0.8301867813705053,0.37174843741780567,-0.5347925207966028,-0.1546606856123954,-0.5299129782335996,-1.7340676277714502,-1.290520162297995,-1.54684950933504,-2.278553917523277,-0.2537591784540535,-0.7235465105683033,0.1557787490462113,-0.22769345665293975,-0.4690909558400221,0.21599508166277986,0.9479575458454078,1.5911836976440517,0.5254662403435583,-0.4404884076250167,0.06834373853445751,-0.20356865656378345,-0.4444532080180332,0.4912559136987435,-0.7008900570135712,-0.3193890380108625,0.23825139959795222,0.08836018740625003,0.2516307888939321,-0.6368243070177069,-0.8244785944050174,-0.23521820913140767,-0.519072618594673,-1.920560399265586,-1.4592916010195882,-0.7137577571933279,-1.3843557845731251,-0.27485978315585974,0.38443959792622023,0.08329377015826787,0.045842995839442,-0.2472592635775328,-0.4484855284469087,-0.6602117039137912,-0.48651531781727836,0.08175173051958143,-1.404779209199478,-0.7304482849595973,-1.3657524852768161,-0.41070427577246954,0.1947279625697699,-0.7461059973886872,0.881039370643715,-0.022928661895184794,-0.32705009478477964,-0.10343781162362468,0.6100924603349662,-0.4361553673650392,-0.7138485061408981,-0.7717302578962177,-0.7375820995796472,-1.2809838397008113,-1.21394791785124,-1.1739158784864,-0.667455494442541,-0.795256090631792,0.8231678635954124,0.4626051419231462,-0.1726455157563172,-0.4113869604050735,-0.40394064359794385,-1.9832249621556008,-1.9686186870660267,-1.5297563564873606,-1.68803456364239,-1.9497576161188517,-1.6316715865420437,-0.5998326099356797,0.271571761032564,0.24855540461288594,-0.07241162821300977,-0.6236017728255352,-0.55916103887684,0.49063998957644406,-0.11778938049685854,-0.7297238571349265,-0.31662219283151216,-0.15031901413155196,-1.6114894815515868,-2.4495798438736944,-1.8247286776854725,-1.038328007813005,-0.42278343429400184,0.10193892902985002,0.9003199664480611,0.2244267224252818,0.3147888639258764,-0.21106641377003152,-0.5661908606778072,-0.8892137780708201,-1.6326272087242224,-1.8452611387721523,-1.3861168184727246,-1.9478054391573831,-0.7799743972133998,-0.3203252245587503,-0.17239673926614468,-0.025810864438207563,0.28933036558529324,-0.2511986667087885,-0.5619919817395872,0.9150097837513785,0.6127668431010732,0.31131430363542817,-0.43517573535902687,-1.6569469756539346,-0.41594209487341405,-0.44223484122072915,-0.6969223863529544,0.3426008847632968,-0.8873907408606824,-0.4987581148587122,0.7650998769985317,-0.6749574226826767,-0.0899343749990838,-0.8556366638214349,-1.2266359149041643,-0.2945182300438438,-2.056761351650198,-1.7367539121341966,-1.5839757927239735,-1.6035597176599554,-0.8973143367663847,0.1330358885177603,0.380720944113552,-0.3918701614559753,-0.6559984507721118,0.05956380786975558,0.9461773281411561,-0.3766402213373784,-0.9381258687728694,0.1628735565122224,-0.8230807639525267,0.11132902383406161,-0.43140828340360676,-0.4234592799888879,-0.8696843086590503,-0.30026869444151466,-0.6397106523469158,-0.8620907137178054,-0.8881039456503315,0.3915640896563705,-0.10476014375723128,0.5573220052220166,-0.9925594381982531,-1.3534328952982506,-1.436385035874099,-1.8732275954374906,-2.0009779057211494,-1.1291831868993127,-1.8579590505290566,-1.1386063077848754,0.3948639762561246,0.2135909861635091,-0.21634565667901676,-0.14663084695824471,-0.6696543366567949,-0.5218528493943482,0.9151711658621299,-0.6387719527195079,0.4947027537387856,0.6244234351138996,0.052731765567097785,0.4708483893711417,-0.38536802091294525,-1.0077703871174817,-1.0249454524253774,-1.2135703304307175,-0.970744050838044,-0.896569373914109,1.0412934600167143,0.7275433794696237,0.46264784186228886,0.1647379819749566,-1.0813856366694719,-1.0975261268116618,-0.694121453919894,-0.46243176506959693,-0.0045556736211957065,-0.49974587656126324,0.07383686210400442,-0.06075966771093487,0.6188548320784941,-0.10543873050272756,0.504239108944895,0.929930053956995,0.6537782495692596,0.8023560325758982,0.08565809769957107,0.48207765651391277,0.49119352811755157,0.6454114391356243,0.47554501816084865,-0.3187307494801634,-0.17084461093925557,0.00015395543800379683,-0.08653252633249169,0.8074287942157324,0.11459301526486695,1.1925131800472346,0.48625497526119527,-0.4675132667925012,-0.09709961538122316,-0.802207600404095,0.15272613385597222,-0.8086588691255432,-0.29506499359468746,-0.5303136148323364,0.28675599161763343,0.13933208120015136,-0.9285605859489487,0.3134600705154664,-0.4332197531735398,-0.9949973489049988,-0.2601576457161539,0.6399747806701964,-0.43851550888971264,0.4225793244067951,-0.21752271318495023,0.14635331234679239,-0.05465210860634806,-0.5467985076642669,0.32028332186667,1.0385226870957536,1.1973355613629557,0.44972964970825907,-0.16633422885913254,1.1626675364784729,0.6207156817869328,-0.4551911819288304,0.7641149598402689,0.3787514048510656,0.21596132927641087,-0.3999387495544231,-0.9066505388290182,-1.0746910263413754,-0.10513732726590667,-0.08108982458572782,0.9382417171277632,0.5466093460907286,0.8390720813862562,0.3424874314777746,0.15333814600124818,0.3071258264317104,-0.5889224338332536,-0.7154354297549538,0.9016404287714772,-0.04397570259956051,-0.3185484595404487,0.23858055007945186,-0.33925052944769185,0.6357532333864618,-0.8259499870058475,0.04469832703647982,0.8865805063816757,-0.5806216376682458,1.0938677672808568,1.2467036565316167,-0.04802617093235154,0.24207755872581194,0.7037360663366391,0.3545255073313907,0.906947128429349,0.9846646457465227,0.9718651199253333,0.7349643995752799,-0.8872079648692979,0.645641414502808,-0.7376413055912785,-0.5185428129551686,0.017455599747840722,-0.40408470190607115,-0.9257714699483455,-0.3430020431294187,0.7390678470592293,0.3004211843296071,0.5379860744006847,-0.5522913477513381,-0.22780452666554044,0.3590013221352197,-0.07766270205702226,0.5670297590045033,-0.18951294446217712,1.037671300666475,-0.8255595123762536,0.9381924513239822,1.2979602889243183,0.6272902865636609,-0.5019133053209985,0.3278437647842175,0.6413231220175596,0.5168527008252395,-0.2764103187871836,0.7002549790359733,0.023002860612217013,0.5755447998980068],[-0.38207197005040916,-0.5994457089582008,-0.022080377906158688,0.9977081530103149,0.39991540969163,-0.595117452456003,-0.8381324894001736,0.8629715596452434,-0.575018789492717,-0.5714491421327614,-0.3814639541556968,-0.49879354535839315,-0.17678081487308395,-0.5244436134973969,-0.28671564458086773,-0.11667813555593828,-0.46456552891452674,-0.601305694811209,0.7138259271925209,-0.3086930349340782,0.4455195096447855,0.11694152698013482,0.23783727153228762,-0.9672880064684679,0.811935783124806,-0.8250066718507747,-0.593150636217572,-0.7254889201090489,-0.7552418280237094,0.11896840092552896,-0.2133960669384889,0.7924208148622025,-0.6461891707454724,0.8653590036334469,-0.5901447445373752,-0.7197174871757748,-0.47531422138802587,0.8281977749573175,-0.35627896277760085,0.6039261506882269,0.33564358923808274,-0.011339389092210127,-0.0199646824466047,0.7453328927305491,-0.30733561941354304,-0.20140209912080534,0.9350932383665933,0.937430594802848,0.7196089937221434,0.9536834169227885,-0.8532237640797615,-0.42873312633213273,-0.32889130654087806,-0.45959753187716057,-0.4854299312038508,0.7411165434122924,-0.35494964766283177,0.3557728752226934,0.06441478927619038,0.4767344098501325,0.16571132401651198,0.8077949584159811,0.8158752784686135,0.8909463435812983,-0.8036853168137919,-0.3759607880450509,0.7141884483958261,1.0225285938191642,0.06430471200533762,0.6540785493334388,-0.6895415038541295,-0.18877725067716716,0.8338993262087199,-0.17116153417251326,0.9333831083089786,-0.6209048308099122,0.888845295039217,0.7921669742851812,0.5375856063110187,-0.42725728331545265,0.20842290259321028,-0.390948413578645,-0.46012698063564894,0.6853285154879778,0.7793771156149987,0.6791842498355884,-0.3172764828377128,0.4478887498056236,0.9864672486720071,0.00853419535712286,-0.3288319793371465,-0.9518012137525674,0.06509554670835829,0.05990239148864837,0.6692369501388936,-0.28145664365792683,-0.22021682161423595,-0.4238868228523708,0.03758435466968647,1.0207107299908411,-0.2480319403492179,0.8659314750751269,0.41060462037126094,-0.2613045461357743,0.2934099602479323,-0.2506779845288071,-0.2428242446485442,0.41335259005272923,-0.2808238592077966,0.10209438688634037,0.15809940814408138,-0.09909541254751586,-0.17525968743136122,-0.8719582326389809,-0.3794861155189828,-0.004345295691753602,0.6211059254449992,-0.5622327358589323,0.07766281074082834,-0.48030443840633946,-0.6449021375145448,0.9374729334944227,0.5402369145892545,-0.901873097155595,0.1478525062876319,-0.05181001550418148,-0.4307704157324629,0.22112690839292407,0.6658617865426238,-0.06889441550045912,0.21250153537834104,-0.3630392889197838,-0.6986890233510912,0.5955508642849702,0.2677152772572081,-0.5556502702532016,-0.06716230200037981,0.8405658708957825,-0.181933044728891,0.8964016802650268,-0.9563630809785519,0.08274328024793531,0.39048261068576084,-0.7721027105100374,-0.42054024769694603,-0.5094827691082023,0.7680862679229581,0.7245602320870399,-0.3669416428782908,1.0936284832045755,-0.37532112629708697,0.04158738564807937,-1.2074255451052114,-0.8687830602786482,-0.538297463273086,-0.3464292365950318,-0.3568264014253075,1.4699210418097877,0.06871606236444917,0.7727166115381162,1.2422957078314785,0.717077765837347,-0.3465694990684092,0.3499249960197388,0.44443049284087965,0.10507031935233807,-0.7922048822132588,-0.42070106298669646,-0.8945542318565445,0.032180367649667516,0.024420106898008644,0.7384108806352525,0.5887302072800825,1.0101077556380296,-0.45412532571000347,-0.3447634679521505,1.0397693489303126,0.27175216841092903,-0.5312788692375984,-0.9766508718940337,-0.407324634613514,-0.6108417244075518,-0.5807930252921558,-0.1646596758530805,0.2958946439883439,-0.03545055208067491,0.3561646938381538,0.6618680042769745,-0.4413114515766266,-0.4871771309997413,0.8070302861592537,0.21086531264277794,-0.4995285448348445,-0.3642863401946746,0.6615019701485383,0.7552982271191624,-0.6931705288784792,-0.31544625821695177,-0.0002671620377556429,-0.06676791950589542,-0.29548564396662436,-0.012719001388889633,-0.23763623420474558,0.3310584901549304,0.6109449096089509,0.831862669813974,-0.021457375701988766,-0.999014151331929,-1.617019586196317,-0.6123942832936878,-0.06171223065366911,0.793865423475672,0.3228501319971353,0.77058524392686,0.7969494466762449,-0.34274574315462464,-0.20493584425013603,0.5163693583924321,-0.43703085792412394,1.116466770385501,1.269119916812488,0.4608254593916279,0.4176852846964863,-0.8504103841296302,0.9107418260879669,-0.604771157598816,0.3272009555513483,0.8664252033671264,-0.8677228574809935,-0.10154386721979076,1.1980729798943828,-0.403447687746722,0.6943912623494815,-0.3723098619668887,1.245662633104684,-0.005784247725041777,0.24105597316772856,-0.7227063408248062,-0.6393620133070442,0.07369969874855586,-0.09624623646131782,-0.15634480886399843,-0.3027279922326179,-0.5441098620971944,0.9780064404035914,0.1622336124174146,0.23132420274483195,0.48360698518751,-0.17813707597289713,0.4583078242893887,0.07147274368782659,-0.16516344234427338,0.20552886819541427,-0.3310613796417289,-0.9725707506813985,0.005310361396042888,-0.6193041628784494,0.14633933622537684,0.8433553335726632,0.8269073632163436,0.3279483819551076,0.7794999321333352,0.7694382317863325,0.041534600575299126,0.8668578710772911,-0.3977841175622506,-0.007091258106626293,-1.255409972036654,-0.08902792215616409,-0.04656290474443679,1.0119876388769862,-0.3637705737630516,0.06111596059388439,1.1686759168572147,1.4678338514560731,0.904344537538163,-0.10843664987651759,1.0999274006370046,0.7995364990123245,0.6359235321730211,0.352492514615678,-0.42135227672140796,0.1343965628373186,-0.34457833224973705,-0.23162822551221482,0.2211580826334511,-0.6618292449712387,-0.1948465734639438,0.7505249439274416,1.038063348589172,1.4717504766667904,1.598979726088294,0.2136383313184747,0.8228679110689617,-0.4300105039336657,-1.7955447823690796,-0.670276387596035,-0.5088693929882102,0.858575767884156,0.6605679861001553,1.0629763651913557,1.5125863463508462,1.3506643883992833,-0.27749904602698816,-0.4997400098080456,-0.06697169066909264,-0.49391767024644784,-0.7130665004612262,-0.16135036648080578,-0.8045646337198222,-0.7253048683711996,0.9766180888995544,-0.108289414396497,0.3581259292575286,0.9758862131532263,1.0452173779102452,1.1578868857865798,1.030841018363015,0.14857138064451547,0.46875128797162274,1.2431126636959067,0.8918471075684055,-0.900544478388881,-1.8403491592797367,-0.8905692615046436,0.7947765811249082,0.3983075590940116,-0.17282099068219642,1.3421940847836829,0.23215158130383706,0.004230733983142329,0.943608295037901,-0.11987226372641965,0.4029371142321003,0.4670497491390206,0.9235678412211543,-0.4978649595954508,-0.16511938124279704,0.17447277486350513,-0.9792948778797187,0.25057389922261863,-0.4833804142633116,-0.3003446782747629,-0.14905949091378184,-0.012734897972866048,-0.1474907010340914,1.2890070559920848,2.178322105007561,0.7733898264616842,0.18629382525909124,0.3504085124848735,-0.3684403011301749,-0.9421053993985691,0.17955932194438642,0.16114032809189857,0.8598246690964696,-0.08359191128772828,0.2500778790731632,1.3853701581716673,-0.5665587607903007,0.12231794427647909,0.3005863137808652,-0.7086762177148543,-0.07826928379429167,-0.936667831808475,0.8168496999238929,-0.8716637394864091,0.988427175013119,0.2747100324348596,0.8850627407616957,-0.5118122399195117,-0.6730713862184191,0.027483289826622785,0.07197323074309445,2.121681329848611,1.8491715232244514,0.5158554050034997,0.4673640253486908,-0.4755492815967294,-0.6875354660251123,-1.2328488976918304,-0.9895314821360605,1.0132461384179854,0.7408864261981722,-0.04300819367366125,-0.5686383200435471,-0.2807815547765857,0.9325428270222875,0.978875345103173,-0.44081916581212177,-0.8168835760039959,-0.18497211352772497,0.040988232029003875,0.9283805494771413,0.80956012123493,0.23269019018914658,0.19086234878980715,-0.3528164860562813,0.8138516912676393,0.26871754937147363,1.2831365129157855,2.0156281605245643,1.1672183373010234,1.3433170225095827,0.38727023273492023,0.5999261734836328,0.2012180424996845,-0.8059059798138976,-0.8959304993461126,0.93026397690677,2.0810506820112105,1.202228239241135,0.347987020233186,0.6870237866578564,-0.2563160159618648,-0.18238485006374497,-0.20180939132547335,0.39608119671721487,0.170669213201222,0.04607613341426202,0.46026687102014197,0.6237343487072425,0.0035757635430846545,-0.5202447415931851,-0.40119478421819255,0.8540163420936623,0.6625565223373754,0.6738420975981951,0.8736339309662987,0.029322516526551483,1.326514274388628,-0.006933599428081261,0.14812669911486903,-0.1388551943901018,-0.7359452538901582,-0.5589398486285188,-0.627312753389203,1.609961960258879,0.5513199455708326,1.212065773841801,1.3865287705941647,0.9319192081281921,1.0597360172459749,-0.8477100950684674,-0.6989176344215758,-0.3317600752850494,-0.28278062493505524,0.25645816873057437,-0.712655336016515,-0.630687393764652,0.34348615376184205,0.07488623574280903,0.555566725525955,-0.2277066051868541,0.04225173248572,0.028115593612952922,-0.059867532320891,0.9748502981290632,0.8519313311144565,-0.07206242563255422,0.587293160096196,0.05448630460983504,0.1375429737817512,1.2175966096739352,0.5235369668844607,1.0522019406326297,2.1646463800980484,1.3551704611633857,0.7821237887784288,-0.242979915867832,-0.6564222050655393,-0.043983523815843015,-0.46695194563517284,-0.12340187605731763,0.2833026306224937,-0.2953773621832844,-0.6837741125560979,0.2875870866851714,-0.7726798917284915,0.13446781452682763,0.47586725955181547,-0.017887705678473684,0.6284669977852781,0.7139613738008195,1.541917999863452,-0.16157764993762516,0.00675957521056327,0.7606587741636008,-0.8488627974086312,-0.9300354603018296,-1.0910076240074016,0.26237853161195024,2.1917769538127496,2.62110238587601,2.0483840697832094,1.5561097335949097,1.0520754481854853,0.8678983693157728,-0.052540829622454904,0.05525670634902806,-0.6723899214713304,-0.24192747122732627,0.02165607496961751,0.5920422850698802,0.7773243597384781,0.8754853646528142,-0.21000944436038524,0.26949371307690173,0.9848911539695874,0.1584748072445095,0.9015039471470646,0.47482752807501144,0.7248559527458078,0.36835128903153486,-0.20357533824087198,-0.8424762714919463,0.3912027867539534,-1.281890347566329,-0.5205776164731474,1.4475092209959461,1.589863216502264,0.7965079393905277,1.1867448988217608,0.08198442628740497,1.1190703351236424,0.8832757944388346,0.7727770559145424,0.027112995477079037,1.1082615815789052,1.001345789510095,0.5462891182968499,-0.8800580244438678,0.6810918744770632,0.05719624351999978,-0.2946003665741464,-0.06424587483661101,-0.5667303013909195,1.3681497778693539,1.557580543283668,0.5264473756850168,-0.005109844169972946,-0.14656033843949093,0.4441214951565833,0.044988101115433984,-0.5628628203290347,-1.3313582226073648,0.05014861268246567,0.8044396511558284,0.6074520602300735,0.5726888745634032,0.9757284885830805,0.3868860279428463,0.16971853503909318,0.7964396790779373,0.41070160572939424,0.2968846119583173,-0.4990752425211684,-0.2641411875106378,0.24326666798552463,0.8645151655144889,0.4801282185575082,0.8189494503560316,0.8245065730843616,0.9954572065845393,-0.012562460554112595,0.7297639813011781,0.6568026193851035,1.054200861913773,-0.8493940069008075,-0.545342444310904,-0.709755307212812,-0.7546752106341411,0.45782033165384495,-0.23587596833789307,-0.8259160000357951,0.40790845053814107,0.09733017777045078,-0.2745031100791937,0.527198081405374,0.6687758315343525,0.7608742267503057,-0.8231764976897168,0.4055462300475736,-0.46818202383293583,-0.17198188849009813,-0.8119242139419893,0.8081850296827555,0.918913980204037,-0.9013030643626553,0.25639384593141407,0.2853452639730925,0.10104776708874622,-0.5972580822899743,-1.215103963798566,-0.9720650620272574,-0.16521590389177426,-0.3378037990034178,0.020682436269089943,-1.0937621472837689,-0.41137342657799847,-0.4381510203585934,-0.23999060917102188,-0.7843250219098128,-1.2554857711320462,-1.6442088580876955,-0.1131877510202074,-0.5105816329515283,-0.8508059882509151,-0.0905997704873832,0.16301272999016345,0.20086374335855692,-0.9592728703776326,0.5476822605650665,0.7492928112182267,-0.8839985995055628,0.7145100140290714,-0.22552582350378494,0.5051608063191628,0.2566677435356979,0.801892652283089,-0.07516080124021683,-0.9399794488744078,-0.37752173254970384,-1.2849073743791404,-0.18940188095181285,-0.43915156232926017,0.17424041547838692,1.2286054418247283,1.276552825768047,1.0636775057462817,0.752933097609073,-0.6221022982619738,-1.2820140873489163,-1.4854669618974925,-0.6378852166379041,-1.0173583396711512,-0.31995942262026844,-0.32754553429290534,-0.7295603948233106,0.8860446484884431,-0.5814655916096798,-0.95048025341057,-0.14337903366264665,-0.15136219088113112,-0.6630571668545038,-0.3447872039184743,0.15371829403486995,-0.6001008949893033,-0.02941850455982128,-0.5263792279222943,-0.1285041795130722,-0.45499150947187506,0.10551518219370859,0.4753790564470388,0.1024797050438739,-0.008429747414188222,0.4434572713711125,0.37475581119443174,1.3478470154735016,-0.036924098383449476,-0.17552521237205299,-1.3269584327920447,-0.45016010883234003,-0.3437213755613209,0.5653276189063327,-0.7831794847690594,0.45507346373154983,0.6631366997491078,0.2610567513975918,-0.5414747462491738,-0.17696122475776965,0.8441522746167216,-0.04587749109426387,-0.2902402147589487,-0.5405707292393561,0.48143305415037385,-0.9049387970858918,-0.63882726611856,-1.3383402683430456,0.12578131719579286,-0.481666435776941,0.47522793585101514,1.118280979966176,1.5894010127297822,0.849357215283781,0.7411887399438531,0.5327694742541111,0.8064409868613573,0.7125191538838999,-0.01804185277803079,0.48781507180396033,-0.08024237912777969,-0.2762294101156994,0.18322862953159152,-0.7224660156023207,-0.25196244423885883,-0.21303004590778152,-0.04041091549785168,-0.061663344500688895,0.40712937126803084,0.5603745198486276,0.01664973955957505,0.4728822829909796,-0.10398781586862403,0.5795322665299262,-0.7417799309097944,0.13407000538297334,-0.293053150153477,0.13567051254518178,-0.5577100887441782,0.6485266264724533,0.20504575819243065,0.19306295190831366,0.8801612604175786,1.1967586360738707,0.2460157352907378,0.28041781526586707,0.7282340282320923,0.814478301704156,-0.5675925963998316,-0.3232703954196601,0.023132768481904847,-0.6819759394113694,-0.3779829268389365,0.5938738811050903,0.024475095719707796,0.3443415081031519,-0.23286864070982904,-0.08287662534336082,-0.16322167611326277,0.8380019573316857,-0.6838425311180071,0.33702427442646044,0.8854890373048814,0.4441041306788408,0.6641100750961387,0.19174294997424912,-0.4454696442293431,0.2391715271552979,-0.8435292337100645,-0.005181373749762714,1.1033312227045764,0.8499061964394441,0.6985209173941209,-0.4463032006389515,-0.13358677698678426,0.8831270874947706,-0.6491007589842406,-0.7971726399318436,-0.060603515537832955,-0.2546836015849652,-0.8518022057235776,-0.16575070795061786,-0.5091475778092971,0.6298854314116391,-0.10668090508014672,0.037500148045736204,-0.2722369295496119,0.3467540539908849,0.20922072460717134,0.48398709900596787,0.9975081916771927,0.3729387401885328,-0.3977780350004266,0.9272490307909909,-0.08707113726323251,0.2733530555489742,0.7958387478906622,0.08413362116085477,-0.7567870458690518,0.25877899423004636,0.2925288946769248,0.9531355967733278,0.20223868634671788,-0.9160381685398767,0.12288436506905626,-0.8111163158570317,-0.650950797981496,0.5460037881001599,-0.7626754393643376,0.5810698421044034,-0.8593205518694829,0.2162270009165872,-0.8597808986018358],[0.3551074686825877,0.20256757505861867,-0.7584356495121849,-0.33313823979002777,0.9751773540638999,-0.6812914642479178,-0.6260499880512427,0.8399845332554672,-0.6236139672933949,-0.8453132410801887,-0.5112558362983677,-0.3309014230720351,-0.8423310402450369,0.8417421717652019,0.5950489331087468,0.17856172636860101,-0.37316119480145415,0.17666217780722349,-0.4925145828365616,-0.7048465015918928,0.6704723363214784,-0.38930287941122677,0.7244613413828676,-0.5891836779773025,-0.892126332563655,0.8741581063739514,-0.6525669795858051,-0.19282082369598763,0.03656850831230862,0.009792246318613085,0.6674941153217078,0.43787066051405965,0.1921939204394566,0.8618438402746319,0.9376165581231605,-0.8926927558174168,0.027404339303964884,-0.4629845024996869,0.7014030794155096,0.3023792699399247,-0.9740677360915314,0.04419015956949667,0.8005225145846511,-0.7693382176946225,0.5270263905407129,0.4553692828234727,0.9699870469497649,-0.8434949609075209,-0.8554435265573902,0.00851440294912282,-0.11562700700856185,-0.6240060893753245,-0.08237918255529975,0.478472823827246,-0.08976595223408967,0.6715852866887912,-0.14717461695796974,0.5656803032712192,0.5129096555406529,0.4292153449227507,0.2804502013965962,-0.33687312737067016,-0.9478354216557441,-0.1703262964839222,-0.738465540174766,0.7714563613010764,-0.4176030273281329,0.6797890142268613,-0.4493408708699042,-0.17093750487041004,0.3345090616741437,0.9311656297271147,1.0455934593839094,0.49614491074024464,-0.9611871151532746,0.4632324872689461,-0.7835556637834086,-0.8091480336912216,0.7666282865458609,-0.7297412214142859,0.4444965532966063,-0.2389433439482084,0.9953034291658689,0.6505193179118804,0.18657106095686293,-0.7388215905115203,-0.46763471130452955,-0.39886875916606546,0.49150462027452696,-0.3678115517763335,-0.31527737682691415,0.7794672786316303,0.19819603363789481,-0.5410522257496853,0.10137503617146183,0.9169548852697448,0.4884200860184122,-0.1691879558038551,0.09044809687931789,-0.20038608519067858,1.0327900310296925,-0.2853530220080932,-0.416580762407961,0.27676502858171104,-0.6043271921194405,-0.3065203073045571,0.9434075012634076,0.10836387578635423,-0.7271435443000026,-0.7882278290063398,0.8904399737534723,0.6364664982604702,-0.5908431247226673,0.42061878996622715,-0.16221740423982842,0.020537437685264746,0.48017094330323484,-0.8344842853519975,-0.12609089808271035,0.08756934057314472,-0.7727720988061282,1.2480076465447463,0.20070449830486764,-0.10014645185371938,-0.6504870298750547,-0.23218484377632165,-0.4055380344231608,-0.4922247856847636,-0.7199513946647133,0.07594225368530301,-1.4536963122275852,0.969715646788245,0.07839602373749142,-0.22602715192697986,-1.1545307972210703,-0.6219387787000247,-0.00877585880055602,0.8045678286006218,0.3028832517748661,-0.35769285484550833,0.2581646270713285,-0.8585926906880745,0.48054716638385325,-0.16029272249825613,-0.4712376560476101,-0.13181553265123022,-0.6404292359894918,-0.000754485534286775,0.42462931674203463,0.8474034791163767,-0.6211122538709118,0.5740641973196363,-0.07287689579112536,0.06206835263427267,0.3286203047838287,-0.10187265116196559,-0.36044791589925673,0.19294111544533823,0.0018219083839987422,-0.019195867307758643,0.29958056205589645,-0.705341529702022,-0.49337118544965913,-1.4024403450703382,0.36907489347625955,0.36326298614069785,0.7634459319678019,-0.11070322249122912,-0.11178637270722902,-0.11901217475691243,0.5339758577990643,-1.156539424599255,-1.1738547254347513,-0.3610201978403905,-0.11974217946141102,0.2558102156379862,-0.21625812796389304,-0.0810462004142251,-0.34280713371765953,-0.4476430464147989,-0.4118347163070096,0.08409212500586713,-0.4597479166485438,-0.25339684543321056,-0.6023779967366739,-0.24132426900793316,-1.3619559913524235,-0.2885033903730151,0.14826058892704416,-1.3518004152458019,-0.8977088728432553,-1.0157417123118297,-1.7932444034948742,-0.4989702575103492,-0.21925512901498692,0.8782523971498969,0.4593961281432111,-0.6916353003642043,-0.8727209266640704,0.5388189104573302,0.060317295702493195,0.16287351281604828,0.398762872238983,-0.7216310798636956,0.38790507023367626,0.41385869414391513,0.33904018421775783,0.4978542992246631,-0.5217371617299336,-0.15456002430950563,-0.6111287444291442,0.44774088416116914,-0.7026675052844547,-0.3639648102826605,-0.7541648225798498,-1.1421430671844968,-0.8056860564436814,-0.039466577734536316,0.5578211724754712,-0.453859346922127,-1.6047696919978809,-1.712907113367088,-1.0748010654107392,-0.48590716335608447,-0.4539466667523162,0.40772653824374794,-0.6620040142530096,-0.2734284849937939,-0.7903982835484101,1.0029933133021371,-0.4919768339377266,0.8384723409982316,-0.2208367624092829,-0.4323149039065103,-0.24055040108351985,-0.1090646856029471,-0.7853558267578545,-0.517888143190733,0.45477279893950934,-0.5413979883877452,-0.32544742868615484,-0.39036992516523206,-0.6917481177593187,-0.01303004513564479,-0.17444612104049417,-1.0271806507666132,-1.3852009589757217,-0.8886077131248085,-0.9904233181607418,-1.5373118784134636,0.3488519291005947,0.38375357406951555,0.724490486790888,-0.41022348253792773,-0.6323097900460558,-0.6291567007089355,1.0599062472044085,-0.8959806035784947,-0.5634063520811947,-0.41493539691293796,0.18377463188034468,-0.02822714358722576,0.25496077939235684,-0.12038308954793206,0.49270312696290214,0.6770107871772519,0.5255715038441001,1.0206929365639847,0.640816440039531,0.25921831162099923,0.5689020440921693,-0.4239800740572246,-1.4017966727744,-1.47002731695657,-0.5701577481115393,0.4149793084488381,-1.3334367994578726,-1.2026817264244098,-0.7603287945670609,-0.33327753296567453,-0.7332912174914896,0.7783484010814253,0.8307568811824121,-0.49906165851078554,-0.8959440759052779,0.12439842974590486,-0.6110738486111422,0.19730852273017166,-0.29171661949306826,0.4122902312423705,0.7268004297087002,0.648323262278485,0.33504179323245037,-0.7871404503667052,-0.13285494538731854,0.19353507664410005,0.24228192122171602,0.0872383434623336,0.9097476285079777,0.956068348575415,1.1896647031090795,1.0238499877421803,1.156399767830817,2.180051241994513,0.9673486752021669,-0.6445046018286296,0.513601590290012,0.11202034588614888,-0.3691511975780506,0.4479239282683669,-0.7842521429007233,0.9743899345129178,0.3154431082111924,-0.006665615551956953,0.4389225904267407,0.6589806550410513,0.6039061815622703,0.9703369588616968,1.218667475911937,-0.10985111333159214,-0.7121787964946815,-0.7278356275186184,-1.4695556672106425,-0.851192083321626,0.22360281715868977,0.5299402307630898,1.1828150287393793,1.2543272534588226,1.4023415967665724,3.2682385987750457,3.704244717066696,1.5574627700906145,0.9395582281643197,0.6240836335231668,0.520043913627778,-0.10440533821811368,-0.0021605529109886856,0.9596337401438252,0.6890510097832445,0.0746436299565106,-0.02350902692414026,-0.7782465220651257,0.7942276371550487,-0.44848134898816094,1.5500725894930405,0.6187521749832291,-0.24348164206266806,0.02874911351847544,-0.720461851837446,-0.64070648365366,-0.9496532249923405,-0.39238099182048347,-0.09595599441259915,