{
  "input_nodes": 784,
  "hidden_nodes": 16,
  "output_nodes": 10,
  "multilayer": false,
  "weights_ih": {
    "rows": 16,
    "cols": 784,
    "data": [
      [-0.7865449844016341, -0.09153507764072044, -0.10511468796393197, -0.7834904101619986, 0.7592417486512981, -0.2968667912096743, 0.7635041272440812, 0.34657832762212104, -0.03349281415073824, 0.3570015764917547, 0.9816739169548394, -0.4478309056698122, -0.9326809009788423, 0.44477176828721543, -0.6204683448472179, -0.2814486074814357, -0.1766924558195062, -0.6221856711844196, -0.18195750943445166, -0.6734962576426495, 0.23762765084271908, -0.06155284593648158, -0.8198042614573233, 0.7686572625411237, -0.6243184582327457, -0.3453791110380555, 0.511195094245942, 0.7248612793675298, -0.2925019760155796, 0.6280675769118229, 0.8305681713564534, -0.8372953152166853, 0.33344805467248273, -0.8811215073007849, -0.4614563809857986, 0.48769484350639675, 0.6330444481870982, 0.8060095152525037, -0.5431550625006629, -0.9550153817728504, -0.24812352472695864, -0.45799945945778575, -0.4470780308048848, -0.8680385319145725, -0.8179363311473105, -0.792322352298525, 0.8815979079375094, -0.8099270913594925, 0.3384808257361678, 0.535891572739367, 0.27620068016779314, 0.22084955798023645, -0.7389061102170018, -0.5476921054197414, 0.7139469942178955, 0.7703285777859783, -0.5010487401611585, 0.4472134455728205, -0.7194639793687544, 0.5456334342491801, -0.6829017114921859, 0.06971928498708074, -0.3744807594280553, 0.04115572253696978, 0.01792622389590659, -0.4148244597202802, 0.9818336732256201, 0.015548728635473642, 0.9379572067116697, -0.1472317415932092, 0.27898823515196447, 1.313068847641611, 0.1864287693178261, -0.1409688294348316, -0.39948674581978555, -0.5745788500495919, 0.01836115161858635, -0.6508967401616771, 0.36920492404050803, -0.4402534031452744, -0.8558871183289125, 0.07548372135127422, 0.4964875382449243, -0.9452169702783397, 0.6545657023422309, -0.058303009365209046, -0.6016264615863743, 0.8124522898485866, 0.9737362820740084, -0.24674895793953794, 0.8377459135629054, -0.13534323876752957, 1.010927248503517, -0.3062080072351038, 0.8111412272989276, 0.37875674464793163, 1.531719057187754, 1.5774320492690903, 1.637087626053536, 0.8571096532054402, -0.05343874038296349, 0.3567368957963672, 1.0872939003556688, 1.0117918009691387, 0.02370537047200069, -0.08363877044641269, -0.08424292087819016, 0.4632329208768715, -0.9112157604074496, -0.6167053657103808, -0.593999345643502, -0.2373369658836877, -0.10002499693234013, -0.39500565365345797, 0.3495204019375346, 0.2960485262829862, 0.9790015330393599, -0.4046870461701099, 0.5235856805501513, 1.1113526672566343, 0.4924563559645526, 1.4312092892481607, 1.0294597049366043, -0.16634002047916943, 1.0427222232698332, -0.2469157106262415, 0.1024287430125377, 0.5701986201282735, 0.7421585720548468, 0.8468960982700148, 0.5942429684807844, -0.3933618388374531, -0.4634269946867668, 0.5725593236747909, -0.11500533026331637, 1.0351461198292398, -0.18184251823481157, 0.20129652453018437, 0.6606768390330617, -0.23115487919568742, -0.8113711261310543, 0.1384206577910465, -0.04705431606794692, -0.05393744360576986, -0.3631321442903889, -0.8449427555348723, 0.05699436272433824, -0.11415367357687223, 1.1545149540345057, 1.221343798599238, -0.3215920493552368, 1.0958009951080505, -0.32809632320836324, 0.3760421925731033, 0.776514033428063, -0.4647249692345158, 0.6814341086853593, -0.08853255533308149, 0.04821921706121946, 0.31795652165339144, 0.5852276513911754, 0.7137361006684557, -0.39476097329620935, 1.1340232005048263, -0.2929733246743931, -0.17413170738871664, -0.632817458906195, 0.7402761874721593, -0.3520990341720984, 0.7713096249245788, 0.19262537961273757, 0.4202572222818078, -0.8528326663045195, 0.29751143100701577, 0.7538890729174847, -0.12392372421315159, -0.1258632646682182, 1.1655162301814828, 0.42529605105530693, 0.35500760409053694, 0.083344706917297, -0.5653534974409974, -0.10543409509995742, 0.42127167104784946, -0.34169703147443353, -0.6547116199428681, 0.206438946570024, -0.219016703538766, 0.71332594698776, 0.3207694991599846, -0.13099054887873487, -0.19745640704701528, 0.8366987515203962, -0.5252414405076968, -0.9010801749916653, 0.9129431292877881, 0.27382683723361634, 0.3203948802504489, 0.2605111627938902, -0.3202527032753171, -0.1729908462337631, 0.0863082800138746, -0.06159141748671926, 0.032970422840700175, -0.04044658616196744, 0.5723172812783621, -0.21249159781179788, 0.6637583778078374, 0.21124895986567427, 0.29443051532549275, 0.5867008380930167, -0.9678975214332853, 0.6556533864783676, -0.048104349887524815, 0.29709789166174233, -0.650959473311992, -1.0068628347436654, -0.9818704607375808, -1.1058113421873343, 0.12001484780283682, 0.2575682233961394, 0.5922242316583488, 0.15988132693931767, -0.6341453511869675, -0.19598592534035844, -0.43958463446282126, 0.08426580529595146, 0.34771943843361974, 0.755544612641007, 0.4759567165200363, 0.46715813306274123, 1.089071868755739, 0.3736921030479575, -0.6232019055697549, 0.938367158930362, 0.8038368177026738, 1.281535210711004, 0.010948804914732279, 0.516595453772563, 0.5310276189267049, -0.6659873442994141, -1.099721977457345, -0.7018513130170259, -2.0136013396069394, -0.5623717828788508, -1.7726012278181746, -0.3260043323744017, -0.6720625570027164, -0.7149357261335499, 0.6359485366634235, -0.881120891111209, 0.8152641529577476, -0.671522548452788, 0.10378427934761648, -0.3814005404950074, 0.7848062850992148, 0.16040693778452741, -0.8030659368057037, 0.9982433542573861, -0.5182017954983152, -0.5654232419048241, 0.37465974833931565, -0.3582618828906972, -0.38643044556392264, 0.14788224819983828, 0.06499158396304154, -0.18235459191169062, -1.1770654918288133, -1.242038634103977, -1.6157656737691957, -1.9982235667210229, -0.815101079078672, -2.2573664894616883, -1.4749948131849646, -1.072983013035737, -0.19798727168599495, -0.04331054218286668, 0.5114653071464208, 0.5422375431280012, -0.8629392887913829, 0.6276184326467629, -0.46799036633386815, -0.12044849737759308, -0.4996153077902887, 0.8697980335684062, -0.3988927527504059, -0.7790258550676651, 0.24043339777230663, 0.5502265478679925, -1.3783554260228348, -0.025318015448670916, -0.8177362045960311, -0.795692049733267, -0.4472206006039261, -0.9605440767571637, -2.29301822091354, -1.808074578856858, -2.2376841515976063, -0.7642273963068434, -1.75098092349708, -0.6681026797737312, -0.38854396875911135, -1.2612208406773082, -0.06373557336465126, -0.03187162359366678, -0.5203138325662525, 0.49445043101827985, -0.30926435335559693, -0.5723927389936325, 0.8453503361108039, -0.28150800804773324, 0.02506225996702029, 0.6397052251730142, -0.7405988904645825, -0.6084641093643953, -1.2711941394485184, -1.3022472093080917, -0.7176071173087685, -0.4836931589349225, -0.8573670120622684, -1.7405851241737995, -0.2958068616737191, -0.03299602199422257, -0.5313193110762682, -1.3956767950744569, -0.29680151863387333, -0.7182736442387058, -0.3021218424318283, 0.10914928870991938, -0.6282039226841665, -0.9675846293734415, -0.20365162188724792, -0.7218862157184178, 0.028261597360513376, -0.16697936306150502, 0.8336326116028113, -0.5365896220805694, -0.13238319699495968, 0.26820799552060653, 0.9099991496873914, -0.35736750576196435, 0.01754048203346926, -1.9022916833443821, -1.5951985857004887, -0.9122036646509826, -0.5222769677906342, -1.6758080696461757, -1.0216103017735314, -1.1210251658001937, 0.63029013590045, 0.9763987118151258, 0.4495428522558002, -1.0480609098337967, -0.9060717871606614, 0.16921620402011542, -0.37985469248165366, -0.8965490248235614, 0.38747698770699485, -0.8690653641139435, -0.5504543320782781, 0.1175582993324704, -0.09474004535060938, -0.8888724829819727, 0.4901850465789195, -0.5019255547676404, -0.5083551109626284, 0.8702712911510575, -0.48412739102956037, -0.591922405985509, -1.953815507470245, -1.1088140413277014, -1.8641338572089812, -1.5210062605989523, -1.6651254350518376, -0.20403908416150673, -1.4271959626020323, -0.0600141766440505, 1.7040005073054985, 0.8905493365217552, 0.2226676908072685, 0.06827687740074298, 0.014006130138981849, -0.4755974632184008, 0.4407938950685876, -1.2799912927958794, -0.02861716981191041, -1.1183712253753346, -0.10744999919044015, 0.8781055215626056, -0.2508548339608479, 0.01817379364416751, 0.6016860127747969, 0.1887939241421455, 0.01856347454778271, -0.8580287153456347, 0.33438062676369085, 0.10589851570520978, -1.2334545080659765, -1.1469898479145044, -0.41324242520040433, 0.025730172373936065, -0.30603499404528167, -0.8315373047426666, -0.9126650290116168, 0.8638853019356104, 1.763044009165629, 1.0198278329750283, 0.7419628101767776, -1.0974220781037287, -0.3656585067708131, 0.2840625157851577, -0.5926687407914181, 0.5577434409745105, -0.581517205344983, -1.0414841548689255, 0.44284046369909236, -0.15854277390533852, 0.8942591149802159, -0.8041482855504213, -0.3244401414343913, -0.606695160693363, -0.5925178979279714, -0.9494559406437544, 0.04632727734633657, -0.831927856047317, -0.7950150578562606, -0.005620806903194533, -0.8283885770980346, -0.8364425027724871, 0.2268460169557408, -0.6634098508445182, -0.05647780835944439, 0.4455868768173687, 1.7465210596091292, 1.9304190389288487, -0.05792053584263291, 0.39235115205112553, -0.0017640388903326322, -0.18644629198881296, -0.6034958434730691, 0.10884234139339802, -0.41816871549221163, 0.08053758878583858, -0.41842028574223755, 0.2723645811336528, 0.6704465980139191, 0.013957964473590559, -0.7744855780288845, 0.3499867943081553, 0.8792074950861372, -0.510742205053028, -0.08816947152294911, 0.22867870146433492, -0.08201575278284626, -0.6273218451961514, 0.20420197357606443, 0.07679115140715405, -0.5439027024274353, 0.11355850855880976, 0.7701545442970102, 0.8438906685102442, 2.2747121761615197, 1.0132144165688923, 0.8233197165101376, 0.4836018746226196, -0.5210740670904025, 0.6199073638893169, 0.173177353869031, -0.36531111491601925, 0.4102815408863185, 0.3918105630049163, -0.6002597926947852, 0.19837815259755107, 1.207544100816101, 0.05689188855154957, 0.32150696924545674, 0.36013352714946567, -0.7723590849777671, -0.8805131702159003, -0.8349243349692137, -0.938903453494288, 0.41022982663426427, -0.2715099640207729, -0.36410885724460196, -0.07371634895814608, 0.5950192893182286, 0.7107435932171936, 0.6860659466795922, 0.963545894705306, 0.6247216140615787, 1.572596829597278, -0.3804227507100835, -0.1939689105049755, -0.37562585590828296, -0.048202656178850375, 1.0804776137602, 0.6584496316132807, 0.40521783937567757, 0.48612961870961796, 0.27527525639817446, 0.29044415426181003, 1.065118905703394, -0.13875636079438128, 0.4243567606966017, -0.740772838690418, 0.8931924988095263, -0.37956938431619436, 0.6729535867781147, 0.4416084924874399, -0.3549335463586309, 0.22980966599467775, 0.9718245755636592, -0.14146656118571416, -0.5024379464287501, 0.5144289495911979, 1.195152590547028, 0.3763160809989722, 0.6893717988610574, 1.1079347068378773, -0.1328592964157862, 0.5846216879013507, 0.21711134342737629, 0.8276393051974473, 0.23473425132004844, 0.3974572524665061, -0.761524944481211, 0.11088711592575273, 0.3447258455785522, 0.36517041160097446, 0.5355646946306288, -0.33846757865497107, 0.06848154835167115, -0.010517885084903747, -0.3910573426113052, -0.02934087088649149, -0.7288911883413386, -0.4073460647085636, 1.023280963769963, 0.20454063092657437, 0.4799312974584183, 0.32134240153197746, 1.1773539458183284, 0.9811693497320406, 0.8861767672949077, 1.6303761104395105, 0.231233535210124, 0.6721392654560667, 0.8730861690751424, 1.2057065720636362, 0.2612488526694075, 0.8657158761527445, 0.625051118036982, -0.20083454468761833, 1.0918400269798965, 0.10943234517515593, 1.298493125298667, -0.0030812061021961825, 0.30577350269412173, -0.2922843527094863, -0.005476382718592566, 0.6218927669809369, 0.42880234086123425, 0.6439802294097745, 0.7706140153048702, 1.267743013515323, 1.5806510565281713, 1.1502733750382175, 1.6538890833673654, 0.4383892391326986, 1.9691454276882205, 0.641102385505727, 1.1712699357265144, 1.234533132461727, 0.6270234542646614, 0.08793794337062924, -0.6186594142838833, 1.1812695623710896, 0.15016933604077218, 0.12946684008312184, 0.8983680330201715, -0.4365803679258313, 0.30309915847759444, 0.8819213997916436, 1.3939623954680675, 0.6709710873613679, 0.3530696856591397, 0.02255924330966778, 0.3454006395432664, -0.9411392897876899, 0.33491046512050215, 0.9662716533108674, -0.5886965565689255, -0.6447130167115617, 0.931595877031231, -0.1694974359342054, 1.1984062255047199, 0.35612348357162943, 1.0365433344611141, 0.9169326923261245, -0.03813175247943001, -0.07231452333078939, 0.6368039356381299, 1.049433127051444, -0.616772699052585, -0.217739923050673, 0.7321827658547095, 1.1789300772960924, -0.19423779097852334, 0.8090546622094982, 1.2626445390484862, 0.7243663162322832, -0.007331096328459928, 1.0544274156288194, 0.7267676703737221, 0.3340746327825792, -0.5100671326283773, -0.45012285130207746, -0.47067442456625574, 0.32154166811124907, 0.49577072665707794, -0.22338699691238015, -0.18641967081647098, 0.15817626685546113, 0.8188629890304485, 0.4599719325815825, -0.3301883365048543, -0.594184586108461, 0.5291270247755739, -0.6936279020330348, -0.5499906543712065, 0.2715657522372525, -0.5619486371251945, 0.14756989598476522, 0.00776765087298561, 1.3938349564115058, -0.022195812462440217, 0.8364223004782644, 0.6740493643789991, -0.5410989639115017, -0.18772197581845917, 0.04179960076876539, -0.46426332447562557, 0.755363180484483, 0.568572806775069, 0.5253310423794093, -0.9785425720408809, -0.5086356684512505, -0.8789004941333814, -0.4504627396964002, 0.8984979622664093, 0.548050082196407, -0.7966597860727884, 0.45366273956797876, 0.7860393406373357, -0.07781900823065419, -0.35474564879897214, 0.9513241317356722, -0.6800922897915145, 0.5994921193764797, 0.33047025902964905, 0.35301568581910125, -0.346984620723649, -0.2600483819453015, 0.47642936285098575, 0.6658730659675921, -0.7850188352234461, 0.5035493838595015, 0.10320568463729901, 0.5952622647245516, -0.6988767632579034, -0.5187212297826216, 0.8872046830704199, -0.9985249446113884, 0.14545881229033553, 0.16401449689979786, 0.9237041465098951, -0.5353822230482433, 0.817613943926424, -0.1484937817133844, 0.4396698368843661, 0.5433231438911884, 0.8601701690229683, 0.5282987331708456, 0.8255004110514009, 1.0348654987775359, -0.046570357289061115, 0.7906944057747906, 0.6786671861208101, -0.7800783289550298, -0.5847048684662127, -0.29465204292725017, 0.38672312034922457, 0.4354971628315158, 0.5001163437622138, -0.4400446147644355, -0.008808815716858142, -0.6544691640328782, -0.6018265703545094, 0.21821188633304994, 0.19658756853501336, 0.7366401852923024, 0.0032309982182674446, -0.7411880904925929, 0.24462547018016487, -0.830929103476031, -1.0155795212308105, -1.2040995829078556, 0.01920709597624389, -1.2927484476770073, -1.1047099052122868, -0.985381946342912, -0.6640466476295189, -0.16463005979660164, 0.4732457861587204, -0.4600171264529681, 0.33347973722376323, -0.12569152546562945, -1.071318016072289, -0.5976811574791996, -0.3220017764069962, -0.3478435932953598, -1.1230894050034117, -0.28750253609621007, -0.8500861570397739, 0.4166997422954195, 0.3435379871941598, -0.8418586771733542, 0.5363859212156061, 0.7293004741500297, -0.1277343291847206, 0.6031915509506032, 0.43957545464422887, -0.8638857618635823, 0.9497870171153152, 0.1466113657284594, -0.15973708946287477, 0.6298036225569364, -0.9253265679276454, 0.13706035347687323, -0.8703410622678568, -1.0443257784172524, 0.6818842027111607, -0.8731784986014972, 0.5754311223744517, 0.5767059283412083, 0.07354117887922129, -0.005702609845729824, -0.6091217318558755, -0.16511412470237072, -0.7214148144741189, -0.47373974537883046, 0.12028846504726433, 0.30307880036075685, -0.9579430020355424, -0.3644242130079185, 0.19870830850552723, -0.9718689319401244, 0.38690728101725735, 0.27990628060043354, 0.24763450869143844, -0.9466464684930717, -0.24854663519523157, -0.8093814222354616, 0.028208275089272976, -0.8168438318381478, 0.6766832023649024, -0.40324782870818676, 0.04128498594749636, -0.17603895949599427, -0.6013715732137657, -0.5941326878277543, -0.568836276270161, -0.13535024041578167, -0.08454401874679146, -0.0879620119277832, 0.3955998697565495, -0.09127788126449729, -0.9805784997093939, 0.1769020023231754, 0.8321743823639164, -0.7700522075464153, 0.044406278399976795, 0.8569976129435903, -0.49333212154212047],
      [-0.24990859386254627, -0.7908594647807865, -0.9501967030022906, 0.2442331708776222, -0.8674076725972295, -0.805310552684241, -0.7678384279200201, -0.9312474755860944, -0.25363839465633564, 0.1643471093142006, 0.9500696008026703, 0.2133678662084595, 0.7163813594301044, 0.5317795085424821, 0.9019577852366258, 0.09910847028860213, -0.9308377264534724, -0.006221054103281887, -0.4524182554636309, -0.3273454980456023, 0.8103817790128676, -0.07367137040628258, -0.18346277776241315, -0.49178625842780344, -0.9915353413820127, -0.4905818667991322, -0.6328096238016063, 0.07047816624233372, 0.7373951614709799, 0.17039196429029468, -0.14770765448418421, 0.5819098740421258, -0.7851805433656457, -0.43362717985840166, 0.48041225932876624, -0.18430368953882637, 0.5282741082930116, 0.287433580662555, -0.16257950049194062, 0.1968368819800483, 0.8613557633377225, 0.5429440007448613, 0.7731454089170459, 0.07751057557058377, -0.9342729918860124, 0.6205456784285588, -0.05500474485329067, -0.7170113238832044, 0.5057787564898245, -0.7274484280050179, 0.7395384142742533, 0.3013356160437208, -0.28899655535481417, -0.2944440685434495, -0.4678581458205251, 0.6175086542983039, -0.9592188604394192, -0.6773076151489836, -0.9785197722106526, -0.8306813687433053, 0.4745087622596969, 0.8433303547357707, 0.4943603177322296, -0.552391340153993, -0.9631740500661785, -0.7765796150318642, 0.030446115246668782, -0.11026536279486707, -0.7142084099726079, -1.5019619703498406, -0.3942645853114545, 0.04154083091607046, 0.1863037193899904, -1.2103813381174, -1.1686297764451214, -1.2741222763630755, -0.013652046595989236, 0.39333660048784613, -0.9479534051651248, 0.4173687621782369, 0.42820657339245677, -0.7302390360898772, 0.5163596631265386, -0.8798006600616923, 0.2515317948487472, 0.24393610666757137, -0.23352447248062513, -0.36229607036020967, 0.5428483664921203, 0.40220016283075183, 0.0022012399927979123, 0.9724211886277946, -0.32006988897042743, -0.5445480713873175, -0.909830704882173, -0.8224477318868426, -0.3029346167591223, -0.4431696410533687, -0.26926043313465625, -0.0600163230914524, -0.5845260793161282, 0.08137255016644669, -0.9255639328896582, -1.468508889053854, 0.17253754480371084, -1.2396497477030024, -0.054638044103808216, 0.24873869126915815, 0.47326250890665317, -0.12410248767759678, 0.6658351341368652, 0.2815793199508154, -0.7302413291450884, 0.5506755813718418, -0.004964792957724241, 0.2862083081402357, 0.6880117365059306, 0.6877834510852826, 0.8815409736864482, 0.4379223060102923, -0.07288133415370288, -0.24279651517374445, -0.12829027618234723, -0.0436139360009589, 0.6433527514699576, -0.0020384922628677994, 0.019334511310039663, -0.16303733072689766, -1.0045780083636198, -0.2910571542647813, -0.7914025629775441, -0.8118847608132443, -0.8197346817742829, -0.21287096303349642, 0.0683918161718265, -0.2767983716112708, -0.10691388312628226, 0.01243324890352815, 0.3038777343299252, 0.41639761326484553, 0.09668219731731487, -0.35124123207793057, -0.23849198244065228, -0.026591629081551663, 0.22967115829681994, -0.10051992096043225, 0.900711337034958, 0.8916581205229375, -0.3945690063586945, 0.631913138924755, -0.05125990624557027, 0.14570702455005183, 0.435568899594232, 0.08447162840065865, -0.3289988068516491, 0.6862583509873836, -0.06883007156728894, 0.22056992152804197, 0.59630841706228, -0.40065716804674056, 0.32358584742256247, -0.9714326456441381, -0.02185009239254999, -0.9193358094486228, -0.9608083171536481, -0.5334266650028778, 0.674398692833237, 0.8868711931812151, 0.6638999608742862, 0.42994195201950663, 0.80997972185565, -0.7754041754771275, 0.2913249903689497, -0.18065439889071977, 0.8991693200209702, 1.0993693374909874, 0.8036342267730672, -0.5255982131370648, 0.4022694090030652, -0.14825530723297642, -0.8732032967601844, 0.6573512376849111, -0.7660021747209519, -0.8056704352663687, -0.11991538836716892, -1.3444952971462176, -1.2780403314545665, -0.29733873700661195, -0.07966299212282173, -0.260845417064844, 0.2061309299078497, -0.8618739463617752, -0.25931441124915394, 0.5359722644445762, -0.8982453726456048, -0.6389965390047165, -0.6714567027395482, 0.03731854335578735, -0.8754404621875791, -0.32852095760959144, 0.9934815521172388, 0.7502100157754471, 0.8247668367853114, -0.06792374784913038, 0.6721782748440969, 0.5980933602884506, -0.14793147404440538, 0.6794028289067976, -0.21296203601472954, 0.2708051963658071, -1.3401525207388636, -0.8603636177361685, -1.2207607492697155, -0.6640893955137352, -0.6836246294316647, -0.4692238850510675, -0.6459859964170206, 0.4600992629272395, 0.13701466818836117, -0.599055611524422, -1.104614207166318, -0.037229625394529745, -0.5070658545973294, 0.8518267799227925, 0.24271628558758615, -0.35818548078967277, -0.07040779326908814, -0.4957009928929481, -0.0360873438389224, 1.2442823025468153, 0.25543530366706485, 0.009808674292540875, -0.049277164728680066, 0.16523456557475702, -0.41059518919963267, -0.21546105627800016, 0.13315962026676548, -0.1265400928882733, -0.21308070674075588, -0.5055254389501873, -0.586345033821025, -0.19430186397907587, 0.5829156804726169, 1.4195529606702566, 0.24435518840841253, 0.7516396424612299, 1.088720958121437, 0.8757126696868919, 1.0339558911674005, -0.03917931613563482, -0.4892850272685843, 0.5300357926394433, -0.07890152989595073, -0.3962878017279764, 0.022048041858542432, -0.7539421018128056, -0.1543174321581105, 0.5597317262466635, 0.8298973463944068, -0.3902464111293006, -0.6547975147512148, 0.05572867468022991, -0.2046383683024893, -1.0410521964716009, -0.210002418419653, 0.2095333124308738, 0.12078611926085847, 1.7590509889139705, 2.228907601931394, 1.366545381367404, 1.2108427092501233, 2.2824660395002456, 0.9312900065639343, 2.3925672755727483, 1.1911566364430808, 0.671688087530309, 0.4072205023231168, 0.9452234139712778, -0.6564877463603821, -0.6332584902804639, -0.8394265243030306, 0.21534170046010684, 0.014369562137690604, -0.22865195368805288, 0.3188321594249445, -0.17007692499086915, -0.3184741870002908, -0.01817703683847531, 0.10287717197708224, -0.6247810821628026, -0.3427800337706552, -1.2223032913382488, -1.4193448666710746, -0.533907426588564, 0.44215158487432193, 1.237985915279008, 1.8472851410347209, 1.4980583464903647, 2.453782750935596, 1.879604317588355, 1.422555778718275, 1.0741245761947196, 1.6518732606649307, 0.2714409744375077, 0.6120456131227006, -0.5396022379882578, 0.6837354401064769, -0.7442685173847704, -0.8692641933447074, 0.11556157932026592, -0.30809545294491075, -0.5163508770470612, 0.8237848972087468, -0.5624855637307529, -0.2194814158438226, 0.04968522115015471, 0.11915299790613587, -0.4157810995207795, 0.11710561388041495, -0.32396394623227, -0.8297320175041729, 0.4496274931168235, 0.9208808760463987, 0.9969873542787135, 1.2926775635602394, 1.3709074012974631, 0.04345491429661647, 0.2318900742786722, 0.839351383779681, 1.475317536506183, 1.2819845817568896, -0.517723919541147, 1.0962090976614738, -0.05766977472501782, -0.8554588368770153, -0.5164830688629442, 0.25614197336708, -0.6647248560687922, 0.9517433826983469, 0.08201557904169246, 0.3597457420667285, -0.09690146183942647, -0.3098560722837166, -0.9538084010345732, -0.7263731619427459, -0.08803866232103069, -0.874331549632203, -1.0492922432697094, 0.3997192979839806, 0.1436240212406626, 2.0568892772057015, 1.1751930510452273, 0.17776159357095894, -0.33627959295969845, -0.21979296422211456, 0.7154614724443082, 0.036555927544457203, -0.08806306854716087, -1.4308855401072018, -0.9319565322186084, -0.09399125846500911, 0.7496181742605207, 0.16889282021802865, -0.9752820012038464, 0.6454405503535079, -0.9257306347761323, -0.03995567880394706, 0.3079358446078699, 0.14958582579374527, 0.5422677661737795, -1.229069808822342, -0.5377809321216115, -0.31712567071235787, 0.18550855215839365, -0.28285733259767143, -0.24488878316920437, -0.06174736566554111, 1.1627302140658728, 0.7416555319143943, -0.11839392759408003, 0.2286540938653951, 0.8752270148851777, -0.08067633369786126, -0.14119951296823416, 0.03819569589268208, -0.856703203815331, -0.45089732713506925, -1.0886379006323874, -0.5921568249918694, -0.69671391562687, 0.6269727299642599, 0.7570636284530902, 0.8698213047029825, -0.7324934481921371, -0.681523106141216, -0.37319026511088416, -0.6762032270068281, -0.6118624192321277, -0.9060414600406299, 0.25684453115974254, -0.2936625513050162, -0.7205784009888537, 0.20001487290331388, -0.2706823535043439, 0.8529368440835209, 1.1962033839451556, -0.16031086895092103, 0.7604236392008088, -0.038991837297961185, 1.719947347641123, 0.36637942209240165, -0.2978698135261444, 0.4396953006159007, -1.074151552119053, -1.2122810133373618, -1.0481283918869628, -0.8925799153728399, 0.5724680313594717, -0.2682462499013857, -0.28293341465287547, -0.4241994315142452, 0.16125027507329762, 0.2516759370142505, 0.6093202670758117, -0.36501899891214545, 0.7072033402365994, 0.6461228531272571, -0.24832635937161845, 0.021075286247922907, -1.29484540622536, -0.9586967134861343, -0.5802783895651302, 0.9151297465852847, 1.5659048021431359, 0.6076929967545495, -0.2613394097781952, 0.2687953383025724, 1.1292420444317404, -0.0938319969578161, 0.2789873665193076, 0.17582856025722315, -0.937151332686966, -1.5038510899125757, -0.943908395919889, -0.463934400388725, 0.15898028435108966, 0.487903439087171, 0.8400987685224828, -0.480383555261566, -0.6240159969475046, 1.0111480650835412, 1.0710397413033688, 0.9137712899995166, -0.18676679297513749, -0.5950232353197253, 0.4928909954090516, 0.33025623884418515, 0.5992012006512386, -0.8564616486800088, 0.60571515165156, 0.5920923179558782, 0.5830848059287331, 0.432245158414261, 0.9403273436303929, 1.3396240195627496, 0.7145036161691312, -0.27458507703217055, 0.8785219934522436, -0.9314436920910083, -0.49060334263503314, 0.21245996413938006, -1.1239623393817024, 0.5294840328020277, -0.12134454350251286, -0.2596165504932342, -0.7454603424038766, -0.5985806282995134, -0.2520388776876145, -0.3136568874028352, 0.9371704568409132, 0.7976139100708758, -0.7313973732143378, 0.5525919473560372, 0.794969696022431, 0.35905688153378534, -0.47039869895443986, 0.36615062006305704, -0.2885056549895455, 0.8467915586153574, 2.026132038747337, 1.4191833833615615, 0.9368932739792254, 0.8981008493541985, -0.2021336079092576, -0.2860478674323369, -0.8793233514058596, -0.17123512355830883, 0.13100290626654443, -0.4890107249310255, -0.0076127558821542825, -0.6512557382427109, 0.7797422612336302, -0.8101380302549578, 0.5377530738843589, -0.791295591177071, 0.16225682110553524, -0.9267861237042944, 0.830312008633338, 0.6453629704913361, 0.7052215968470886, -1.0254528877106852, -0.1714724734191182, 0.4232224653401668, -0.5106228181032468, 0.37131185988713855, -0.2010288238036624, 0.3985181148016392, 1.5050763033131758, 0.47190685972470103, 0.6085094299576008, 0.0007180966870363475, -1.3878979762273085, -0.4531516687284241, -0.23919487832671896, -0.38108337428407624, 0.21762260524656424, 0.5210254559350334, -0.27421889691323126, 0.936129193994654, 0.19467972419513047, -0.21006543185427545, -0.6857902782992458, 0.6012520845673321, -0.8990146882064514, 0.18589307228348712, 0.8919493320648343, 0.4961157311848846, -0.5423869332747698, -0.9147855478699516, 0.046733947099483406, -0.5771124162348097, 0.20521053000468942, -0.7639781233400297, -0.6007409567439631, -0.3974473134635799, -0.048593468960020106, -0.041608477803395265, -0.8699043680368985, -1.314761100137697, 0.32588525210001035, -0.5217931792500449, 0.10678969505746005, 0.35272333324562827, -0.5170564480887366, 0.11232877093213112, -0.28847800259992334, 1.08495234203974, 0.8036981825015372, -0.7228817593993722, 0.1634235471175396, 0.5829672367363639, 0.9933825995332775, 0.49649508615642246, -0.5158035649640318, 0.3194711304556529, 0.09829717865639692, -0.799017181866109, 0.877584111790019, 0.6131747881091242, 0.0007729536118116301, 0.4749956753438751, -0.0447366158301121, -0.21594126904892674, -0.6906894266669512, -1.5211678884321693, -0.9903523455273991, -0.196735858486867, -0.1365118686409531, 0.18539901988745588, -0.44493081031380516, -0.41289597346241474, 0.8858757466230426, -0.4853436576926828, 0.8569169971736421, -0.7298975491652245, -0.5736337099393688, 0.47657593189767566, -0.5051509100876389, 0.0030260120007858764, -0.43696238759376244, 0.16784685258056706, 0.4698504109825542, 0.30446835045547394, 0.9428890143033805, 0.5118635258221449, 0.02079668902556341, 0.05945400229398311, -0.14052280042915846, -0.07491228039407129, 0.15094187414787189, -0.9510078928152317, -0.2616501875402751, -1.170160229452973, 0.42087822668053854, -1.0855721633691737, 0.05234826303836537, -0.6452797148509328, 0.8710488898387329, -0.09783224864078736, 0.2197594209569718, -0.19553034698568433, -0.21977706697393562, 0.24470281538159064, -0.9130374927570442, 0.7956959714328503, -0.9851089082498352, -0.4103303449375002, -0.7390211067823445, -0.9022513254691721, 1.0719094735705224, -0.019936030687644213, 0.5330418423827731, 0.7966433734677669, 0.37604549036127505, -0.5269066367637876, 0.30559207007456196, -0.22388385026908653, 0.21454069613906007, -1.0927764397746846, -0.8661044387314961, -0.17927232643203744, 0.22603025062050716, -0.21165536711067262, 0.22395744921525723, -0.3240899518779047, -0.2633261964055194, 0.08055082844326662, -0.597482799018277, -0.752489147705067, 0.6047356474166197, -0.6422475338549595, -0.6633185670118452, -0.840902353446591, 0.2763946604419393, 0.5604527513566695, 0.3669284720065007, 0.8140172610338589, 0.6606377300056047, 0.004123512621347101, 1.154870073282432, 0.008184390557115633, 0.8364621224374476, -0.5811854854031668, -0.0046594756397782535, 0.6088069353086052, -0.1489885971411108, 0.5371995043072938, -0.35680291444344026, -0.11664357011220135, 0.08025934579215299, -0.37690164896736356, 0.40996142992322127, 0.04969620438413291, -0.07870415881158845, 0.263697734654007, 0.5897993374039262, 0.6351180312342528, 0.7103632045582351, -0.43920450700747, -0.17221127208860135, -0.031418022026821396, -0.6923480286359904, -0.2840474972006213, -0.7017545526614062, -0.15352956201182533, 0.12833325519908828, 0.04277966437544846, 0.30666746098130865, 0.5587482242007689, 0.2774520207771047, 0.38217122649946556, 0.3816533300856263, 0.31933924428427896, 0.47066384965410013, -0.1496256824310644, -0.7643524700727184, -0.5166342139560628, 0.22254190335182897, 0.38971814230156937, -0.05469191555021138, -0.0743804838505666, -0.5652771963357949, 0.6207035362343647, -0.6936476621776118, 0.3902191750801681, 0.25700426686155076, -0.18232155503064093, -0.9146951718208993, 0.5864143035591372, -0.7554205345086409, -0.6786394882464455, 0.9669480166180828, 0.17916161269141181, -0.5730330826375752, 0.22264188754679476, 0.8482431537623435, 0.8145819783704482, 0.18414737812339146, -0.32976759688747465, 0.257211341285325, -0.92097874342577, -0.3025133674375724, 0.3218288877206892, -0.25756528543725765, 0.29055746065670995, -0.1416875652194059, 0.2838751085023539, 0.10984898214327378, 0.7425657465092587, 0.41533615078101954, -1.0727310915425508, 0.7072709788342161, 0.5028005183220007, -0.8424951015939512, 0.15734279145306435, -0.7423049320533467, -0.5259319479430247, -0.83356379969148, 0.7817497292351137, 0.8454197914689776, -0.14393820975913663, -0.38683211707070186, 0.855543946069089, -0.17728337374058864, -0.033480519675743, 0.5071099040220415, 0.7677935577943547, 0.7691964537254464, -0.4178307322355836, 0.3011744614724256, -0.512695608864511, 0.8094687127104158, 0.9873577396330917, 0.47688600194755637, -0.49533978275327223, 0.032243201849891136, 0.49632735748783285, 0.3442387513044197, -0.2563822240654873, -0.073095479810347, -0.6443383970406975, -0.37199246962391974, -0.30232073884733146, 0.2304590566954796, 0.2365264016717088, 0.6824531876252924, -0.9336303354826185, 0.34927832991344543, -0.3153505487479302, -0.3769238827784842, 0.042854022981209515, 0.6372269956037515, 0.1979050812276421, 0.2600482689847638, -0.5578917359305406, -0.8633441667707744, -0.41656401749656546, 0.49558175100656826, 0.6241630311829326, -0.4748940679890245, -0.3620299888690845, -0.15265449453475807, 0.9905060256966303, -0.1863301081745476, 0.8030381323151321, 0.33553560415113753, 0.08809886469082875, 0.6651543102038789, 0.14169973854368192, -0.9281286523827861, 0.5649537582949993, 0.6457841872338523, 0.6224079539018654, -0.43798975637112614],
      [0.5141164522476056, -0.9731250923633916, -0.07814077355786608, -0.01340507304232652, -0.2764345046215486, -0.8032360700582024, 0.2483768124399761, 0.2697332221772326, -0.535240584935579, -0.38062624476618323, -0.8153797788003607, 0.15524474792458065, -0.784323606026725, 0.9297240396461397, 0.5100929182564156, 0.6691390380250875, -0.8488943545985173, 0.906917979310403, -0.1896180141193149, -0.026339993063031475, 0.4189825900513684, -0.4748123861297082, 0.4391159530674029, 0.9506837119694889, -0.79249403411918, -0.6103766088863622, 0.9646157941561775, -0.2967589949597187, -0.28101224970015926, -0.8378128867393397, 0.7942945573113436, 0.5568179601479719, 0.2095777466941511, 0.8754147113910321, -0.480376243789214, 0.3758057740755189, 0.6259563579326464, 0.02703870038020067, -0.2201459765312119, -0.38850744167249146, -0.2864966523516213, 0.6215757291114777, -0.5454751369383155, -0.2571982431320852, -0.6039467628577653, 0.42633005227171555, 0.3604400237506748, 0.4082569421468137, -0.9705207685173204, -0.48077265521888657, 0.42470251835858697, 0.693061449573244, -0.799339009879104, 0.7496076520912163, 0.24790029052147977, 0.7631450033648726, 0.8366769211643947, -0.30819754097390106, -0.47801975122489904, -0.4497322318583159, -0.596349541482953, -0.28508576956878456, 0.05937773612136204, 0.8661239148430957, -0.5944992731694521, 0.7910822638392482, -0.8644409859270148, -0.28825853947516505, -0.1638141912309367, -0.24392728994659463, 0.08738619903659162, -0.5923576445264569, 0.11916700866116844, -0.530354245504083, -0.8637311122039955, -0.6259816362207357, -0.37970409562651064, -0.23467167540683725, 0.48177204271960045, 0.3878304407864392, 0.5636010426148347, -0.11723241201231673, 0.23284004099663758, -0.7309439655093155, 0.050932633595772714, -0.7260555649024165, -0.709219807374017, 0.03236115478277048, 0.623012762390656, -0.8622445614959908, -0.5835433898084217, 0.11893633691266185, 0.2040744692739313, 0.39087062439922876, 0.08531120503389159, 0.8907850324265791, 0.8398618091056806, -0.04403496132734662, -0.551743407628779, 0.4773119968892728, -0.19440712500457158, -0.49049942713576067, -0.942856323075938, 0.6051886570845862, -0.4788950321954464, 0.09697864952651894, -0.7476396997539477, 0.7986242165609853, 0.16097406387993493, 0.5739230494546524, 0.18805941926952552, -0.21201975908495907, 0.21524022529584874, 0.6179348463135657, -0.4132878637741152, -0.7884321043955625, 0.9069103077177365, -0.22647259082520138, 0.6731693312804152, 0.9386165262559583, 0.16742333084406616, -0.8431677900554775, 0.8558647210854904, -0.41262073510773495, -0.21548798310525025, 0.4258909302443104, -0.06980743080605588, -0.10195390870366365, 1.011271752287391, 0.5037283521579176, 0.9305584513511771, -0.5281774463597794, 0.7123186385429175, -0.5303125708507513, 0.3072588019468313, -0.9921185173350403, 0.12573703723020738, -0.06406053135857857, -0.6776512423244537, -0.28153326349341273, -0.05333884725066396, -0.3150010726913153, 0.12778662613334305, 0.033889664965492165, 0.5778001389036191, 0.45638788191341256, -0.6963861223580166, -0.8600915867586203, 0.31757012876093144, 0.8900741957996152, -0.2548018901398092, 0.8171542574642813, 0.8189986279028768, 0.9251865901983686, -0.16822599520108014, -0.3764745676743984, -0.7260143801741606, 1.0115350508097691, -0.47817430079979745, 0.2111197415467108, -0.7445419702669613, -0.690218857109169, -0.08947569461530851, -0.8700735479263871, -0.3308740579810796, -0.6935756764808604, -0.6820202850242423, -0.373737367027508, 0.1355069807847764, -0.05161398030490935, 0.33493846039549935, -0.5562417865340117, 0.19287992814932042, -0.31779365459508596, -0.8871183588990154, -0.8976581041760975, 0.48018813329539956, -0.5310077628757576, -0.5585537684016988, 1.009972584776644, -0.02686960230190166, 0.8771779060055565, 0.34200513218591017, -0.3623146401090796, 0.5419738748840616, -0.6170179097803974, -0.5009733353359022, 0.5192215171589359, 0.5103736282946324, -0.26681497639495494, -0.14038014496922963, -0.4258428251348587, 0.5155670894507245, 0.3909176614064456, -0.4399381613445151, -0.3401618144039387, -0.7456468407805603, -0.6239384829355077, 0.1540858072201562, -0.6707597563897205, -0.4879192927390066, -0.667765431451897, 0.9383598544336786, 0.6882483508929801, -0.5831586124442405, 0.16451117571535695, 0.856624871841439, 0.297710962008222, -0.08906553326129377, -0.5575210948793846, 0.05323842804020424, 0.5529476240490938, 0.7097782049210107, 0.5212451915523966, 0.68975195851374, -0.057566337125366775, 0.8649377565635351, -0.44177717188007937, -0.9011039570608458, -0.8869572785659133, 0.5997597407627119, 0.17784292006064292, 0.07320038978738595, 0.3572778138871028, 0.7477864659733479, -0.2560399893183667, -0.9095463962553105, 0.05199403627326773, -0.5770133089722558, -0.9155546884197918, -0.28331060736943, -0.49965905369640823, 0.05636435834850037, 0.7325493913773969, 0.4641014202540321, 0.4805375846360286, 0.6363496621502466, -0.06837806016255515, -0.30804760862845393, 0.8174703287644707, -0.5823055215025423, -0.07152519297587319, -0.42158197072366793, 0.0673746375980675, 0.9691534222978533, 0.2657836362352981, 0.5258708802311279, 0.5810931509497615, 0.5596375099369217, 0.7575232662434312, 0.9345595049194891, -0.06046286162681053, 0.21492255626865214, -0.8942945357490505, -0.669069440551004, -0.5735431705474472, 0.9595216198164475, 0.8609580189688559, 0.581215924882384, -0.4132834557507882, -0.09053094742167984, -0.02394869432368602, -0.7057712747449679, -0.2134672030235563, 1.0993946477835943, 1.1481858370677434, 0.9303026873314514, 0.13730448352887556, 1.119714257658716, -0.18937225695931809, 0.9540117456331207, 0.5501897620985787, 0.49839636720648345, 0.5774556282972102, 0.4686293765324604, 0.30368107583007425, -0.6986959550475358, -0.6365124612356063, 0.9288066300308047, -0.7617796076512331, -0.9628256780950342, -0.23241829776458306, 0.0419713203488492, -0.7604974026435568, 0.8821193364279633, 0.7293614240153689, 0.45830410803141325, -0.6133167284055391, 0.5941960477828683, 0.04694670835627694, -0.2266570281495827, -0.19331833016872046, 0.4298383854945937, 0.010499815925088569, 0.6056994233071399, -0.23979836456461337, -0.6047975385111188, 0.7821648541508043, 0.009207223494582046, 0.9538639405483165, 0.45680741251318563, 0.5511715407649472, 0.28368344794718986, 0.07501118945428537, -0.6145522892361223, -0.09380422412953208, 0.4476221714471622, -0.7492549112165491, -0.06812252778193112, -0.6973535667197877, -0.9643799674657282, -0.42613072152884074, -0.003905360606779875, -0.7885525717867087, 0.1192219577764131, 0.9946311775652047, -0.5711090966179133, 1.0775094907482599, 0.5077041536094614, -0.3330476895645932, 1.155638496232405, 0.4157584276216008, -0.6931247955654991, -0.16505403700413193, -0.45692074784094044, 0.732260529202256, 0.9864898403229008, -0.8188832246089358, 0.5343069726441846, -0.033603386280201465, -0.39431299540313985, -0.06874687480522401, -0.34567746629580526, -0.29137309948798507, 0.030611888961908182, -0.7110693182926467, 0.22009790827483955, -0.5268947037136807, -0.9107457239301281, 0.1948521965345396, -0.4690061066669125, -0.8856364468656273, -0.6710137343725984, 0.5397121885852987, -0.5160590771977506, 0.9093238211541618, -0.35949031189461433, -0.6557812970424409, 0.5386700379032112, 0.2633574610737292, 0.7519618164811478, 0.7595645263239399, 0.3008956209618547, 0.05781984268800725, -0.5391185899573956, -0.763052560925938, 0.9804953762020093, 0.4481665854072421, 0.8666561481662326, -0.41493006752188233, -0.2125278051592443, -0.13110224337051604, -0.032529688748407205, 0.6755274147844147, -0.18999023361706657, 0.6943013707967611, 0.9842255476504811, -0.6075113055833679, 0.2973903434774214, -0.03483677895785459, -0.3705662585774024, 0.41826893870119025, -0.5147856640022751, -0.2424294695594419, -0.08230184176298747, 0.574398998527077, 0.8760247409606757, 1.0541445640224334, 0.08240034978480626, 0.9111997769772059, 0.06888651451398264, -0.2024531737906137, -0.6917477759805688, 1.065781573581113, -0.8923131394148696, 0.7033693624950418, -0.7189242419759352, 0.45545565754362616, 0.42926159700331407, 0.10280079765952431, 0.3759409502200614, 0.6675511332554053, 0.15988143478890696, 0.6734024828720936, 0.692121474280866, 0.24421239880936668, -0.3924044430293111, 0.0970928195957938, 0.549234904828475, -0.40309324299044974, -0.3095861560009422, 0.046548141311960396, 0.30287872673517147, -0.7476515787152838, 1.0417782359785728, 0.23885031620483896, 1.0980174232949806, -0.627368593685827, 0.8067152530483268, -0.46164001377618324, -0.4144340713493947, -0.2031020766064123, 0.5389146927567289, 0.3748977663070847, 0.6013000506093682, 0.04790843365647358, -0.060067544414019236, 0.7827740453038434, -0.2311697019364203, -0.4517490883824447, 0.747907637065305, 0.1848118574173682, -0.6988259982724477, -0.8245155763488131, 0.5270161132756632, -0.00033506896908240324, 0.8950373648952417, -0.891702354443417, 0.05432425956898502, -0.4795652773004518, 0.43078035966801154, -0.2619062101170604, 0.1996243101447417, -0.3574248624393478, 0.46852550385516734, 1.1172922907474905, 0.8715191881590788, 0.8722607116610478, 0.15027751803482983, -0.15184448892814278, 0.9330110461395191, 0.8767997352157869, 0.9162289146059739, 0.48462559995968674, -0.27188681622089544, -0.7833177150810573, -0.28407576586454913, 0.9901303406583747, -0.6516321750572269, 0.34535158678375477, -0.9738861976293076, 0.988053838403031, 0.5294159878518029, -0.025684846947611827, -0.38122449356887045, 0.5618740225457711, -0.024985621723425593, 0.02733472476744168, 0.8200304038799134, 0.1468041633673943, -0.564950763889249, -0.24564637267544476, 0.5079934819520485, 0.03745719857108667, 0.5514668240103532, -0.2579260794672228, 1.2119433259129704, 1.1280448424211786, -0.4274937180592412, -0.3652058437764895, 0.054976471093046445, -0.8452396919119833, -0.8002486919702603, 0.4203453260251606, -0.28672577648246395, -0.12451506960439966, 0.45538621248347555, -0.7606906413865437, -0.0441881507990005, 0.23451141117737898, -0.8310166194921199, -0.4934167509330584, 0.2927465585671432, 0.5498620820629088, 1.021972106659827, 0.2636075085426858, 0.9100395237851553, -0.7870129843788407, -0.09822230340339594, 0.34072326983371737, 0.2567364995391625, -0.30690478329104626, 0.9093083378526698, 0.8516205129417295, -0.5675812687772677, 0.3531724230796734, -0.29225481285029026, 0.9277347921722099, -0.8936118446074248, 0.007393755928610151, 0.4588694725320289, 0.011064744325568475, -0.40057482431527985, 0.40662097108144046, -0.25950377914301603, 0.3718683860659743, 0.1273838497102634, -0.7617528531973917, 0.9205379913194871, -0.17723384681978008, 0.12206929496452622, -0.37980434690377846, 0.36066831489343565, -0.822804983418038, 0.4311582892980527, 0.25160116351133965, 0.7108763696272739, -0.27847667862675274, 0.13309676995728384, -0.27886899106651236, 0.08812478173645254, -0.7726206555760086, 1.050415880792533, 0.06179027033295354, -0.0815269401479336, 0.09979322801018377, -0.06007607598890971, -0.07369308775363326, -0.8968633403972477, -0.3832055553226624, -0.3239968465498557, 0.8887136184034428, 0.2618675254357237, 0.11570096124245358, -0.06858542112831333, 0.3098667252246591, 0.9143990997936288, -0.6739812851714888, -0.8570242183339821, 0.608314520158261, 0.9390323875302387, 0.941738642521582, 0.6596475566927287, 0.07176734881787855, -0.4761460414020284, 0.4397783985238764, -0.12435961609530494, 1.0443843905808243, -0.5412112741759392, 0.7142856954495609, 0.5996615867378905, -0.3173121093679157, 0.5752916662870511, -0.2985509632253458, 0.044996004402646096, 0.06701281271013877, 0.775094890022143, 0.6846138698744683, 0.276888843747613, -0.6154277420253004, 0.3608453512881109, 0.9599982598890716, 0.14070268317298334, 0.5853617257440733, -0.10593042815398657, -0.5666578529164138, 0.38652193038411253, -0.3103579967173814, -0.6705324291800396, 0.4332082686730118, 0.9078053340336175, 1.118830198231873, -0.27600558860759267, 0.8958803764277764, 0.4243195011336954, 0.8829991408175403, 0.13408996301839338, 0.8841478035219198, 0.41033660410662715, -0.7168878116862251, 0.48605522298226644, -0.2978749058915307, -0.6053385682850687, 0.14386711665591212, 0.7875298915322279, 0.8543723022676752, 0.17099094930410025, 0.904883293035721, -0.38259431515131154, 0.11444695398050522, -0.18877206030137456, 0.24877747764658464, -0.30587765441524434, 0.465449236360511, 0.07057427013111864, 0.49745230876158414, 1.0180900293543396, 1.0439082595525124, -0.6753855397521786, 0.35539301006190777, -0.105863795680959, 0.31051969296205584, -0.7906692464853615, -0.25240934463518677, 0.004589111953882977, -0.11751649402370276, 0.12448438963931584, -0.7989741709558122, 0.4470884925020023, 0.7914995831464562, 0.28871595842399966, -0.2643174001492277, 0.838214946297563, 0.8616114074174941, -0.6347299911623604, 0.5377646682106296, -0.605019705500295, 0.9902022545568663, -0.8433094904306221, -0.28262593190319263, -0.1290927352908692, 0.04601273962612273, 0.5048399148026513, 0.26648161968410156, -0.37783950947280487, 0.05470073593950146, 0.4495619350472039, 0.32017789948724346, 0.5701383784839633, -0.3914818478322341, 0.2229000620415027, 0.4443144719025065, 0.9626375343540652, 0.41764371196178535, 1.0359315489310434, -0.6384106179797217, 0.5032044821976737, 0.9328847806387324, -0.5993527734175328, -0.0860474541428669, -0.5545421197929102, -0.22857794854799687, 0.6771412499350993, 0.7968934660417002, -0.45915815890011613, -0.23615241265687992, 0.8866797253591663, 0.8358786474789396, 0.428207633902935, 0.3423979105407201, -0.6927061359217416, 0.752950616259777, -0.4826021701584172, -0.5335552551008799, -0.43931273974266766, 0.21985055820713575, 0.2520114760870992, -0.16726172952349783, 0.5250068290190107, 0.22602040958034747, -0.109420268865924, 0.6252049131922705, -0.5655892256836998, 0.028970184469518205, -0.5280388689430628, -0.7623090396357662, 0.9934831156581254, 0.8148121858292556, -0.6219827140695362, -0.226665950076615, -0.8846509321354089, -0.7604724370735374, 0.1418007608130889, 0.4482890570650313, -0.7305176219908834, 0.1401748395718084, 0.11223950240054664, 0.0686864125157268, -0.7241825121685223, 0.565766373775404, -0.4076530577332275, 0.3978660447452184, -0.6379798691185719, 1.0007336121119035, 0.011482882524893396, 0.47493203130713746, -0.2590827885963088, -0.6651561729861928, 0.8623561547478582, 0.937435677806682, -0.24295959376844614, 0.7252023571468105, -0.8542183448357167, -0.0603936649594577, -0.2161960020349902, 0.9595378540170398, -0.31908836710448, -0.7024372002046706, 0.2641412527465546, 0.5807989204334678, -0.6070243299390148, 0.5009554116906458, -0.46496777470640227, -0.9478255305175046, 0.4108625483156946, 0.658970040439089, 0.3562355719722667, 0.7440544121528303, -0.6399815444778214, -0.344111484034964, -0.41290465017452704, 0.6052417904362672, 0.0682920483734476, 0.5665515900478556, 0.6865027800469549, 0.1856477053280115, 0.12715555178055657, -0.5659764127100332, 0.7647599951567384, -0.3251559863024944, 0.3346912606325301, -0.3912268008679855, 0.5237016928829814, -0.2496687952909351, 0.670423240375828, 0.8859337625030789, -0.6374316050296781, -0.943021489306636, 0.7096464358167536, 0.13282877119382652, 0.7571926858499807, 0.5641181759242522, 0.5855127647714571, -0.09789550744512396, 0.3982851035408039, -0.9641951989748382, -0.9766915141081015, -0.8564813939581245, 0.8003109598041753, 0.2886917415292532, -0.23226902636249763, -0.457466544679218, 0.865765235628976, -0.7814944342656579, 0.06668069597809691, -0.345354520903268, 0.2175670636186522, 0.9307542885102957, 0.8593498876556168, -0.6671135301559389, 0.21080733510086885, 0.5936406858523413, 0.9388060794548057, 0.5087317160981555, 0.6770315032029708, -0.9562168265962492, -0.5085845122627326, 0.6197761104085244, -0.7869016013839776, 0.7189926079409727, -0.8862954783043573, -0.034006356665584825, -0.2817285007206688, 0.9671871375369008, -0.7964883987031738, 0.6900908712477832, -0.9768759486619282, 0.812036059530749, 0.41340536289361973, -0.3489527867069602, -0.7410671464244384, -0.3785144964315335, 0.18192046726994995, -0.4204306822497497, 0.6815980330901427, -0.6621338607877817, 0.07943585324780174, 0.9020942189395914, 0.7105305953398816, 0.14702862572291586, 0.07278595670325094, -0.2312586485358561, 0.2502887162670575, -0.25383994168466106],
      [0.3183695906153492, 0.017888720698866933, -0.9552100166349877, -0.4210621681905784, -0.6939882967531945, 0.7700755399342043, 0.8391326880444248, 0.9420809612003791, 0.996543423587589, 0.7736344714519223, 0.036872464591327425, -0.5698963300688442, -0.14489328135679286, 0.3582970495079756, 0.03516835196972002, 0.8501834655354015, -0.6441442389545693, 0.9765002344116493, 0.500368872370307, 0.4499094936167207, 0.07336405905902232, 0.8809165665250225, 0.2030026199054613, -0.518597726518859, 0.6559670713286834, 0.6168880993014612, -0.9103357573953557, 0.9265423963641379, -0.6647539751807892, -0.5740430360302979, -0.638818887387965, 0.38316647403988435, 0.6864488208108371, 0.9482502439958994, -0.05696092041369644, 0.7977708545502001, 0.9975831693774456, -0.1701578437684761, -0.35727269717877563, 0.6321127379623214, -0.7267460470813882, -0.36034947469501977, 0.4580067746899342, -0.6459861845773822, -0.20330873901768756, -0.3485001136380727, -0.22506708482877893, -0.3409923624921258, 0.5728992381473282, 0.6018976453153935, 0.18361677820141317, -0.3353838275318409, -0.25434479270455057, -0.950106136260112, 0.5020849305014536, 0.41191053027491886, -0.5133413656762502, -0.7326997796644981, 0.5606777840176828, 0.7401698096022805, -0.04458055805176042, 0.4375952028716952, 0.09288244077962797, 0.5802109272279898, 0.9293630616127185, 0.7907052903734774, 0.2042190938581791, -0.43494999032692716, 0.8224561066230074, 0.4913552742837308, 0.005969921608593083, 0.4159987663401953, 0.07083532945914053, 0.9424240532925507, -0.3851306077360132, 0.7656054400558683, 0.7666111621145489, -0.13981104444110082, 0.18224446754530652, -0.7033352942428592, 0.10026141137928382, 0.796877948123174, 0.37602101622704565, -0.8714898234094157, -0.05347966165954121, -0.25471140030482786, -0.6310115276940056, -0.2437637935110058, 0.21741808493388384, 0.7958841304324072, 0.23342401148993572, -0.5678789878843615, 0.30814676032766014, 0.3584835136394397, -0.7241364201693552, 0.5453365726132889, -0.021068773754410776, 0.8969621325314671, -0.5893652159428702, -0.33592543517066026, 0.29997976772660717, -0.2474704434983683, 0.37982293857244603, -0.2948972238307368, 0.6811519774317769, -0.18582239753878682, -0.23202576860285473, -0.9695809694951438, 0.5743214336061537, -0.5225397548508806, -0.1324608971740959, -0.03894097293327192, -0.11977467346170068, 0.7936478080644873, 0.33179077878165586, -0.9499517648410872, 0.5226631850851041, -0.5448820392263618, 0.16842922735204044, 0.4901689639333561, -0.7791332465417585, 0.6161055340375375, 0.014910888588997657, -0.8449542521767814, 0.38531707967332, 0.20600233419173783, 0.05604060078827064, 0.2564787951211498, 0.33510827294834106, 0.23231976057278073, 0.3282163594375266, 0.29623153028066657, 0.4661363940879814, 1.3389729809012774, 0.45395435675345264, 0.02053445677588481, -0.46079216245233917, -0.14027670972343292, -0.4995962443975373, 0.02258570683881362, 0.724231814864273, -0.05942771176966266, -0.7587572293171139, 0.03627349204397284, -0.38749178917599586, -0.4482173302598439, 0.4461468755227647, 0.6100913993498862, 0.2219977452043858, 0.6714657991623969, 0.5270063995627017, 0.35474400510671084, 0.022803280342264386, -0.20815114448329075, -0.16537930075300622, -0.5256983517474075, 0.6247499316994017, -0.9100136129624914, 0.5207383861263137, 0.48483470430757153, -0.42389839125080425, 0.6277118279594502, 1.1362736523450185, -0.16607433111534914, -0.029294190949648063, -0.9345543527039644, -0.9818860994037341, -0.5918570800938758, 0.7733061150643685, 0.20645977447130495, 0.8934061998627947, 0.22361816686127306, 0.1823322627402859, -0.8347366795057668, -0.21104251180536585, 0.6188286323256906, -0.5987432860461528, -1.0714676071121947, 0.5893093765321752, -1.1782113228297375, 0.19299522070881572, -0.8045922193767411, 0.7094707260193128, -1.0737165103206, 0.8868595590267273, -0.6777380734490593, 0.2177090058549617, -0.09178940027381688, -0.7057520219844179, 0.10941305249510513, 0.8214530231216284, -0.003787316487237617, 0.1140558199778912, 0.7793507423507056, 0.27613126748679856, 0.9077963961195487, -0.5870434240174514, -0.6830006060485788, 0.1674789727616143, -0.5410601238329998, -0.2692439383304899, 0.3564003722014843, 0.1285193256402378, -0.09381837102892947, 0.40777528667966223, 0.24566209204640876, -0.8487541111688638, 0.14366614317769502, 0.3337183199563301, 0.25189707154759006, -0.1629508522299054, 0.056890257700085926, -0.14555549037656992, 1.358212485647497, 0.19532915139000714, 0.522383707790553, 0.2814138297533002, -0.5636125686728702, -0.4872842844505022, -1.0188080515260185, -1.0696827517065866, 0.07142351260628166, 0.3151657094407245, -0.7908688158586215, 0.3649636861857834, -0.21407276668515018, -0.3381860335444, -0.48708166239124306, -0.5077690244620977, -0.36696551891732687, -0.17122859075634062, -0.8069512806605895, -0.612773824267212, 0.3665877280923462, -0.5932725092715784, -0.5838986210758916, -0.11610033087647581, 0.6195490473294948, 0.5804667386596233, 0.293316046649994, -0.6432323022369317, 0.14626560387660292, 0.13508252201284357, -0.11308839490356455, -0.9308071086629359, -0.13165680714198277, 0.21325112061669024, 0.38921823905827346, 0.3497913344281163, -0.13273449902589843, 0.14144280710600507, -0.18916929807332283, -0.12440709942161285, -0.6327930114697029, -0.1510635770945422, 0.5643672444732338, 0.20587096983094963, 0.7876352383199788, 0.059975461049069055, -0.4340647436476695, -0.5213922030543254, -0.5222374509388025, -0.349198030715813, 0.13416693094948157, -0.23302058028952086, -0.44242460865964794, 0.8835903592370774, 0.9830666829272643, 0.9132320333731305, 0.6050339797985868, 0.10098861794801302, -0.2639779247190086, -0.1286789726218339, -1.0996100196277507, -0.747373290141504, -0.6304138763310317, 0.886303595460256, -0.6197906312610353, -0.893981846900165, 0.4703555226343009, -0.7218950148539288, -0.2929486895310081, -0.307238561674938, 0.09533649399324212, -0.8645297059784303, -1.0188559393329102, -0.49539813567646984, -0.8956665679741583, -1.1618492012674089, 0.1432941542678584, -1.7191971713048755, -0.7642061098962363, -0.8335978785500888, 0.1699647159373804, 0.8440402995114679, 1.4467720921914695, 0.811104828895499, -0.3014614093224038, -0.05191534983086779, -0.3479019840909079, -0.3243663716916176, -0.9422447819314119, 0.0032987814355780153, 0.3331056032420221, -0.3044076473885943, 0.12700841488875145, 0.3194296471675378, 0.9360520745539413, 0.4221401605030925, 0.8352230687303909, -0.3214061800609081, 0.3623088345366303, 0.0324254706481146, 0.6630907366764541, 0.36256890840746797, -0.7127174701818245, -1.1866960973270724, -0.04109017503873571, -0.4670582064781203, -1.242504800703625, -0.5345135670600605, 0.6108835526894413, 0.6502728815966976, 0.279418240774377, 0.6072595829534094, 0.15955209697108313, -0.42756531367167444, 0.17728089398319777, -0.7045932628514042, -0.4864975272515528, -0.00686039820669101, 0.2411243441477542, 0.3635226804996294, -0.8013859760598359, 0.31104637146914793, 0.6762249086320705, -0.8793138806363402, -0.09054490952083921, -0.5120373935196235, -0.09224400320220344, -0.007659876130124349, 0.5975439759677401, 0.3401194802963231, -0.0783630955341117, -0.35263162756450867, -0.5634380840296088, 0.7084050791620209, 0.8263926634729923, 0.1452059914546876, 0.6757105472078081, 1.347475837988975, 1.0671337425144698, 0.2119003715646635, 0.15398474798511305, 0.2015159773243029, -0.2460907271121779, 0.3251938702379737, 0.1597118601344336, -0.40184865334275455, 0.7608953817574806, -0.5566423743446623, -0.017211720725799854, -0.11485492074540062, 0.9360763936675309, 0.6930597523339562, -0.6433097152082192, 0.18743900054658613, -0.576073643254635, -0.6563614832755827, -0.26106380730490863, 0.2872881369211778, 1.2295666654645556, 0.9785494259198257, 0.6442633892641824, 0.6567002080620428, 1.4503139668334621, -0.2756606640836701, -0.07205868815179532, 1.6843811704877105, -0.16651016382907857, -0.07170505725921336, 0.46855089618165124, -0.5237929715386949, 0.09006154979481591, 0.7644049723707163, 0.4564804935620043, 0.6258519784068228, -0.6055577881362988, 0.04144669691757772, 0.647430030191447, 0.4724522943177691, 0.9680728657167774, 0.6810042138924811, 0.022566454098722113, 0.3332709593255156, 0.6129762019058169, 0.45413371334858343, -0.06739817615142242, 0.6890069589225203, -0.23246112366865446, 1.3831948409128423, 0.8219326109637591, 1.9001281419153968, 0.026879445488613058, 0.7454832529925921, 0.5252636820207712, -0.27607792669384734, 0.13894199884222366, 0.3173178533752633, 0.22298946213395882, 1.2238867258825727, 0.8174020673599767, 0.6031835257411563, 1.1504071056571499, -0.12585152636568478, -0.21082914281563575, 0.181284193142848, 0.8919358227177847, 0.05237218663785715, 0.13206278615885297, 0.9481924089595691, -0.15714331061654277, 0.9053172452162476, -0.1416967999906407, 0.6331252448437976, -0.08889703464058347, 1.2898150862014273, 0.3180789745543502, 1.4522336872876507, 1.1362451738128445, 0.5197689657327342, 1.3972962875508954, -0.2909317675635053, -0.12176398290631094, -0.2012971137098174, 0.14457666927791113, -0.7069561648400743, -0.1511996611773904, 0.21112627784237256, 1.1772796173339157, 0.5774902079667921, 1.7202315244338988, 0.9822648240221153, -0.17354574681159476, 0.25540759311633005, 0.9011654738070151, 0.2487386138581255, 0.07436623806885195, 0.02419959047417578, -0.28020626826559664, 0.11562149344862836, 0.8680750045800553, -0.5634994834441266, 1.0419459598068803, 0.2677115059288763, 1.9657191059911678, 1.648707946985504, 1.3810120525267018, 0.9691894599599837, -0.5909267755454632, -1.5832076409532334, -0.21146085632485395, -0.762698240290565, -0.26527083721253986, 0.6139424468474785, 0.33517339456866874, 1.5667994097712938, 0.3942484419594943, 1.1686628015782752, 0.3612110563946255, 1.3854975944917558, 1.1604826181243633, 1.0275055962248472, -0.4997633592938222, -0.17013219213659495, -0.6401560011180772, -0.32450585655235153, 0.15540078763320828, 0.3928107302178636, -0.9315686665646585, 0.7571055899163345, 0.9038466263774401, 0.36864850698798296, 0.5679998771743848, 0.4976643401923883, 0.4036211278517032, -1.0708224404312723, -0.5066292223583447, -1.4553354217800927, -0.25201121468705323, 0.933561587850177, -0.4390001231425165, 0.6444338753578813, 0.7784829436642241, 0.8822942407041925, 0.03822108350408626, -0.09483275481199213, 0.8848033953665111, -0.10837995473353794, 1.0384298207099414, 0.7423225813285685, 0.3006883729487897, -0.9780796539108519, -0.642134150843194, 0.35388917221117167, 0.8499586680896998, -0.5601765326944079, -0.8520016475187255, 0.815477363830312, 0.6797660269253222, 0.769235642973482, 1.5719161273457494, -0.4287305181469921, 0.1626386885404162, -0.367085370641777, -1.1981462059952195, -0.31707338677103414, -0.5631049862957537, -0.1690098353897593, 0.2016728256618322, 0.06019222869126124, -0.4028534798205274, -0.042229683901039504, 0.6138029033954243, 1.3483452474736783, 1.1192523067215294, 1.0693984512034522, -0.07273622802349929, 0.601853286472596, 0.9575151169612812, 0.30227611606776406, -0.24571816114393452, -0.6651574814998774, 0.09064636339457181, 0.22343131395156304, 0.5753796391328709, -0.26359488085495936, 0.5753765581210297, -0.05401873734814845, 0.22972994968995963, -0.6018501710925601, -0.6605871813515123, -0.800115251416219, 0.3172547707139808, -0.011918395844747378, 0.5530008101428632, -0.03397529451631616, -0.17440435809075264, 0.5460239393753953, -0.28595907327581127, -0.27115366395412593, -0.0031500626887124065, 0.29688127448090684, -0.5809704476493738, -0.054598894373827665, 0.019421646012814462, 0.7644987171786282, 0.2740528018160244, -0.16877303878767808, -0.5655254512974539, 0.18189102854000527, 0.873991232275798, 0.28449891320922105, 0.8665921762583196, 0.9815827342514225, -0.6553695520950551, 0.9727520475908094, 0.831603708347722, -0.19646728437122482, 0.4230437340667954, -0.5984545190783521, -0.27299288017748086, -0.9212944368835088, -0.290146122040762, 0.25364933030688425, -0.8999971800007781, -0.001112144194325013, 0.4789698954914388, 0.11201465380315614, 0.4543950333207331, 1.2734931832565741, 1.246205504919879, -0.5441699300341353, 0.4540520694390679, 0.5599235825107928, -0.16558879128309367, 0.04578245375197211, 0.06743412957114214, -0.6018666153140344, -0.6623475862592656, 0.8078372002129649, -0.02942048490296923, 0.4973557071085433, 1.243552518238555, -0.5228694133310203, 0.728698164685494, -0.015712640719212, 0.4550154265951084, -0.13104936862069813, 0.746021770029586, -0.5471160116701653, -0.3745436628185947, 0.3386435804367172, -0.5402577946856727, -0.27691667513292234, 0.3908103311001851, -0.6376560066511722, -0.46501503148694456, -0.1532934130009771, 0.32916825229720464, 0.08826608958060536, 0.6730255012816452, -0.6935360966149022, 0.3065785275932354, 0.287328958643773, 0.5545219994743623, -0.6363796667438042, 0.010949702830472311, 0.8824638999569474, -0.3822494846400601, 1.1011779516546227, 0.09794406558011783, 0.11722785312512723, 0.6024604469097693, 0.6902429395660618, -0.28817611427816847, -0.3444127472382812, 0.10387688474242208, -0.2036692185355156, -1.6598811262396962, -0.00608464129679769, -0.030020931352545563, -0.5291420171123915, 0.3981012506260351, 0.16196209241671095, -0.39083095043194205, 0.38862879965066366, 0.3007092862228294, -0.854252525816252, 0.6546380296101311, 0.8563010012537879, 0.39966892984246083, 0.3439918904009081, 0.1678554268753383, -0.8138460983999747, -0.00002002706841519597, -0.22174890055544721, -0.8312426803611571, -0.2839230095383528, -0.5705984445677207, 0.7898541644729845, 0.7065912574039911, -0.5787367219568059, 0.4324513841087211, -0.7539746368227606, -1.2302629852716427, -1.1090235775702473, -0.3434189312197624, -0.1964545600570076, 0.309073013013916, -0.8791991479316027, -0.47132005532166876, -0.8699862800515864, -0.8849010629244228, -0.8780398726373345, 0.433089317290943, -0.49593490872907353, -0.723366213127855, -0.6368367525735146, 0.017612354108956355, -0.1799109656912472, -0.030409436318116434, 0.49814207872916727, -0.7004989084722797, 0.2990245729758801, -0.6136425630112962, 0.8312253712543894, 0.33461635003497686, -0.019199975344857127, 0.8118983366293963, -0.13552279565205275, -0.3189896060034218, 0.04299629079419787, 0.1865685985216854, 0.0994329730982773, -0.7392947136976611, -0.8704235447221833, -0.453482526378137, -0.015852759391259994, -0.23640744206946387, 0.7071684045770862, -0.4708371994287085, -0.25970211100543644, -0.47855610256116937, -0.32640410706586076, -0.9704364791720224, -0.6200904719228647, -0.20351226247463047, 0.006336448328961857, -0.45765284756104174, -0.7538650985800945, 0.6820992310961591, -0.5393944635872415, 0.2171073404534977, -0.5032767260436748, 0.27658811057806354, -0.8321135758466545, 0.45347778405981526, -0.5983109280190019, -0.32478531319167425, -0.5542115969575729, 1.0655897396496827, -0.21349384854584114, 0.7748251553464434, 0.37751185995569264, 0.6211332972368058, -0.8004054338732778, -0.4078220215907822, -0.7345219734404443, -0.9330001579499184, 0.5168627969365649, 0.6495216730253331, 0.5584422604699106, 0.709520801207537, -0.49564020340856585, 0.6258681456211935, 0.77923895943871, 0.4144352975634251, -0.32663784450253974, -0.6363724394046093, -0.04158010780494825, 0.498518448859876, -0.29451765151737735, -0.3001495863362188, -0.20682248278511886, -0.7650822691947154, 0.9514274056519633, 0.10308751849943902, 0.1291886268050264, -0.37865169145966926, -0.3785903614810364, -0.31553427185507127, 0.20414447988889814, -0.4462052929130896, 0.6076490469065389, -0.8841295045839821, 0.9416239822548519, 0.047687690093500414, -0.6996591183116254, 0.11980006109802621, 0.6162596847798397, 0.19076793972305714, 0.7968646471307077, -0.39082820287547004, 0.6077219774056251, 0.8739821192617017, 0.4487229678555673, -0.8679847014520763, -0.432397792163699, -0.3015843919520358, -0.5444451187565644, -0.6050388290415455, 0.05479587517897289, 0.9167985168983308, 0.32854903718844475, 0.19779260290909365, -0.6130783692747953, -0.9665416429385271, 0.8736386482344377, 0.2912994008569445, -0.9179444097565748, -0.749343720512136, -0.6605128288144625, 0.8706294417426781, -0.4990109350481236, 0.8288170041950421, 0.9524949238419004, 0.18494004617921073, 0.20522636830733562, -0.17243681982376924, 0.7729610640765423, -0.06936287080317838, -0.10308525378690137, 0.6934097139711959],
      [-0.18222546598340283, -0.7202346045268788, -0.5964616602700596, 0.8158800832188793, -0.21566189659075974, -0.7109736611102124, 0.2250113264601281, -0.24731018101324764, -0.05692402943065433, -0.49925710863096784, -0.08332947842380989, 0.14130991279841387, 0.3340376779550171, -0.6586854053361864, -0.15183106300280227, 0.9104560751464569, 0.7039633545409978, 0.9135536938359721, -0.5409694037001578, 0.8932280117163427, 0.5688033224388449, -0.1703406665613909, -0.5036409759569027, 0.2813228917991806, 0.11025883910569734, -0.48042069048375735, 0.7380491109255347, -0.9442136686412463, 0.5122078236617789, -0.6038962543612754, 0.4123740799026341, -0.338982387828731, -0.8802128601282819, 0.09435426240956571, 0.31717191209285683, -0.2300255386406804, 0.8742468411420692, 0.08236589280526035, -0.5563708200773438, -0.280359590994075, 0.47468559140256933, 0.27874455540152415, -0.16156859456630165, 0.5546638923327043, 0.05161384568814545, 0.7428640588324247, -0.7229549943137911, 0.7098817562611333, 0.8384300536130898, -0.08055854430216335, 0.6263294592829214, 0.5388912667608359, 0.4470466921911944, -0.34528631643858576, -0.3756044447377147, 0.08314956899401249, 0.023757153901317718, -0.5737009662627623, 0.42005085507262674, 0.08916969570443295, 0.3728167276419129, 0.8327430062838487, -0.47417962303221456, 0.5306700754414542, -0.9927890988673017, 0.4506434190991777, 0.383474724796841, -0.1815181478594375, 0.3924933422340575, 0.23892381137780525, -0.8497141470428898, -0.41859678439648235, -0.741544161035516, -0.9173729257161414, 0.11876974481385934, 0.9640813232781977, -0.8798548840688322, -0.07772234771205118, 0.2684462254335383, 0.9482231584706929, -0.2965343824697094, 0.45177813715667126, -0.7867332175155037, 0.7129145751470438, 0.2564510981738928, -0.9171314816897165, -0.1275763735082997, -0.6785184042980285, 0.03753254818656559, -0.7175124408601153, -0.9339846904288711, 0.6937789060551103, 0.7623408641430137, -0.5446230277005102, -0.0787416491823646, -0.6767311686283615, -0.32563184086337765, -0.676098081947276, -0.13652540229614935, -0.0299982032025846, -0.3786643833601198, 0.0914978065281078, 0.7454143842392232, -0.5360714196087881, -0.6611265123545359, 0.9021893371521695, -0.17545568467417022, -0.9520576087058011, -0.10575774696015927, 0.9668697215816958, -0.6320612111736448, -0.3402404554219176, 0.4581574118376839, -0.7327042214098489, 0.916803879147971, 0.2587806409012704, -0.7094500876484283, 0.28939273910559055, -0.8028398306756592, 0.0998562000175736, 0.7939008522139527, -0.00861959197597538, 0.05094173985618657, 0.347009372651686, -0.09319846298170938, -1.10226397621059, 0.14002452246828065, -0.24712928728702088, -0.7164562444532759, -0.6826869881894462, -1.2756148957649518, 0.3624165665193974, -0.08682568703929856, 0.27715201937937517, 0.3720237539582457, -0.3274091694980944, -0.8411745309489368, 0.6462846285013412, -0.21057685289191572, -0.37487609790942944, 0.4456102412846814, 0.96634208907812, -0.837204497880422, -0.09170269394961363, -0.8005752990491923, -0.4492547126452701, -0.9824544018351806, -0.6315945002351557, -0.28581231338791124, 0.12041449903491688, -0.9654657313164078, -0.8832259708615983, -1.1326636663944805, -1.508995924463024, -0.3610110115859888, -1.7601881110079192, -0.571257143918712, -0.7001932514094009, -0.5618397184552346, -0.864320761155575, 0.020932819829945992, -0.8195142767430962, -0.8749085384388865, -0.928235355323808, -0.23796606189090186, 0.3803093642780601, -0.41528062548177647, -0.4036181259760359, 0.7766751326141703, 0.18144729167935458, -0.049509933574048356, 0.5967703527988465, 0.4301725777503741, 0.20440656014851705, 0.7606694574533643, -0.13151169048045944, 0.4253024733514535, -0.34623400952469086, 0.3194960399529052, 0.2602072366444969, -0.28084526223009104, -0.38005976501319827, -0.731167021969633, -0.08522572853402888, -0.002787734965517001, -0.40319183585757795, -0.35372165960829455, -0.08795460666261623, -0.6914758329555082, -0.28248996548046246, -0.10452609475842153, -0.543154522582095, 0.8789921862505045, -0.29924299806577853, 0.492492953090788, -0.5382123970135518, -0.38681097194784897, -0.6116806337987198, 0.9562984384453378, 0.8785284931628977, 1.204041179945292, -0.18223239250375556, 1.4481283557179054, 0.16576578959906374, 1.5220916444834798, 0.1189916432927969, 1.2201942271162802, 0.18935290016809087, 0.9799381237951205, -0.649496353971978, -0.8372242005918303, -0.35864700354540946, -0.7134821480187379, -0.8073611406201138, 0.4849798780387886, 0.48963582721601967, 0.23188296608401493, 0.3609052726552389, -0.21517434207230812, 0.1354279304086732, -0.9379867146286519, -0.35227357166882417, -0.30754996256338274, 0.5232601833287817, 0.752815563641772, -0.906145081118717, -0.6227968224433654, 0.09040722186790555, -0.32552833413275595, -0.2202088346416791, 1.120724385213156, 1.6122057396616347, 1.1711230244151831, 0.11501355945504052, 1.0312295638414357, 0.3342166306393679, 0.36875770016765014, 0.32908777490798313, -0.38315661205741286, -1.0217932752296617, 0.4463059218246614, -0.3021125644997283, 1.1451997463106378, 0.487717359167448, 0.22564269623149408, -0.12181630392858081, 0.24747518630876467, -0.5377508907487027, 0.6450409151270472, 0.38724001057673163, -0.1040905622680654, -0.6128336270712855, 0.4832342394775505, -0.8660257632268377, 0.37214961799375185, -0.04749737536719589, 1.1718798933731451, 0.2786394099228706, 0.5848402443297817, 1.0580664963841873, -0.130381259932525, 0.6548884540171719, -0.17365635605212093, 0.7963191832763701, 0.46266291967364853, 0.013417162277711083, 1.1187541263226142, 0.2620581217696061, 1.184667672295406, 0.48747205695206086, 1.4244180713406291, 0.5987691437188124, 0.07095962684646709, 0.45738740726631066, -0.07460370941474471, 0.146150745348634, 0.26687281621969483, -0.4174783172090226, -0.27886304067417694, 0.5705747782107112, -0.8247701504696009, -0.45702053455455, 0.12261211010285747, 1.1146014161881173, 1.272739010181316, 0.6000702307815607, 0.09219898620205334, 0.08191422844190699, -0.9973685114180967, 0.19367308243042564, 0.2121938839448442, 0.4569608428761179, -0.08715975529168271, 0.7332080266699871, -0.2848259820324171, 1.1564806800922869, 1.8456176651326486, 1.1226027927446856, 0.025145641443111946, 0.8200432985033052, 0.10052703912015425, 0.8438487720766953, 0.7560743924775305, -0.525785931066887, -1.097236377681466, 0.07479634942063197, 0.31870955716779736, -0.9303297855472067, 0.8288811848765839, -0.5761964427629493, 0.43364535654963704, -0.0411317880396618, 1.1460291610895805, -1.1228238556119308, -1.181575546767768, 0.2673179257603073, -0.7773796201612945, 0.10222958770225689, -0.8543274206691621, -0.8579685484403214, -0.2305057794710709, -0.36865796259631617, 0.5567113761926991, 1.1527502383207051, 0.790653799451386, 0.2616887387027241, 1.0880794277728576, 0.45164851685521096, 0.21401599476076183, 0.10948311182611556, 0.6037325141271312, -0.802047793312727, 0.685443106420187, 0.3703214874299387, 0.04965584409421722, -0.8012466919928651, 0.9182614499853857, 0.9615494508313563, 1.2159894087170326, -0.5042281886131766, -0.6944465658693643, -0.08195050667812005, -0.8534299723902242, -0.4110828489533641, -0.30601937483599534, -0.29882596157105273, -0.23401341259377137, 0.12635383619513404, -1.8757208417693527, -1.8842791386241677, -0.9525017836718732, 0.17161666805209588, 0.07423357170118688, 0.1615311287614084, -0.4981769094036904, -0.3450762412127246, -0.6156241347316984, -0.16986194521162756, -0.19895073298585703, 0.5475321867916305, -0.6632329908773524, 0.538321268416779, 0.34641902338116354, 0.9191500484114189, 0.709473907432877, -0.6776876820028749, 0.14517182911352328, 0.9439975590075402, 0.6015497111732011, -0.8896329392886153, 0.38571503610403474, -0.392717110210953, -0.42728298990636493, -1.1951975171217484, -0.3694344130873491, -1.1683320749638777, -2.4538935486994626, -2.6646009768930297, -1.7712921594366207, -0.6186935376540569, 0.7126788440719957, 0.3309936748167996, -0.4784695398085312, -0.04586206910728917, 0.37094354301372323, -0.6050529638115599, 0.6810181334400103, -0.22745796402878746, -0.26811015601399557, 0.17925830856144379, 0.37971246774764555, -0.6696356756673792, 0.1717608180249415, 0.7657789368251091, 1.0446815683367745, -0.3401943090688134, -0.05446991188567503, -0.683177631303005, -1.1656661875583783, 0.5453813323260874, -1.482507202155682, -1.8291196466717161, -0.4857509872904692, -1.2678650624593408, -2.092008861133198, -1.5356483990591678, -0.37399102111257976, 0.7962035551152166, -0.7979843991126668, 0.5554480857031064, 0.02868868455286095, 1.008161409946716, 1.4735685501723166, 0.8798047786908181, 0.40379856268455167, 1.004135007432867, -0.284005953284321, 0.405139013881383, -0.5378531748628168, 0.8520320489919372, -0.3691800593826217, -0.6416723159161842, 0.2679525773172555, -0.4756409732950848, -0.32029115763602495, -0.18597231138426296, -0.7980604387529032, -1.372776344223274, -0.6840491817222056, -0.8967944743518801, -2.208719565703192, -1.9429712457914081, -1.7949454097995996, -0.8356305895756875, -0.38932011129865063, 0.006149177442208841, -0.5355297521416701, 0.6893101024805913, 1.8416378037322385, 1.0590018298610915, 1.2225148503260892, 0.8651086923814552, 1.613124191002855, -0.012691521975109516, 0.3399759136778821, 0.1819075852293667, -0.3758118836812846, 0.8535685689145134, 0.18385436838324384, 0.3379556264695782, 0.9636996672724611, -0.8302657006366772, -0.6081941799917362, -0.7699071713780229, -0.7253406330740864, -1.0081137498431325, -1.411565877524692, -0.9737044514824229, -0.9349900928878913, -1.1848805909595759, -1.1187658469735184, -0.4066122022928313, -0.5303356112806688, 0.24009593060554815, 0.006544156929013047, -0.018067648996107737, 1.2593069860792288, 0.2721814103181104, 0.48448587350097994, 1.561281885818818, -0.13653637142777827, -0.42625832423777077, -0.17855065119324717, 0.09577699660566147, -0.4831046333700031, 0.01724920247420883, -0.28471861193100834, 0.6194517483591484, -0.040275905958739595, -0.8459454134810372, 0.31219807838088404, -0.7306440671919682, -0.047126223332997645, -0.2519042930639326, -1.281438800066146, -1.0699093173041594, -1.0071547255399058, -1.9596677327417333, -0.18829305680524286, -0.5658982091773967, 0.6325780088300703, 0.18778087500455673, -0.02759599560633493, 0.18376320054828563, 1.0101309764276183, 1.3846569289483448, 0.578826819154821, -0.4237566712662617, -0.0003358438473744665, -0.35358597175172496, -0.4118630433823202, 0.6077013514352885, -0.6851163306925501, -0.3182805114892454, 0.23393498431204152, 0.0883601578645147, 0.22083390771347855, -0.6918466482392073, -0.8148652300693666, -0.11412646132775496, -0.09224168486339847, -1.5879332974333837, -0.8632850524866427, -0.24900237280992357, -0.6686661423825572, 0.0704681119360909, 0.24551652113013034, 0.023636724871108458, 0.18343947094741056, 0.21141542177536823, -0.15174075837216178, -0.521947321968573, -0.27350834626262116, 0.5207823600365754, -0.9952769609138351, -0.1325499648111856, -0.8585587324941922, -0.03795362017039859, 0.4571923124973996, -0.6429933944796703, 0.887924384697718, -0.022701994753873925, -0.32705013170827396, -0.1036592063158332, 0.6115041495774234, -0.4415999441700137, -0.6447915055655843, -0.5454902068361169, -0.2919652324551814, -0.8819579319252269, -0.8734980813412405, -0.9904530495916137, -0.8076913581096598, -0.9125523708762872, 0.4285231774795457, 0.537797724905271, -0.6216286308119479, -0.46869527749644885, -0.22543479585153328, -1.4580823125287292, -1.4199670588084776, -1.0044397711023352, -1.3271814175750942, -1.1090158556274732, -0.8997479363233609, -0.08496519066466394, 0.5600184099110866, 0.3216931515028171, -0.026408042324347725, -0.6236141475907461, -0.55916103887684, 0.49770982812359155, -0.1057690894133524, -0.6905639884382028, -0.2032203433073057, 0.1275557630373446, -1.0427440503673515, -1.9018422402979227, -1.5640897737482817, -1.0168744969322288, -0.49363662971067707, 0.12251568288913396, 0.5862477357574097, 0.277163614737177, -0.18974434735302412, -0.4016219603912667, -0.14278636058900995, -0.42692912985006787, -1.0050159908824265, -1.2805234967351606, -0.8912038433843504, -1.225482718067115, -0.20299780604330867, 0.08611724292631506, 0.02899410962428308, 0.07656893554146703, 0.31910854303614306, -0.25119999344947785, -0.561992115487311, 0.9202136821389705, 0.6337346812891985, 0.3606399240577882, -0.3094252845214742, -1.3993923800633652, -0.08304007434715625, -0.13488321421665347, -0.4601705380459779, 0.6807866955318174, -0.4691423267791656, -0.5422241638184105, 0.667927340663111, -0.7659140546785324, -0.2152262778119257, -0.6887832554931611, -0.8964122636597411, -0.02155105544716087, -1.5069384258923686, -1.3095141423576169, -1.1841838782696574, -1.0337870936609663, -0.43106002853009534, 0.4104732552557552, 0.43195627950666715, -0.38986190316011915, -0.6560001839369811, 0.05956380786975557, 0.9461771985730486, -0.376372412926103, -0.9314065835155931, 0.18832940955529381, -0.7306504442188732, 0.08698042759256196, -0.6236498969883871, -0.708935618651534, -0.7615093371279124, 0.3654546484152017, -0.02049238215892656, -0.6144815575341082, -0.6918593141879331, 0.6732827539414241, -0.326288613684607, 0.6818927250459517, -1.0961911010895544, -1.1679403271184987, -1.0651070599221644, -1.5046277426666088, -1.642109187282262, -0.7590983324667061, -1.5251472091450706, -0.8325662337633016, 0.46618486516866325, 0.21522238264187862, -0.21657642353321696, -0.14663084695824474, -0.6696543366567949, -0.5218528493943482, 0.9166187829770364, -0.631049682406412, 0.44004564740540275, 0.4016609678481647, -0.4967893704716809, 0.05083963696443206, 0.13680320441742297, 0.06388040121923941, -0.5192928470122773, -0.7824005523601204, -0.6382748421033875, -0.7142998258040465, 0.718528562429382, 0.479689750688555, 0.10558658574291864, 0.12413806625239647, -0.8003778785404814, -0.7381306045119911, -0.47268012730344827, -0.2291589323123531, 0.2591659117326228, -0.2654549313219658, 0.09228084839243905, -0.0588419399410471, 0.6185473039200854, -0.10543873050272756, 0.504239108944895, 0.929930053956995, 0.6502634794689685, 0.7306145647484538, -0.027988560049149715, 0.08437027136031046, -0.020725741560870228, 0.5077526024521526, 0.613252494248014, 0.10706754224805795, 0.060704522230866476, 0.1475656448665196, -0.20048960998822968, 0.6976256360801939, -0.17128837664643926, 0.8896683055612861, 0.03364784307836578, -0.5970909526157152, -0.05127257404947753, -0.876521041147621, 0.008735176001852354, -0.8064850032517806, -0.1505252394194648, -0.44592845132270553, 0.3122284632270137, 0.1393346233049672, -0.9285605859503828, 0.3134600705154664, -0.4332197531735398, -0.9949973489049988, -0.25939468052078923, 0.5516831683048391, -0.5909953876347764, 0.32605987338216674, -0.26508509958588744, 0.15162435624540674, -0.012226717229239695, -0.43484122556077126, 0.2873119920047151, 0.7212279722111155, 0.90592282785651, 0.5858616193531645, 0.009280656793640341, 1.1219227099358844, 0.2546591932787057, -0.5521344995333339, 0.5858127871447625, 0.07086758146060111, -0.08816586753969502, -0.4799307146340999, -0.8907558943252598, -1.0516703257370208, -0.10058170633658588, -0.0810902792994152, 0.9382417171277632, 0.5466093460907286, 0.8390720813862562, 0.3424874314777746, 0.15333814600124818, 0.3071261975277485, -0.5270054333427261, -0.6533747411776983, 1.0000809122689314, 0.06925693492477851, 0.0026968907725286747, 0.5480236179296458, -0.3139951728279446, 0.513375705242757, -0.509344177192698, 0.30298780948055926, 1.1303697220106212, -0.5003016635992202, 0.9862342236345428, 1.155609278229654, -0.3167233585409653, -0.12453111956804908, 0.4922372871499205, 0.3393312950816869, 0.8674406405850881, 1.0032016213286659, 0.9723032917274682, 0.7349643995751315, -0.8872079648692979, 0.645641414502808, -0.7376413055912785, -0.5185428129551686, 0.017455599747840722, -0.40408470190607115, -0.925771495213144, -0.3430153967885227, 0.7442541172038323, 0.3271315199738151, 0.5635379935972359, -0.5477102964064532, -0.341184149674413, 0.3274599872106876, -0.06913569202321433, 0.48094601084146266, -0.22489826837171326, 1.0133175368712646, -0.9398871588006613, 0.8846433324483592, 1.1638541547691188, 0.4641475124099023, -0.6215277626166993, 0.28686294981698224, 0.62580352564081, 0.5165096070996814, -0.2764103187871836, 0.7002549790359733, 0.023002860612217013, 0.5755447998980068],
      [-0.38207197005040916, -0.5994457089582008, -0.022080377906158688, 0.9977081530103149, 0.39991540969163, -0.595117452456003, -0.8381324894001736, 0.8629715596452434, -0.575018789492717, -0.5714491421327614, -0.3814639541556968, -0.49879354535839315, -0.17678081487330646, -0.524443613497884, -0.28671564458086773, -0.11667813555593828, -0.46456552891452674, -0.601305694811209, 0.7138259271925209, -0.3086930349340782, 0.4455195096447855, 0.11694152698013482, 0.23783727153228762, -0.9672880064684679, 0.811935783124806, -0.8250066718507747, -0.593150636217572, -0.7254889201090489, -0.7552418280237094, 0.11896840092552896, -0.2133960669384889, 0.7924208148622025, -0.6461891707454744, 0.865359003633441, -0.5901447445373753, -0.7197492641828308, -0.4768607023628345, 0.8270056394888663, -0.35685251593903194, 0.6039391698953076, 0.33565694731357615, -0.011332768295259315, -0.015394290948161877, 0.7419010412696565, -0.33925271636936766, -0.20583680401851095, 0.9350932467972684, 0.9374305948017932, 0.7196089932278129, 0.9536834151878355, -0.8532237642237812, -0.4287331263321452, -0.32889130654087806, -0.45959753187716057, -0.4854299312038508, 0.7411165434122924, -0.35494964766283177, 0.3557728752226934, 0.06441478927619038, 0.4767344098501325, 0.16571131702782685, 0.8077949607956532, 0.816221248994551, 0.8912850193243147, -0.8173979425271617, -0.4005170757522067, 0.7022735948774577, 1.0062780350702074, 0.06788049326988664, 0.6631484033813134, -0.7139523519201373, -0.12676975867281845, 0.8109457223807661, -0.25364718802998365, 0.9023918281476007, -0.6283887370249732, 0.8692401157979014, 0.785298152926037, 0.5375838857243523, -0.4272484471434591, 0.2084247427089819, -0.3909502298998961, -0.46012698063564894, 0.6853285154879778, 0.7793771156149987, 0.6791842498355884, -0.31575413613333464, 0.44825121330665174, 0.9864669200249808, 0.008390732089899995, -0.3276361881244205, -0.9626531240586551, 0.0033898306071331787, -0.04085399980809575, 0.5723753686805911, -0.3719903359237296, -0.20104802147575684, -0.37016463044560693, 0.07982107305373169, 1.0936214858590831, -0.3491599596436888, 0.8850618711533269, 0.4403165425435572, -0.2739996019650836, 0.2528004813083605, -0.32099674271097306, -0.29835974437677654, 0.3912087190416468, -0.2977404834989837, 0.09613327385512573, 0.15355682007690427, -0.09909541254751586, -0.17525968743136122, -0.871958232639126, -0.37426664193310544, -0.0031271833187098384, 0.619759412376882, -0.5665746035575592, 0.07039383047539582, -0.5190129834282822, -0.7190149533870971, 0.8315032932738062, 0.6165165488880967, -0.7972194160759343, 0.44418720155919517, 0.25838574681363174, -0.32066553171594675, 0.37494623467232, 0.5239838624603449, -0.077782370627279, 0.21176762991161185, -0.40590868385093865, -1.0388195860162657, 0.2635152839645241, 0.11292394557167867, -0.5389841624016497, -0.08243583497218944, 0.8075760070371744, -0.1828722784907348, 0.8961009853415008, -0.9563630809785519, 0.08274328024793531, 0.39120804841864854, -0.7541331992986592, -0.41582343148064815, -0.5083696373584436, 0.7548153892701174, 0.6928115688097277, -0.2846936565201405, 1.2968812541106531, -0.05118703266579491, 0.33412698385991474, -1.0431439582799606, -0.640511498873881, -0.29039867985125856, -0.029491902213412895, -0.2530362696452154, 1.2577228645090754, 0.04789506879052934, 0.6374652957104481, 0.6697574606689476, 0.29812670817569453, -0.4576756589919967, 0.30046166068645747, 0.4911783347754539, 0.048062903827644624, -0.7935083638191994, -0.42114471865251424, -0.8945542318565445, 0.03218036752439422, 0.020046665642669853, 0.785888319185746, 0.5979527645455952, 0.9881087479730714, -0.5069746867456916, -0.3855381081641425, 1.1721419829859898, 0.5559262886983333, -0.2404302711150288, -0.5653433796016215, 0.15891675626839066, 0.10930783046599898, 0.07630120616103872, 0.038076020598462254, 0.43435459619120087, 0.2444974828023044, 0.2926157289047786, 0.575293497111924, -0.7412076964484807, -0.8963513453379416, 0.5036096788483846, 0.02693681117076447, -0.6625685793678303, -0.4542681059722852, 0.6616637408573591, 0.7553181028478536, -0.6931705288794485, -0.315445124363858, -0.0028564514998816637, -0.07189378569175514, -0.34009642731274453, -0.08695587017631398, -0.3536562548450716, 0.35919368063765955, 0.8026133494568902, 1.0392249412770096, -0.03527250921228002, -0.8459335336560975, -0.8974958565964676, 0.2820423555737698, 0.4506422090470704, 0.9544991570759178, 0.45270653850767884, 0.8210386149414026, 0.4549492034326449, -0.34667758181239594, -0.23304804098953794, 0.30779719333717676, -0.5990430790663034, 0.7933016490466865, 1.005118950653271, 0.3848419919345663, 0.4187821990089737, -0.850380465018981, 0.9107418261534583, -0.6047702360354403, 0.32671509842118845, 0.8656448605203251, -0.91142976552355, -0.11415475429670964, 1.211792067896331, -0.24742532544317805, 0.8007158235508335, -0.3375530874417477, 1.143665935355256, 0.03853428050402637, 0.5219088447721204, -0.3783069301132914, -0.6038827049593314, 0.27887694708330707, -0.020786289947933224, 0.0015307515477679635, -0.4305863063356422, -0.3847437314437756, 0.9592800175300618, 0.08502145485860092, -0.053865011571563114, 0.1361706708277026, -0.4540184747272133, 0.41128283581147634, 0.07202321982517301, -0.1651493487617303, 0.2055288682085784, -0.33101723363506946, -0.9726989675890554, 0.004668682645094836, -0.6323145502614963, 0.13133764459321748, 0.9211514523684692, 1.0289754168413958, 0.44602746425950235, 0.8038314241983074, 0.5608694188725343, -0.12657252299337932, 0.8580449040793624, -0.43186748453303536, -0.10011473532126663, -0.9976029312845118, -0.06271981162349984, -0.2857717722852514, 1.0337103551390874, -0.3892203116228822, 0.11898018913451103, 1.0650294368519158, 1.17183955894983, 0.6179850141183733, -0.37502266124247613, 1.04881885154927, 0.8053151769699542, 0.6438524583553409, 0.35249251463172315, -0.42134583057869457, 0.13433822169102216, -0.3449056691390391, -0.23255518943025413, 0.20530835046522805, -0.6716455005084504, -0.10879572910805682, 0.8677566084380367, 1.0116683667178943, 1.3295377242552044, 1.4256978010355466, -0.03066101716595652, 0.5406425112196235, -0.4142565711937456, -1.6571000466066927, -0.4440532371758, -0.39360313917166134, 0.8322538373729542, 0.7620071325915311, 0.9759269382898439, 1.271095021051249, 1.0917386885568414, -0.5287795039889172, -0.6830824371646698, -0.12664198167706314, -0.5310030795429935, -0.7109323098262541, -0.16135036648063544, -0.8045646114383436, -0.7252316719855063, 0.9775264876835673, -0.08788011672857093, 0.3656879467981, 0.8960574801954575, 0.8517583399496762, 1.154173571023542, 0.9215578880637328, 0.05575576900393935, 0.5034468432227535, 1.0731514987574076, 0.8401870648712831, -1.085279443240938, -1.8410760460997564, -0.7181518700941926, 1.0497176721609502, 0.36935702840689894, -0.14842513733808113, 1.267070933678915, 0.0019927440856344065, -0.24844460685026665, 0.6877641236031554, -0.3120241064566949, 0.29913422465596884, 0.399405889359214, 0.9241187845898834, -0.4978649595965528, -0.16511937714271488, 0.17468252557141442, -0.9760982207222847, 0.25570739364576833, -0.4808866108756954, -0.4257079090175649, -0.3829367798565732, -0.193514711826494, -0.26155454167745573, 1.1406556553381915, 1.9816206109889651, 0.8196541947447747, -0.34024579359781626, -0.10191821895286916, -0.21925288051169528, -0.5229397392118001, 0.617451853614639, 0.312341359461605, 0.6985433504966287, -0.2990154060665405, 0.11228113983282068, 1.1992764550808852, -0.6853272363685134, 0.09574559918335417, 0.2960057675256278, -0.7056102661676011, -0.07660097299389966, -0.9366677467122003, 0.8168496999300082, -0.8714198058912386, 0.9904886731628788, 0.27559513606565195, 0.8696189522476573, -0.5837041564069524, -0.9010827951612803, -0.3596011030847594, -0.17867648268392491, 1.8683025338346801, 1.3814821784576443, 0.029303981341713668, -0.483301023475679, -1.0264832498495795, -0.6626959265010888, -0.42565379273415765, -0.22612182124339017, 1.0641679651215092, 0.3055300584742018, -0.3270384080310661, -0.6924560693493702, -0.358691355986743, 0.9056343307705227, 0.9787567051992576, -0.432247084174479, -0.8114940164254685, -0.18428703068146768, 0.04098823202922227, 0.9283805494774559, 0.8095940676120781, 0.23331490894490625, 0.19192011013768226, -0.3634316710919754, 0.7605839886752706, 0.1275550937136757, 0.9633729103425587, 1.6415371066578281, 0.8461127613463357, 0.9950223870071883, -0.07933668721716067, -0.27457696531417064, -0.3795986705389812, -0.673452621124495, -0.1276234253001987, 1.0895645244324095, 1.6418735807384934, 0.8266703021891582, 0.2522607094170879, 0.6548607810392999, -0.29188010201273484, -0.19833497636687986, -0.2034940019906571, 0.4006050560090265, 0.1735636367273355, 0.04658437352216161, 0.46026687102021396, 0.6237343487072418, 0.0037740829931431604, -0.5178425484263947, -0.4000508804319818, 0.8439518203395013, 0.5771625366451947, 0.599672367601729, 0.733784480798227, -0.06907485905812598, 1.5666802357804743, 0.07713711923123309, -0.01941078004714151, -0.5580441955263017, -1.1265691480622568, -0.3535763247444531, 0.04334979084121287, 1.1009438711388464, -0.11069437239625951, 0.8589130279923665, 1.174952708467809, 0.8322642489133942, 1.0044884941833885, -0.877876720691194, -0.708459540343135, -0.3284290162559913, -0.2808717680213404, 0.25651548110791417, -0.7126553360165122, -0.6306629531989852, 0.3436186601440294, 0.07455782906683395, 0.5544117986569262, -0.2748936993650077, -0.04044041483422382, -0.062308009027323495, -0.185020797897727, 1.0217955707573287, 0.9336490082635532, -0.05842264371660016, 0.37772414772809704, -0.07052399815056369, 0.07982762064644192, 1.158151589161735, 0.538745571076043, 0.17442541367552797, 1.4136004353543998, 0.9420082932894098, 0.5561457394457517, -0.32136319480672676, -0.7056404955180237, -0.07144288734369007, -0.4729310205104453, -0.10974984545808908, 0.2902845856017009, -0.2951567009173084, -0.6837741125560979, 0.287603150073673, -0.7726755123702755, 0.13483204763040502, 0.4722874652263151, -0.1152450781680757, 0.44319449624987145, 0.5107153211018624, 1.2708933788407721, -0.32086787528461747, 0.3328987395872036, 0.7884012688720582, -0.9935471963510785, -0.943819822760954, -1.2150320525743201, -0.12194653893697306, 1.4759405759502295, 1.7302293392447528, 1.3780382734782648, 1.1225349027649494, 0.8444768835092796, 0.7931704637695334, -0.0034218669062201163, 0.06721727499797164, -0.6642286684347011, -0.2111632104714954, 0.029172021751815814, 0.5920570818570273, 0.7773243605433598, 0.8754841274308875, -0.21001147337814646, 0.26978419006029536, 0.9515056914254474, -0.041680898327545984, 0.5297546133104825, 0.032871030381482806, 0.4448499356838698, 0.6292665658465059, 0.10660463362791317, -0.6211577725649445, 0.40505428369134866, -1.2492785867283782, -0.6161521012011424, 0.7989137595310061, 0.6229847798078104, 0.07056044645224913, 0.8791976840989462, -0.09179378707250754, 1.1460686140042897, 1.0551978097889618, 1.0257353009404078, 0.19158147668588868, 1.1611452530148536, 1.0369567571746485, 0.5557209587909481, -0.8799420124101786, 0.6810918747391815, 0.05730737205142827, -0.2946119820471887, -0.06405353728099308, -0.6714053707432113, 1.1238839087289296, 1.2301547516382147, 0.04264344865283946, -0.27099024623421836, 0.1518801673489497, 0.9702663392300444, 0.4858136112860892, -0.5953563977556432, -0.9649556290830807, 0.24860254288821176, 0.7403798769359684, 0.32550623724176375, 0.35454781668375457, 0.9416646257409687, 0.547125192230702, 0.26803870074492075, 1.0785429009789818, 0.7973262452413953, 0.619903800977944, -0.3091207357820026, -0.19648761052941782, 0.2564788965291491, 0.8645247462308241, 0.4801282185575082, 0.8189708836726588, 0.8244903819072525, 0.994224111475431, -0.07053853875912736, 0.6605153070222217, 0.5348493335173964, 0.7734631547997971, -0.7653711084823794, -0.22665937747989734, 0.2848756100900352, -0.2945126105231637, 0.7112003064329512, 0.3001641401022475, -0.5489260693016053, 0.6683812545933286, 0.35607575244068285, -0.281638845781012, 0.6561118851892527, 1.1044295004386653, 1.070905077383112, -0.46070566258903534, 0.8313150905561593, -0.12308500301699044, 0.048656944790549085, -0.7325041772349369, 0.8189530088265309, 0.9189140065890755, -0.9013030406177465, 0.2563934891805218, 0.28518082418833113, 0.11431557385375432, -0.4935890465628631, -0.9984143276285048, -0.8016367701638838, 0.05294192381652658, 0.34466192320691874, 0.721294833106312, -0.24379527425103117, 0.017996467582292636, -0.16845603561170183, -0.3247247244322726, -0.6735886386370635, -0.7476073064207936, -1.1131210868722359, -0.012235653255610084, 0.06045145337471085, -0.2525977131875655, 0.36664048432496876, 0.4926999414139042, 0.5031379038816821, -0.6810757176113015, 0.7019788989729637, 0.7899058897716624, -0.8897983384688294, 0.7145100140290714, -0.22552580050090454, 0.5051607199118129, 0.25624177237110923, 0.811790629639533, 0.022738157991889982, -0.6417578715798727, -0.09083733460853814, -0.9145823662400466, 0.41085306292080276, -0.029713721413556115, 0.3724149749385277, 1.1379524923868016, 1.1994774120734326, 0.7485911361649324, 0.7246924140941114, -0.15400726379497642, -0.8202464054756329, -1.1088260445219218, -0.03281877123115829, -0.5100748298907734, 0.0011106326027970064, -0.10530735731951067, -0.5651422271214187, 1.005245907441736, -0.5560719169862199, -0.9427380621473348, -0.14323901589735097, -0.15136219088113112, -0.6630571668545038, -0.3447872039184743, 0.1537162883652384, -0.6145224657281635, 0.010378460480922629, -0.2526922168832499, 0.3069849650212038, -0.28689889617044095, 0.12073844515008764, 0.0872631509452997, -0.0745357718411772, -0.15419129771478415, 0.8032877823230694, 0.42531028208581245, 1.1134736268076224, -0.20711922130401655, -0.2911239291049399, -1.2611118340598566, -0.2784336274262138, -0.2673579850828127, 0.6315699287817321, -0.6855318909851282, 0.49493991677659516, 0.6871313968852125, 0.2855553182217551, -0.5136250161442887, -0.17410728551466514, 0.8441522746167216, -0.04587749109426387, -0.2902402147589487, -0.5405717694092639, 0.47103434185758075, -0.8947340736798883, -0.591509199274808, -1.1020575281191853, 0.44609901198856117, -0.4084000115404493, 0.1784660603755605, 0.9195900095500702, 1.488506107461111, 0.78052559355376, 0.6514182219570228, 0.23155915779382624, 0.25329184681653016, 0.4052211732992272, 0.033948006543479986, 0.43170283916338714, -0.19035764091787064, -0.30914886354238086, 0.2057626337618626, -0.7023221444458123, -0.24737261717581355, -0.21122166804946083, -0.04012777800907712, -0.06165521085082426, 0.40712937126803084, 0.5603745198486276, 0.01664973955957505, 0.47288227124367893, -0.1005640341775022, 0.6049920206607973, -0.6824937883543202, 0.24324972495125927, -0.22416527289418317, 0.2088351980480024, -0.5537373832969613, 0.6685258691241676, 0.2061458181876964, 0.20995782279676786, 0.8004238584810782, 1.0320563326535581, 0.023345955168365504, 0.11399798821950344, 0.674399704882667, 0.745870056922604, -0.6285152879072547, -0.3294850252487431, 0.024071650840194157, -0.6784704450373108, -0.3764850516467688, 0.5939175276327492, 0.024475095719742598, 0.3443415081031934, -0.23286864070982904, -0.08287662534336082, -0.16322167611326277, 0.8380019573316857, -0.6838423059373505, 0.33712832524269626, 0.8856895109124874, 0.4421342253987483, 0.6497910886149875, 0.17245228279113092, -0.4581549696084073, 0.22478273670574042, -0.8678419936297019, -0.02871972135575414, 1.063746216154552, 0.7811923484391046, 0.6257521031537957, -0.5062341443609495, -0.15771540680260182, 0.8351788105643325, -0.670206247075667, -0.7978587515229052, -0.06059153341752907, -0.25428747229047316, -0.8518022082872906, -0.16575070795061786, -0.5091475778476356, 0.6298854314116391, -0.10668090508014672, 0.037500148045736204, -0.2722369295496119, 0.3467540539908849, 0.20922072460717134, 0.4839872134563734, 0.9975084790201825, 0.37293899021243115, -0.3977780241436558, 0.9272490205319638, -0.0870711435842308, 0.2731451850330128, 0.7941073581125901, 0.08295245567495779, -0.7576466653533562, 0.25883083946437, 0.2924959395107888, 0.9530715099706999, 0.19107596351359327, -0.9521141521063599, 0.12250869336958957, -0.8111163090651172, -0.6509507959736487, 0.546003787793344, -0.7626754393521887, 0.5810698421044034, -0.8593205518694829, 0.2162270009165872, -0.8597808986018358],
